{"version": "0.5.2", "metadata": {"date": {"year": 2024, "month": 1, "day": 20, "hour": 19, "minute": 34, "second": 16}, "loudness": -28.24629020690918, "gain": 0.8810713207964438, "name": "Obsidian", "modeled_by": "Steven Atkinson", "gear_type": "amp", "gear_make": "Omega Ampworks", "gear_model": "Obsidian", "tone_type": "hi_gain"}, "architecture": "WaveNet", "config": {"layers": [{"input_size": 1, "condition_size": 1, "head_size": 8, "channels": 16, "kernel_size": 3, "dilations": [1, 2, 4, 8, 16, 32, 64, 128, 256, 512], "activation": "Tanh", "gated": false, "head_bias": false}, {"input_size": 16, "condition_size": 1, "head_size": 1, "channels": 8, "kernel_size": 3, "dilations": [1, 2, 4, 8, 16, 32, 64, 128, 256, 512], "activation": "Tanh", "gated": false, "head_bias": true}], "head": null, "head_scale": 0.02}, "weights": [0.2408028393983841, 0.11506418883800507, -0.8358083367347717, -0.7639647126197815, -0.4148159921169281, 0.2759338915348053, -0.13580256700515747, 0.9196984767913818, -0.012020844966173172, 0.08001457154750824, -0.37670284509658813, 0.0023827769327908754, -0.8694637417793274, -0.746204137802124, -0.5226418972015381, 0.2763032019138336, -0.1061272844672203, 0.19165609776973724, -0.21638402342796326, -0.1667347401380539, 0.1972998082637787, 0.08734215050935745, 0.07249130308628082, -0.05124282091856003, 0.01263950951397419, 0.121800996363163, -0.028766363859176636, -0.09621238708496094, 0.02211606875061989, -0.18711553514003754, -0.009218600578606129, 0.015354984439909458, 0.05530109256505966, -0.11233654618263245, 0.03372205048799515, -0.2691734731197357, 0.0022834299597889185, 0.015971874818205833, 0.2222457230091095, 0.03200546279549599, 0.1085766926407814, -0.15789833664894104, 0.06662701070308685, -0.23633557558059692, 0.042748961597681046, -0.10732636600732803, 0.19579200446605682, -0.07287600636482239, -0.020877135917544365, 0.043668150901794434, -0.009544959291815758, 0.152665913105011, 0.16060985624790192, -0.1394934505224228, 0.13163259625434875, 0.022346118465065956, -0.13220098614692688, -0.07324430346488953, 0.012284033931791782, -0.22713437676429749, 0.10890096426010132, -0.07934379577636719, 0.03206639364361763, -0.04084765911102295, -0.06892277300357819, -0.09050577878952026, 0.3033352494239807, -0.14000950753688812, -0.03211740404367447, 0.33360812067985535, 0.0687737986445427, 0.0702069103717804, -0.1552453637123108, 0.29893243312835693, 0.24812918901443481, -0.08876977860927582, 0.20454353094100952, -0.006587964482605457, -0.20651395618915558, -0.25781941413879395, -0.2457357496023178, 0.3492668867111206, 0.25607162714004517, -0.06093204393982887, -0.2394806146621704, -0.20547963678836823, -0.1487908959388733, 0.14972957968711853, 0.17093439400196075, -0.022117769345641136, -0.1441156566143036, -0.09397701174020767, -0.009429849684238434, 0.25375068187713623, 0.02604520320892334, 0.01564251445233822, -0.1601414531469345, 0.15906071662902832, -0.03133733198046684, -0.2415429800748825, 0.3143117427825928, 0.21962858736515045, -0.27586525678634644, 0.14451363682746887, -0.013140497729182243, -0.21932335197925568, 0.0652991384267807, 0.006136528681963682, -0.23047004640102386, -0.13388538360595703, -0.1487891525030136, 0.3393574655056, -0.21120978891849518, 0.2149527221918106, -0.012449629604816437, -0.2122231423854828, 0.04980577901005745, -0.030136119574308395, 0.10869814455509186, -0.05858935788273811, 0.10006662458181381, 0.10493607074022293, -0.16044609248638153, 0.11732339859008789, -0.03775956109166145, -0.16867944598197937, 0.020172320306301117, -0.166866734623909, 0.0345069095492363, -0.17463967204093933, 0.08999563753604889, -0.04984894022345543, 0.0026522527914494276, -0.10123671591281891, 0.19428189098834991, -0.061150506138801575, 0.15167531371116638, -0.007096412125974894, 0.11675021797418594, -0.01960637979209423, 0.20503248274326324, 0.035134151577949524, 0.23862309753894806, -0.09144697338342667, -0.066518634557724, -0.013541161082684994, 0.04596419632434845, 0.02834922820329666, 0.020195910707116127, -0.2010539174079895, -0.08981809765100479, -0.027277301996946335, -0.12103895097970963, 0.12691956758499146, 0.17755386233329773, -0.2230139821767807, 0.14304400980472565, -0.22794221341609955, 0.03609839826822281, -0.1557217389345169, 0.08265278488397598, -0.056413684040308, -0.006727320607751608, -0.10775936394929886, -0.10310520976781845, 0.011342126876115799, -0.07366616278886795, 0.13918964564800262, -0.14550524950027466, -0.026943158358335495, 0.20956507325172424, -0.07855651527643204, 0.10950253903865814, 0.1299874633550644, -0.15632666647434235, 0.11577704548835754, -0.0902419462800026, -0.03430398553609848, 0.045349255204200745, -0.05680638551712036, -0.06245708465576172, -0.017254741862416267, 0.019738422706723213, 0.057161763310432434, -0.024714726954698563, 0.08523795753717422, -0.08187246322631836, 0.0037063476629555225, -0.19101931154727936, 0.10120272636413574, 0.09039309620857239, 0.1743346005678177, -0.13355541229248047, -0.03356883302330971, -0.04170576483011246, -0.09196119755506516, -0.09630297124385834, 0.13240796327590942, -0.10210079699754715, -0.018540281802415848, 0.09065722674131393, 0.07449885457754135, -0.12762893736362457, -0.02127768285572529, -0.10638882964849472, 0.1549595296382904, -0.10542106628417969, 0.19073736667633057, 0.13046617805957794, 0.06633473187685013, -0.21135662496089935, 0.09183862805366516, 0.1261361688375473, -0.1313510537147522, -0.1312331259250641, -0.09343010187149048, -0.00510024931281805, -0.20556160807609558, 0.003599761752411723, -0.00817049015313387, -0.1380077600479126, 0.032936062663793564, 0.16537423431873322, 0.11717639118432999, -0.028490839526057243, -0.051402781158685684, -0.1978384554386139, -0.11628425866365433, 0.11875414103269577, 0.10957036167383194, 0.115343376994133, 0.010683402419090271, -0.04842211306095123, 0.06749285012483597, 0.1958276778459549, 0.043117258697748184, 0.18450212478637695, -0.19117440283298492, -0.18992196023464203, -0.06660903245210648, 0.16454891860485077, -0.004602477420121431, -0.14995989203453064, 0.05071002617478371, -0.056809913367033005, -0.25341808795928955, 0.20982086658477783, -0.24924349784851074, -0.11093869060277939, 0.08557551354169846, -0.2053927630186081, -0.09246765077114105, 0.23058044910430908, 0.06871344149112701, 0.0003902975586242974, -0.201123908162117, -0.11793621629476547, 0.12738004326820374, -0.20899228751659393, -0.055695269256830215, -0.020293565467000008, 0.011561932973563671, 0.023622732609510422, 0.043296027928590775, 0.1319488286972046, -0.09376469999551773, -0.10519169270992279, 0.12702970206737518, 0.07498583197593689, -0.02275490202009678, 0.020767513662576675, -0.03271031752228737, -0.08272581547498703, -0.06495783478021622, -0.08624057471752167, -0.1721317321062088, 0.26581600308418274, -0.043899133801460266, 0.049725789576768875, -0.040826618671417236, 0.05845271423459053, -0.09539030492305756, 0.0024957340210676193, 0.14506442844867706, 0.08098293840885162, 0.03848639130592346, -0.08826261758804321, -0.01483374834060669, 0.06377152353525162, -0.010023302398622036, -0.12628500163555145, 0.1171051636338234, -0.003276658710092306, -0.06845402717590332, 0.048334311693906784, -0.13746725022792816, 0.03261292725801468, -0.024374747648835182, 0.014592169784009457, -0.10933759063482285, 0.017831094563007355, 0.049591027200222015, -0.03426771238446236, -0.09743588417768478, 0.10206960141658783, -0.2675091624259949, 0.22359797358512878, 0.06658294796943665, -0.1711810827255249, 0.12105730921030045, -0.14165353775024414, 0.22021131217479706, -0.11711008101701736, -0.0732751339673996, 0.29928216338157654, -0.07053477317094803, -0.09686261415481567, 0.2413213551044464, -0.10249363631010056, 0.030507726594805717, -0.22344888746738434, 0.16926762461662292, -0.1330089271068573, 0.22365066409111023, -0.03808945044875145, 0.15271705389022827, -0.16319160163402557, 0.190477192401886, 0.1427939236164093, 0.08740256726741791, -0.1088133305311203, -0.13534314930438995, -0.0892576053738594, 0.19958290457725525, -0.12287121266126633, 0.29261595010757446, -0.05333142727613449, 0.1715308576822281, 0.2171420156955719, 0.08098109066486359, -0.05464090406894684, 0.19329677522182465, -0.04756232351064682, 0.05908956751227379, 0.1574040949344635, -0.038063809275627136, 0.04735017195343971, 0.3240562379360199, -0.25838473439216614, 0.07069691270589828, -0.26994478702545166, 0.24323700368404388, -0.07821805030107498, 0.20778436958789825, -0.03589737042784691, 0.06493190675973892, 0.12116071581840515, 0.055933304131031036, -0.10510546714067459, -0.14669816195964813, -0.07399824261665344, -0.14327307045459747, -0.29637694358825684, 0.13826356828212738, 0.08186228573322296, -0.0383954793214798, 0.14489836990833282, -0.1403176337480545, 0.06773713231086731, -0.056685514748096466, -0.04314647987484932, -0.046937040984630585, -0.0494830496609211, -0.06615276634693146, 0.042349331080913544, -0.10568085312843323, 0.1653996855020523, 0.02696116454899311, 0.12293770909309387, 0.11172930896282196, 0.29918164014816284, -0.046401072293519974, 0.06952934712171555, -0.04413864389061928, 0.0794665738940239, 0.13518790900707245, -0.0448489673435688, 0.07012377679347992, -0.05507562682032585, -0.11162625253200531, 0.03830645978450775, -0.03630294278264046, -0.2627151906490326, -0.05691899359226227, -0.11196047067642212, -0.08076328039169312, 0.12908174097537994, -0.06113433837890625, 0.060845304280519485, 0.05411795154213905, 0.08858659118413925, 0.038793276995420456, -0.0746573656797409, 0.1256532073020935, 0.0878663882613182, -0.09343201667070389, 0.13350069522857666, 0.07473167777061462, -0.06770829856395721, 0.08232317119836807, -0.11449029296636581, -0.03506477549672127, 0.12668673694133759, -0.02193828858435154, -0.10939384996891022, -0.053354840725660324, -0.01408176589757204, -0.02559036947786808, 0.03583572432398796, 0.11850568652153015, 0.030270056799054146, -0.08799285441637039, 0.04067640379071236, 0.08422685414552689, 0.14975473284721375, -0.0934283584356308, 0.008147425949573517, -0.12137918919324875, -0.03862644359469414, 0.0591578371822834, -0.09846258908510208, 0.027974925935268402, 0.11958682537078857, 0.01935632713139057, -0.11809691041707993, -0.07451237738132477, 0.029345819726586342, -0.14381882548332214, 0.05686340853571892, -0.13158337771892548, -0.1727743297815323, -0.15464797616004944, -0.024983661249279976, 0.07023075222969055, -0.14528721570968628, 0.11913856863975525, -0.03744702413678169, 0.02967468462884426, 0.2220856100320816, -0.19672828912734985, 0.04479134455323219, 0.2319774180650711, 0.02829507365822792, -0.06593073159456253, -0.2636106610298157, 0.24276119470596313, 0.1461411863565445, -0.10178099572658539, 0.007871665060520172, 0.09835067391395569, -0.32251548767089844, 0.05395183712244034, 0.15741689503192902, 0.04650842770934105, -0.07667490094900131, -0.05889609083533287, -0.1492835283279419, 0.023108161985874176, 0.003999104257673025, 0.1283697634935379, -0.058964528143405914, 0.0006915034609846771, -0.046626292169094086, 0.04775412380695343, 0.16470855474472046, 0.029541015625, -0.21959778666496277, -0.0484924390912056, -0.24928756058216095, 0.19118578732013702, 0.03276915103197098, -0.15898865461349487, -0.049506187438964844, 0.19523441791534424, -0.18320408463478088, 0.2329360544681549, 0.228811576962471, -0.0920281931757927, 0.1280093789100647, 0.09593567252159119, -0.2110210657119751, 0.1337273120880127, 0.20452892780303955, 0.09079226851463318, 0.038726806640625, -0.10959186404943466, -0.2511731684207916, 0.06368003040552139, 0.42974036931991577, -0.011823911219835281, -0.04704074561595917, 0.3187107741832733, 0.22012941539287567, -0.016069704666733742, -0.10846477001905441, 0.07740820944309235, -0.05293824151158333, -0.17196515202522278, 0.11330162733793259, -0.04576079919934273, -0.26806241273880005, -0.05871117487549782, 0.05878608301281929, 0.17416328191757202, 0.19648559391498566, -0.053069956600666046, -0.31640976667404175, -0.1442326009273529, 0.179735004901886, 0.21509616076946259, 0.11892039328813553, -0.142717644572258, -0.21809782087802887, -0.2560245990753174, -0.0030166180804371834, 0.13888221979141235, 0.288059800863266, -0.13640499114990234, -0.2331492304801941, 0.03493470698595047, 0.10511768609285355, -0.048571910709142685, 0.04448423162102699, -0.21368037164211273, -0.33641380071640015, 0.1543164849281311, -0.13551494479179382, -0.32770827412605286, 0.1064288392663002, -0.06614129990339279, -0.3017333447933197, -0.12028653919696808, 0.06705912947654724, 0.1711578220129013, 0.08942583948373795, 0.02095976285636425, -0.07177083194255829, 0.04412224143743515, -0.16969670355319977, 0.11364921927452087, -0.16510577499866486, -0.010613870806992054, 0.16870954632759094, -0.1249198466539383, 0.15470020473003387, 0.01254518236964941, -0.06815952807664871, 0.08772054314613342, 0.10910917073488235, 0.04811099171638489, -0.25554075837135315, -0.09790753573179245, -0.11660746484994888, 0.17403507232666016, -0.11271236836910248, 0.16892968118190765, -0.15779738128185272, -0.05067518353462219, 0.026731964200735092, 0.12080230563879013, 0.126580610871315, 0.12110746651887894, -0.16342537105083466, -0.12469353526830673, -0.042591433972120285, 0.24448467791080475, -0.02824869006872177, -0.13633981347084045, 0.16130733489990234, 0.19767379760742188, -0.07128238677978516, 0.008050014264881611, -0.10375961661338806, 0.002633902709931135, 0.11547760665416718, -0.04845402017235756, -0.0059791794046759605, 0.17632313072681427, 0.1355099380016327, 0.16625770926475525, -0.12056972086429596, -0.11437185108661652, -0.25465089082717896, 0.07260935753583908, 0.280566930770874, -0.11963371932506561, -0.249160036444664, 0.23104538023471832, 0.3290599584579468, 0.25407907366752625, -0.23216697573661804, 0.13742712140083313, 0.026950448751449585, 0.025015052407979965, 0.12441801279783249, 0.05485481023788452, -0.041382431983947754, -0.2387654185295105, -0.17994678020477295, 0.11250441521406174, 0.12697212398052216, -0.02470744028687477, -0.05317268893122673, -0.259745329618454, -0.07682939618825912, 0.2347469925880432, 0.13681988418102264, 0.07786001265048981, -0.014718643389642239, -0.1622525006532669, -0.19416439533233643, 0.2333744913339615, 0.2199822962284088, -0.021199442446231842, -0.16354689002037048, 0.01549488864839077, 0.228506401181221, -0.09832338988780975, 0.06134900823235512, 0.11689312756061554, -0.01728246733546257, 0.23156404495239258, 0.17375624179840088, -0.09811191260814667, 0.24378521740436554, 0.08730081468820572, -0.17186756432056427, -0.29197371006011963, -0.20224079489707947, 0.22005662322044373, 0.026452379301190376, 0.0011098264949396253, 0.15982306003570557, 0.05597543716430664, -0.16175256669521332, 0.14832746982574463, -0.12302953749895096, 0.18957997858524323, -0.12978039681911469, -0.08132760971784592, 0.1480441838502884, -0.0780039131641388, 0.06975927948951721, -0.03691631555557251, -0.14715927839279175, -0.014337289147078991, -0.037588976323604584, 0.1627991646528244, -0.15189510583877563, 0.09600529074668884, -0.11505386233329773, 0.0127111179754138, 0.03594815731048584, -0.09657315909862518, -0.10356732457876205, 0.14641959965229034, -0.0818115770816803, 0.16477122902870178, -0.10951197892427444, 0.13542574644088745, -0.19072221219539642, 0.04152828827500343, -0.05650312453508377, -0.016531579196453094, 0.09957394748926163, 0.08641020953655243, -0.06328288465738297, 0.06492327898740768, 0.08404064178466797, -0.0840899720788002, 0.19752401113510132, -0.11361834406852722, -0.06639871001243591, 0.054952532052993774, 0.04216567426919937, 0.1664523333311081, -0.06528156250715256, -0.05364260822534561, -0.03141803666949272, 0.15630236268043518, -0.05202534422278404, -0.1313328593969345, 0.23046916723251343, 0.11441401392221451, 0.049470964819192886, -0.2799466550350189, 0.12929509580135345, -0.06459741294384003, -0.11334142088890076, 0.05063040927052498, -0.019926639273762703, -0.08891605585813522, -0.09186361730098724, -0.019965270534157753, 0.04103352129459381, -0.058576274663209915, 0.10403783619403839, -0.001205588225275278, 0.015690403059124947, 0.05214633047580719, 0.12812314927577972, -0.09641188383102417, -0.038377609103918076, -0.21986901760101318, 0.18564081192016602, -0.0776442438364029, 0.14925538003444672, 0.016154438257217407, 0.14297181367874146, -0.019190555438399315, 0.1556314080953598, -0.07285315543413162, -0.12804709374904633, -0.07012942433357239, -0.04387172684073448, -0.11153441667556763, 0.16241401433944702, -0.07405998557806015, -0.05984002351760864, -0.045532312244176865, 0.017778782173991203, -0.025657661259174347, 0.0009422281291335821, -0.05881310626864433, 0.016746025532484055, 0.049425262957811356, -0.04076167941093445, -0.2400030791759491, 0.29584869742393494, -0.1952241212129593, -0.28059083223342896, 0.12386712431907654, 0.21294137835502625, 0.12672416865825653, -0.06229361891746521, 0.21772252023220062, 0.26537585258483887, -0.20924262702465057, 0.07315266132354736, 0.11822596192359924, -0.2557658553123474, -0.08139082789421082, -0.04967193305492401, 0.26518714427948, 0.06577013432979584, 0.1914588212966919, -0.25656139850616455, 0.010886359959840775, -0.2302098572254181, 0.030531935393810272, 0.021442795172333717, 0.19707094132900238, -0.26450207829475403, 0.050056662410497665, -0.11248847097158432, 0.021297747269272804, 0.05375824123620987, 0.28703737258911133, -0.25876376032829285, 0.02511957846581936, 0.1938091367483139, -0.1986265778541565, 0.17530912160873413, 0.2433190941810608, -0.03993774950504303, 0.00394357880577445, 0.3153993785381317, -0.21835266053676605, 0.23618824779987335, 0.02571643516421318, -0.2647830545902252, 0.031153740361332893, -0.1325865536928177, 0.19169819355010986, -0.11827626824378967, -0.09215407818555832, -0.08582423627376556, -0.12306837737560272, 0.034802138805389404, 0.06286103278398514, -0.10304831713438034, 0.007517943624407053, 0.10847706347703934, 0.13171759247779846, -0.11214491724967957, 0.10876019299030304, -0.026056990027427673, -0.04121347516775131, -0.009151019155979156, 0.036955758929252625, 0.4174618124961853, -0.2220544070005417, 0.7627129554748535, -0.6961334347724915, -0.09606090188026428, 0.8283917903900146, 1.1642364263534546, -0.5942726731300354, 0.20213322341442108, -0.02819158136844635, -0.2390611618757248, -0.3794744610786438, 0.3698072135448456, -0.6916742324829102, 0.1473318189382553, 0.5518183708190918, 0.10317757725715637, 0.10453511029481888, 0.21147345006465912, -0.007162068970501423, 0.37079763412475586, 0.06818633526563644, 0.30013635754585266, -0.11366281658411026, 0.0625758022069931, -0.14500920474529266, 0.14453014731407166, -0.2349214404821396, 0.026112960651516914, -0.1407165676355362, 0.34855183959007263, -0.1697831153869629, -0.23940494656562805, 0.07825594395399094, -0.4502035081386566, 0.3183344602584839, -0.20780938863754272, -0.2757725715637207, -0.14259076118469238, -0.019297024235129356, -0.2340870499610901, 0.3026702105998993, -0.10087950527667999, 0.30771300196647644, 0.28975120186805725, 0.19783346354961395, -0.17190107703208923, 0.4328068196773529, 0.15101836621761322, 0.12244740128517151, 0.13895700871944427, 0.14487816393375397, -0.11467479914426804, -0.07858584076166153, -0.17414438724517822, 0.027491886168718338, 0.011507500894367695, -0.2799583971500397, 0.4144858121871948, -0.3556450605392456, 0.1631394624710083, 0.16621313989162445, 0.17299851775169373, -0.08683314174413681, 0.13321232795715332, -0.2258244752883911, 0.021571116521954536, -0.21789026260375977, 0.07205888628959656, 0.030446570366621017, -0.32600465416908264, 0.24043871462345123, -0.17043539881706238, 0.1722252517938614, -0.08905502408742905, 0.09395076334476471, -0.0374247208237648, 0.13568463921546936, 0.0055434140376746655, -0.3409799039363861, -0.21090136468410492, -0.30519819259643555, -0.3062351644039154, 0.2304852157831192, 0.1972513198852539, 0.10654890537261963, -0.07677526026964188, 0.12213977426290512, 0.04191723093390465, 0.3641897439956665, -0.1333458423614502, 0.2770063579082489, -0.1805059164762497, 0.22867369651794434, -0.10133664309978485, -0.016212642192840576, -0.21244533360004425, -0.1580820530653, 0.04717070609331131, 0.09003691375255585, 0.3138953149318695, 0.2444651871919632, 0.38383761048316956, -0.03988023102283478, 0.16496290266513824, 0.03153401240706444, -0.25475430488586426, -0.05550121143460274, -0.09908020496368408, -0.09198329597711563, 0.10659057646989822, 0.0947742611169815, -0.14566993713378906, 0.43241986632347107, 0.005384771153330803, 0.290038526058197, -0.5691893696784973, -0.4252517819404602, -0.1226113960146904, -0.09414847940206528, -0.0647430270910263, -0.3481745421886444, -0.30287250876426697, 0.31851518154144287, 0.4737142026424408, -0.051161594688892365, -0.17694091796875, 0.16888384521007538, 0.2982962131500244, 0.06330261379480362, 0.3747522532939911, -0.27357017993927, -0.1740816980600357, 0.29510611295700073, 0.41222676634788513, -0.04941956326365471, 0.2027728408575058, -0.3065777122974396, 0.3068152368068695, -0.39352262020111084, 0.12371980398893356, -0.23117797076702118, -0.05285964161157608, 0.11307328194379807, -0.05159496143460274, 0.08664043992757797, -0.1737002283334732, -0.2101282775402069, 0.02213011495769024, -0.060279276221990585, 0.29835155606269836, -0.2721574902534485, -0.15321694314479828, -0.2670673131942749, 0.23527613282203674, 0.05629991367459297, 0.22322726249694824, -0.17334745824337006, 0.03576378896832466, 0.25691553950309753, -0.18732698261737823, 0.11377481371164322, 0.1778465062379837, -0.24345305562019348, -0.2686212658882141, 0.04001598432660103, 0.23300758004188538, -0.153495192527771, 0.11121826618909836, 0.14913176000118256, 0.07192327082157135, 0.07079210132360458, 0.2860962748527527, 0.14671678841114044, -0.1617307960987091, 0.1790129840373993, 0.039520371705293655, 0.30878305435180664, -0.3175301253795624, 0.22973638772964478, -0.21881170570850372, -0.2679760754108429, 0.13908348977565765, -0.22026589512825012, 0.001297297072596848, -0.16034747660160065, -0.07282795011997223, 0.07381689548492432, 0.06142524257302284, 0.24395540356636047, -0.08653602004051208, 0.43518927693367004, 0.03958559408783913, -0.22060200572013855, 0.2247280478477478, -0.05602417513728142, 0.12813588976860046, -0.07202070206403732, -0.16395516693592072, 0.08058224618434906, -0.008356795646250248, -0.10300526767969131, -0.1630336493253708, -0.17788514494895935, -0.2296391725540161, 0.07800686359405518, -0.08820846676826477, -0.34322211146354675, 0.08452174067497253, -0.03036772646009922, 0.24517007172107697, -0.048231035470962524, 0.1544967144727707, -0.05244475603103638, -0.02342083863914013, 0.09932315349578857, 0.22526238858699799, -0.17927101254463196, -0.01602434739470482, 0.021154899150133133, 0.15947625041007996, -0.302322119474411, 0.05164119228720665, 0.010716232471168041, -0.11298022419214249, -0.011097660288214684, -0.291225790977478, 0.22501224279403687, -0.2659144401550293, 0.027648061513900757, 0.17179104685783386, 0.02948700822889805, -0.09514220803976059, -0.11673741787672043, 0.004622500389814377, 0.17454996705055237, -0.019088109955191612, 0.0671190619468689, -0.34661373496055603, 0.3639940917491913, -0.22616876661777496, 0.3618065416812897, -0.13824012875556946, -0.03723827749490738, -0.05889926105737686, -0.05178181827068329, 0.20157365500926971, 0.05684874951839447, -0.2953105866909027, 0.07528374344110489, -0.029475172981619835, -0.04761949181556702, 0.28374913334846497, 0.25638890266418457, -0.3307306468486786, 0.12041524052619934, 0.40191176533699036, -0.2041894942522049, 0.4252154231071472, -0.22882269322872162, 0.19794219732284546, 0.3758263885974884, 0.09332109242677689, 0.35730016231536865, 0.025783229619264603, -0.1500968486070633, -0.05132102593779564, -0.3710278272628784, -0.1904388815164566, -0.0073462422005832195, 0.3319007158279419, -0.32713666558265686, 0.06497854739427567, -0.17517416179180145, 0.11401841044425964, -0.12947601079940796, -0.18488138914108276, -0.03558129817247391, 0.0974709540605545, 0.007092394400388002, 0.019148504361510277, -0.103680819272995, -0.0024555346462875605, 0.02918585017323494, 0.03665681555867195, 0.10868213325738907, -0.032207269221544266, -0.0057852366007864475, 0.04085750877857208, -0.04977817460894585, -0.07112765312194824, 0.1017528772354126, -0.03851243108510971, 0.030577942728996277, -0.024248206987977028, 0.06258251518011093, 0.06716389209032059, -0.5197733044624329, -0.2537568211555481, 0.3872043192386627, -0.17702198028564453, -0.16207005083560944, 0.3274593949317932, 0.10170625895261765, -0.1659950613975525, 0.015881970524787903, -0.1269376277923584, -0.1214338019490242, 0.029718730598688126, 0.15779690444469452, 0.014970649033784866, -0.4686523973941803, 0.07774843275547028, 0.283005028963089, -0.30688419938087463, -0.06993082165718079, 0.07545758783817291, -0.30621758103370667, -0.09849069267511368, 0.06483659148216248, 0.06551481783390045, -0.15482741594314575, -0.20120829343795776, 0.15269948542118073, -0.4328027069568634, -0.24192355573177338, 0.6321489810943604, -0.1434517800807953, 0.0628238394856453, -0.00887290108948946, -0.13269831240177155, 0.11998426169157028, 0.13193979859352112, 0.15417855978012085, -0.1165565624833107, -0.1309761106967926, -0.16615761816501617, 0.19262947142124176, -0.006090543232858181, 0.04750509560108185, -0.25899380445480347, 0.176564022898674, 0.2317924201488495, 0.1110699325799942, 0.30379462242126465, -0.030855124816298485, 0.24425552785396576, 0.00937661062926054, 0.20242610573768616, -0.25498977303504944, 0.20587237179279327, -0.2610625922679901, 0.003418147098273039, -0.11348816752433777, 0.2628712058067322, -0.27395325899124146, 0.06667286902666092, 0.026298725977540016, 0.06700348109006882, -0.07993719726800919, -0.03499223664402962, -0.15593962371349335, -0.027857769280672073, 0.2208067625761032, -0.18113254010677338, -0.07612323760986328, 0.22839990258216858, -0.15461087226867676, 0.10900858044624329, -0.31649312376976013, 0.27948716282844543, -0.017537051811814308, -0.03763099014759064, 0.3895401358604431, 0.06434421241283417, 0.15661507844924927, -0.09686081856489182, 0.14573436975479126, 0.12274640798568726, -0.2418871819972992, 0.11281654983758926, -0.1966945379972458, 0.35295724868774414, -0.256579726934433, -0.19230861961841583, -0.2364151030778885, 0.3494129478931427, 0.21400883793830872, 0.29855573177337646, -0.43440723419189453, 0.39442408084869385, 0.3068787157535553, -0.2674907147884369, 0.3274739682674408, -0.06421113759279251, -0.3079853355884552, 0.21023207902908325, -0.002035883953794837, -0.2844809591770172, -0.32521843910217285, -0.12402871251106262, 0.5511570572853088, 0.33669233322143555, -0.0015339700039476156, -0.4285708963871002, -0.3680458664894104, -0.17676019668579102, 0.5462300777435303, 0.2111446112394333, 0.050276439636945724, -0.07430793344974518, 0.02158600650727749, 0.2649277448654175, -0.2850836217403412, 0.1972092092037201, 0.13314920663833618, -0.2889550030231476, -0.09678483009338379, -0.3989925980567932, 0.30994346737861633, 0.5226894021034241, -0.13140083849430084, -0.27319973707199097, 0.2171480655670166, 0.10828565061092377, -0.2464825063943863, 0.21069952845573425, 0.2970394492149353, -0.2184176743030548, -0.38037794828414917, -0.07807710021734238, 0.5006220936775208, -0.15724895894527435, -0.005586586892604828, -0.010412562638521194, 0.024762434884905815, 0.03457595780491829, 0.14327925443649292, 0.03293639048933983, -0.10368884354829788, -0.10626256465911865, 0.08090300858020782, 0.10195233672857285, -0.11334513127803802, 0.01094604842364788, -0.18876001238822937, -0.03508838638663292, -0.1215943992137909, 0.10765086114406586, -0.10930123180150986, 0.11760175973176956, 0.05886940658092499, 0.06657817959785461, -0.1911064237356186, 0.1663675606250763, 0.05262390524148941, 0.3077434003353119, -0.149184450507164, 0.10079236328601837, 0.18019555509090424, -0.19355233013629913, 0.0774792730808258, 0.20712730288505554, -0.18571238219738007, 0.08914774656295776, 0.02724800817668438, 0.20759904384613037, 0.11534443497657776, 0.07061603665351868, 0.12963074445724487, -0.18981367349624634, 0.14856983721256256, -0.28019726276397705, -0.10593272745609283, 0.009869673289358616, -0.17310436069965363, 0.13775086402893066, -0.0547349713742733, 0.19080260396003723, 0.06674036383628845, -0.09326411038637161, -0.06408865749835968, -0.0037938468158245087, 0.05031311511993408, 0.09473787993192673, 0.015778502449393272, -0.2835417687892914, -0.2156614065170288, -0.0014170969370752573, -0.16442899405956268, 0.26878970861434937, -0.04968706890940666, -0.027487339451909065, 0.1825091391801834, -0.17684340476989746, -0.03631091117858887, 0.12446833401918411, -0.10407503694295883, 0.08961726725101471, -0.12558498978614807, 0.058328308165073395, -0.02517576888203621, -0.11733652651309967, 0.22537171840667725, 0.20015206933021545, -0.20901890099048615, 0.14213088154792786, -0.10969346761703491, -0.23288555443286896, 0.116034135222435, 0.12301287800073624, -0.06874250620603561, 0.03313515707850456, -0.08594980090856552, 0.159417986869812, -0.10821481794118881, -0.36328208446502686, -0.1316942274570465, -0.1366298794746399, 0.022571520879864693, 0.022480322048068047, 0.01876356266438961, -0.017918335273861885, -0.044084250926971436, -0.08373065292835236, 0.10169342160224915, -0.017349569126963615, -0.0876121073961258, 0.045528706163167953, -0.21127547323703766, 0.04601302742958069, -0.26230552792549133, 0.2766934037208557, -0.00683300755918026, -0.13595949113368988, -0.05492515116930008, -0.17556582391262054, 0.007289155852049589, -0.00952402874827385, 0.009829987771809101, -0.09162530303001404, 0.1744833141565323, -0.055471327155828476, 0.20870791375637054, -0.15271402895450592, 0.1534251719713211, -0.022336352616548538, -0.0735744759440422, -0.15724216401576996, 0.07911334931850433, -0.19330842792987823, 0.23606131970882416, 0.0545341856777668, 0.20844493806362152, 0.0100456727668643, 0.08531869202852249, 0.16763417422771454, -0.03565395623445511, -0.025091586634516716, 0.2371988445520401, -0.022631293162703514, 0.3109617829322815, -0.36033692955970764, 0.15915970504283905, 0.17339444160461426, -0.1281648427248001, 0.011191525496542454, -0.1260620653629303, -0.01694951392710209, 0.0019685954321175814, -0.0917874202132225, 0.2886875569820404, -0.22114916145801544, 0.056264881044626236, -0.18450750410556793, 0.13415957987308502, 0.15221469104290009, -0.07349422574043274, 0.09126594662666321, -0.12362078577280045, 0.3174687922000885, -0.13793402910232544, 0.05020716041326523, -0.028387412428855896, -0.08173029124736786, 0.23898275196552277, 0.05956556648015976, -0.043462324887514114, -0.1726313829421997, 0.23266945779323578, -0.07468161731958389, 0.15316009521484375, -0.06104541942477226, 0.25363239645957947, -0.030893774703145027, -0.027298105880618095, -0.066196508705616, -0.0473504401743412, -0.08083941042423248, 0.04965868592262268, -0.0020345202647149563, 0.01335776224732399, 0.012920592911541462, -0.058315373957157135, 0.15474753081798553, -0.008897990919649601, 0.015092507936060429, 0.17670363187789917, 0.00659956457093358, 0.15479081869125366, -0.19781599938869476, 0.05737721920013428, 0.3654915988445282, 0.09886226058006287, 0.15044525265693665, -0.09892681241035461, 0.21884456276893616, -0.20136843621730804, -0.18105611205101013, 0.19413143396377563, -0.060916054993867874, 0.06198278069496155, -0.23140132427215576, 0.013482335954904556, -0.24698932468891144, 0.14306610822677612, -0.004625055007636547, 0.20586678385734558, -0.17885145545005798, -0.07178150862455368, -0.051262371242046356, 0.046888284385204315, 0.44441017508506775, -0.06453219056129456, -0.20312434434890747, -0.022544315084815025, 0.02669023536145687, -0.32431045174598694, -0.08001556992530823, 0.09729866683483124, 0.0505465529859066, -0.21100983023643494, 0.04946380853652954, -0.1674007773399353, 0.08388522267341614, 0.10373300313949585, 0.1293911337852478, -0.10195598751306534, 0.07716003060340881, 0.10137565433979034, 0.15740132331848145, 0.15633971989154816, 0.01637548767030239, -0.05684397742152214, 0.15119275450706482, -0.29552972316741943, 0.08896521478891373, -0.17749586701393127, 0.11174675822257996, -0.036953117698431015, -0.12653318047523499, -0.008587431162595749, 0.040769319981336594, -0.10405103117227554, -0.12926383316516876, -0.057523127645254135, 0.08836783468723297, -0.08466450870037079, 0.19444884359836578, -0.09877383708953857, 0.13827109336853027, -0.06112787127494812, 0.15642336010932922, 0.06374988704919815, -0.009731215424835682, -0.17559519410133362, -0.0715305283665657, -0.15011779963970184, 0.3399665057659149, -0.03594742715358734, -0.11941984295845032, 0.14065004885196686, 0.10316505283117294, -0.026903651654720306, 0.05203095078468323, 0.21915563941001892, 0.061487920582294464, -0.18444408476352692, 0.03325165435671806, 0.08359948545694351, 0.1357276886701584, 0.08616670221090317, -0.004871284123510122, -0.12987229228019714, -0.2529408037662506, 0.023386381566524506, -0.01244580838829279, -0.21369600296020508, 0.05796389654278755, 0.009268872439861298, 0.12651823461055756, -0.21610289812088013, 0.098665252327919, 0.10003635287284851, -0.053891509771347046, 0.018163461238145828, -0.11042714864015579, 0.2030351310968399, 0.1735760122537613, 0.17404454946517944, 0.14054374396800995, -0.007633701432496309, 0.016791975125670433, -0.14092007279396057, 0.026291782036423683, 0.0167992040514946, -0.016233263537287712, -0.006562783382833004, -0.15709391236305237, -0.07528559118509293, 0.18538182973861694, -0.06596199423074722, 0.04958770051598549, -0.19686439633369446, 0.20945483446121216, 0.009096711874008179, -0.10988975316286087, -0.12223158776760101, -0.11025767773389816, -0.17288504540920258, 0.07173775881528854, -0.10809627920389175, 0.005708183161914349, 0.16914843022823334, -0.10959973186254501, -0.02528301626443863, -0.06935860961675644, 0.1928398162126541, -0.039866793900728226, 0.052200932055711746, 0.007852374576032162, -0.037886276841163635, -0.1286492943763733, 0.2217235416173935, -0.08155584335327148, 0.08538924902677536, -0.006587037350982428, -0.17019888758659363, -0.017632970586419106, -0.031720153987407684, -0.16452191770076752, 0.16135255992412567, 0.019070880487561226, 0.10534069687128067, -0.2741907238960266, 0.07403901219367981, -0.053132232278585434, -0.23155441880226135, -0.10495450347661972, -0.19753773510456085, 0.18561241030693054, -0.05156286805868149, -0.1392579972743988, 0.02015937864780426, -0.02682444266974926, 0.03776639699935913, -0.20793823897838593, -0.004123387858271599, -0.010299538262188435, 0.20457886159420013, -0.12802425026893616, -0.24464306235313416, -0.12645754218101501, -0.14954052865505219, -0.26265832781791687, -0.17318157851696014, 0.4416896104812622, -0.27315208315849304, -0.25853002071380615, -0.22587382793426514, -0.02030896209180355, -0.1336302012205124, -0.2232660949230194, 0.344927579164505, 0.3215286135673523, -0.023653648793697357, -0.1395638883113861, 0.05704566836357117, 0.21669578552246094, -0.019307585433125496, 0.17857369780540466, 0.05300217121839523, -0.22564083337783813, -0.06748095154762268, 0.2229408323764801, -0.2931823134422302, -0.4745664596557617, -0.1820087432861328, -0.059478696435689926, -0.22494405508041382, -0.07951685786247253, 0.11351384222507477, 0.13372035324573517, -0.16187937557697296, 0.059804558753967285, 0.11045589298009872, 0.21593958139419556, 0.07754005491733551, -0.06925497949123383, 0.1352202296257019, 0.04268884286284447, -0.005933029111474752, 0.045629050582647324, 0.008798149414360523, -0.08340253680944443, -0.05365781486034393, 0.1713070124387741, -0.060304153710603714, 0.013394748792052269, -0.09932487457990646, 0.08162830024957657, -0.2537825405597687, -0.01915697008371353, 0.2435244917869568, 0.020159149542450905, -0.0027824747376143932, 0.08235888183116913, 0.10141634941101074, -0.05548035725951195, 0.12761709094047546, -0.11970469355583191, -0.04269850254058838, -0.015786761417984962, 0.08262906968593597, -0.1303676813840866, -0.03449593111872673, -0.00855991616845131, 0.15406562387943268, 0.010230102576315403, 0.03677546977996826, 0.2841854691505432, 0.10509353131055832, 0.02896241284906864, -0.20222583413124084, 0.1780794858932495, -0.14217814803123474, -0.03633018210530281, 0.23019810020923615, -0.07545486837625504, -0.029452703893184662, -0.09974172711372375, 0.1549033522605896, 0.0725025087594986, -0.018562575802206993, 0.31223830580711365, 0.12801715731620789, 0.16240790486335754, -0.08814113587141037, 0.08485371619462967, 0.17521116137504578, -0.15929995477199554, -0.07248830795288086, -0.1187358871102333, 0.14702533185482025, -0.16349908709526062, 0.25839975476264954, -0.17450332641601562, 0.28865450620651245, -0.13335882127285004, 0.12866832315921783, 0.23190093040466309, 0.02295982465147972, -0.001804271014407277, -0.0171881765127182, 0.23452670872211456, 0.0062114158645272255, 0.18932196497917175, -0.16902680695056915, -0.027020614594221115, -0.10050781071186066, 0.0885140672326088, 0.10104364901781082, 0.08285152167081833, -0.268483430147171, 0.060424674302339554, -0.10343383252620697, 0.0650569424033165, 0.028494475409388542, 0.020097516477108, -0.1773034781217575, -0.06694380939006805, 0.12986168265342712, -0.18031395971775055, -0.06667514890432358, 0.23187123239040375, -0.09932956844568253, 0.10312436521053314, -0.09025997668504715, 0.17671672999858856, -0.14804115891456604, 0.011776124127209187, 0.20080703496932983, -0.03611152619123459, 0.0705280750989914, -0.2207699865102768, -0.029941804707050323, 0.2057843655347824, -0.2763901948928833, 0.07875598222017288, -0.06287356466054916, 0.3629797697067261, -0.06340640783309937, 0.02032588981091976, -0.20148929953575134, 0.14377395808696747, -0.10834679007530212, 0.24853035807609558, 0.02336137741804123, 0.04692830517888069, -0.13250604271888733, -0.14697715640068054, -0.008577071130275726, -0.037876129150390625, -0.11887147277593613, -0.047773364931344986, 0.15040062367916107, 0.027075540274381638, 0.005554067436605692, -0.020794322714209557, 0.07725852727890015, -0.14169453084468842, 0.18232756853103638, -0.03283156454563141, 0.08246553689241409, -0.0596545971930027, 0.12462365627288818, -0.10401756316423416, -0.11027954518795013, 0.1260807067155838, -0.027047112584114075, -0.01833820529282093, 0.15118610858917236, -0.12101878225803375, 0.15665782988071442, -0.13520771265029907, 0.23222890496253967, -0.17956577241420746, -0.011486404575407505, 0.06948943436145782, -0.09057005494832993, -0.13063091039657593, 0.02205900475382805, 0.2306664139032364, -0.17288191616535187, -0.0925108790397644, 0.10735900700092316, -0.16652147471904755, 0.07852013409137726, -0.2441057413816452, 0.1468716710805893, 0.05950728803873062, -0.1550903171300888, -0.034701377153396606, -0.20202834904193878, 0.3207399547100067, -0.09844590723514557, -0.1950739622116089, 0.010441734455525875, -0.17306077480316162, -0.1330505758523941, -0.057196661829948425, -0.02866426482796669, -0.09484204649925232, 0.3097836375236511, -0.015593871474266052, 0.19259971380233765, -0.2195974439382553, 0.04339459910988808, -0.1548994928598404, 0.14128147065639496, 0.010060506872832775, 0.01524820551276207, -0.2213573157787323, -0.08124911040067673, -0.009014517068862915, -0.1594376266002655, -0.06417031586170197, -0.2210792452096939, -0.0037675851490348577, 0.05521152913570404, -0.10731183737516403, 0.3057614266872406, 0.03644199296832085, 0.21879251301288605, -0.18688692152500153, 0.04584978148341179, -0.032501861453056335, -0.14533771574497223, 0.07421193271875381, -0.1352107971906662, 0.139651820063591, -0.060433268547058105, -0.20256559550762177, 0.20349660515785217, -0.15482103824615479, 0.2096954584121704, -0.2558423578739166, 0.03310667350888252, -0.05343330651521683, 0.040167905390262604, -0.0075126332230865955, 0.00469153793528676, 0.11397159844636917, 0.020789461210370064, 0.1720094382762909, 0.07271432876586914, -0.19193221628665924, 0.1208472028374672, 0.1564388871192932, -0.11585076153278351, -0.06592454016208649, 0.0869048535823822, -0.057913683354854584, -0.09711024165153503, -0.18251261115074158, 0.15681622922420502, 0.0176907479763031, 0.09895890951156616, -0.2938988208770752, 0.010186937637627125, -0.20616614818572998, -0.028126360848546028, -0.13626879453659058, -0.13391582667827606, 0.015855176374316216, -0.0772569477558136, 0.18491533398628235, 0.14696764945983887, 0.01148935966193676, 0.18963301181793213, -0.19206348061561584, 0.04752819240093231, -0.010922033339738846, 0.16479285061359406, 0.10258518159389496, -0.13060276210308075, -0.036275606602430344, 0.027471542358398438, 0.16542816162109375, -0.16865205764770508, 0.03288161754608154, -0.031229674816131592, -0.076810821890831, 0.036299750208854675, 0.09020429849624634, 0.21888360381126404, 0.08212241530418396, 0.025711355730891228, 0.02092149667441845, 0.09365668892860413, -0.06183812767267227, 0.1127154603600502, 0.08013557642698288, 0.14806050062179565, -0.08436159789562225, -0.061236172914505005, 0.389845609664917, 0.0006482587195932865, 0.0868830531835556, 0.06629042327404022, 0.1054571121931076, -0.1395971179008484, -0.7936269640922546, 0.08287537097930908, 0.7228029370307922, -0.5246004462242126, 0.35692599415779114, -0.678682804107666, -0.30222272872924805, -0.4790080785751343, 0.7226622700691223, -0.891145646572113, -0.5484582185745239, -1.0784721374511719, 0.23233641684055328, -0.6983834505081177, 0.31963998079299927, -0.6466361284255981, -0.25410306453704834, -0.2527678310871124, 0.11148954927921295, 0.18412639200687408, 0.26219791173934937, -0.050174906849861145, -0.3104786276817322, -0.1748330146074295, -0.06064121425151825, -0.12807054817676544, 0.19619853794574738, -0.2116112858057022, 0.2564273774623871, -0.016126925125718117, -0.014121423475444317, -0.14257283508777618, 0.2645246684551239, -0.07906515151262283, 0.11413351446390152, -0.10095497965812683, -0.3594804108142853, 0.3574688136577606, 0.12307151407003403, -0.26543688774108887, 0.1904623657464981, -0.01702495478093624, 0.020730404183268547, 0.4773576259613037, -0.10656529664993286, 0.29626160860061646, 0.22130413353443146, 0.3350149095058441, 0.05923868715763092, -0.7168481349945068, -0.011382492259144783, -0.19993972778320312, 0.11719505488872528, 0.6919057369232178, 0.31056922674179077, -0.26587992906570435, 0.017115937545895576, 0.23034735023975372, -0.2046189159154892, 0.0002634170523378998, -0.7853066921234131, 0.38272684812545776, 0.7411592602729797, 0.04765348136425018, 0.3422066569328308, -0.023572802543640137, -1.0719661712646484, -0.31485477089881897, -0.15782243013381958, -0.012332361191511154, -0.10441622138023376, -0.04156797006726265, -0.21945132315158844, 0.06990743428468704, 0.1517973691225052, 0.09719964116811752, -0.22112202644348145, -0.13481898605823517, 0.1052570715546608, -0.07607460767030716, 0.5143652558326721, 0.12420899420976639, -0.7880420088768005, 0.008990591391921043, 0.33015918731689453, -0.07764878123998642, -0.36286479234695435, 0.4511334300041199, -0.1628260612487793, -0.1856163889169693, 0.11049691587686539, -0.004680074285715818, -0.12296701967716217, -0.27344241738319397, -0.41038599610328674, -0.2801147997379303, -0.17802712321281433, 0.2256506234407425, -0.6709562540054321, 0.1300804167985916, 0.06638411432504654, -0.41731953620910645, -0.15034255385398865, -0.030901940539479256, 0.2301505208015442, 0.22659394145011902, 0.06122969463467598, -0.26133525371551514, 0.07913480699062347, -0.20266345143318176, -0.10225538909435272, -0.005487152375280857, 0.1060180589556694, 0.07157497107982635, 0.6615312695503235, -0.14444823563098907, -0.012928244657814503, 0.1746712028980255, -0.11050528287887573, -0.07581381499767303, 0.2177569717168808, 0.04159083217382431, -0.37604668736457825, 0.21894331276416779, -0.030969610437750816, 0.06419981271028519, -0.07657173275947571, 0.30195608735084534, 0.09289802610874176, -0.2444348931312561, 0.5697169899940491, -0.21562005579471588, -0.14917558431625366, 0.2866576611995697, 0.2985948324203491, -0.37818941473960876, 0.210898756980896, 0.4938364326953888, -0.4544149935245514, 0.14166423678398132, -0.3962922990322113, 0.41794553399086, 0.6132552623748779, 0.2679819166660309, -0.2517750859260559, 0.46020209789276123, -0.09887197613716125, -0.014615927822887897, -0.09944327175617218, -0.2673352360725403, -0.14021342992782593, 0.014109581708908081, 0.012352589517831802, -0.19852249324321747, 0.12487734854221344, -0.3784148395061493, 0.4514274299144745, -0.13376154005527496, -0.3105466365814209, 0.16354535520076752, -0.1227928027510643, 0.021331701427698135, -0.2256489396095276, -0.018686611205339432, 0.1053132638335228, -0.12262028455734253, 0.14403803646564484, -0.03255155682563782, 0.027274152263998985, 0.12152216583490372, 0.22612909972667694, 0.21585491299629211, 0.17957642674446106, 0.01786109432578087, 0.1364758312702179, -0.07941267639398575, -0.07473574578762054, -0.266726016998291, -0.13232114911079407, -0.005121895112097263, 0.27854225039482117, 0.1494455337524414, 0.01057612057775259, -0.060426097363233566, 0.05761150270700455, 0.2401796132326126, -0.20074597001075745, -0.0030736003536731005, -0.09414529800415039, 0.23128916323184967, 0.1323271095752716, 0.03748244792222977, 0.1421596109867096, 0.268710732460022, -0.35075873136520386, -0.1597626805305481, -0.35509029030799866, 0.10506265610456467, 0.2337382435798645, 0.23778796195983887, -0.12025349587202072, 0.1869458705186844, 0.19269707798957825, 0.1059521809220314, -0.16620993614196777, 0.0646507665514946, 0.05359276384115219, -0.11070780456066132, -0.22296695411205292, 0.37064510583877563, -0.5218372344970703, 0.3277037441730499, 0.02935943752527237, -0.3236956298351288, -0.3755077123641968, 0.5145265460014343, -0.16571225225925446, -0.41423892974853516, -0.2952689528465271, -0.2695455551147461, 0.6644673943519592, -0.44517987966537476, -0.49065154790878296, -0.24711143970489502, 0.09250279515981674, 0.2275834083557129, -0.28917497396469116, 0.27575165033340454, -0.1182074174284935, -0.22549618780612946, -0.12521743774414062, 0.16971884667873383, 0.050241269171237946, 0.094662144780159, 0.012244385667145252, -0.16774819791316986, 0.2510175406932831, -0.04228099435567856, -0.07172872126102448, -0.10640235990285873, 0.13721564412117004, 0.020697444677352905, -0.04285477101802826, -0.09509886801242828, -0.062109045684337616, 0.07621654123067856, 0.2980394959449768, -0.19160500168800354, -0.04848388954997063, 0.19180244207382202, -0.18475870788097382, 0.04198822006583214, -0.27317702770233154, 0.3697068989276886, 0.33710241317749023, 0.24264605343341827, 0.1838744878768921, -0.17575126886367798, -0.34917426109313965, 0.1286545991897583, -0.14779871702194214, -0.1527390033006668, -0.203242689371109, 0.09690346568822861, 0.11275476962327957, -0.23115018010139465, 0.12711431086063385, -0.12480821460485458, -0.10995998233556747, 0.10307417064905167, -0.22368460893630981, -0.1793225258588791, -0.20504631102085114, -0.05618638917803764, 0.027316711843013763, 0.026005364954471588, -0.06255991011857986, 0.02604205720126629, 0.0227667186409235, 0.040048353374004364, 0.012766683474183083, 0.048761092126369476, -0.012267185375094414, -0.2024061232805252, 0.1937420815229416, -0.20058107376098633, -0.12787474691867828, -0.08839689195156097, 0.30711719393730164, -0.057439446449279785, -0.237743079662323, -0.172169029712677, -0.129972442984581, 0.1237238347530365, -0.012458810582756996, 0.0563092902302742, -0.16121183335781097, 0.2788459360599518, 0.029911352321505547, -0.187159463763237, 0.10190342366695404, 0.39059609174728394, -0.0031343556474894285, 0.24098551273345947, 0.07200968265533447, -0.15350241959095, -0.2642918825149536, -0.03893168270587921, 0.23282122611999512, 0.04305044189095497, -0.45547500252723694, -0.21576260030269623, -0.16665174067020416, 0.22988377511501312, 0.3822934329509735, -0.14050014317035675, 0.012777350842952728, 0.11349814385175705, -0.2440311312675476, 0.1381281018257141, 0.09221591800451279, 0.08636520802974701, 0.07296976447105408, -0.15761497616767883, 0.06311109662055969, -0.06722825765609741, 0.015834374353289604, -0.2248990833759308, 0.279070645570755, 0.08338487148284912, -0.04629666358232498, 0.12406302243471146, 0.038483574986457825, 0.3354300856590271, -0.12090588361024857, -0.1561046689748764, 0.1183842122554779, -0.09658226370811462, 0.01238700095564127, -0.23387065529823303, 0.08678386360406876, -0.042462386190891266, 0.12053052335977554, 0.30406996607780457, 0.22201290726661682, -0.042384106665849686, 0.038253456354141235, -0.12666164338588715, 0.07258643209934235, 0.08688531816005707, 0.0058416277170181274, 0.06506789475679398, -0.08005142211914062, -0.17423036694526672, -0.03987841308116913, -0.10651910305023193, 0.22367380559444427, 0.12623527646064758, -0.16660195589065552, -0.016716333106160164, -0.13448981940746307, -0.2248043268918991, -0.03263062611222267, -0.08228450268507004, -0.056432973593473434, 0.2012576311826706, 0.011542716063559055, 0.07084333896636963, 0.0577264279127121, -0.05600394681096077, -0.0805550068616867, -0.17288465797901154, 0.07937946170568466, 0.26989075541496277, 0.09840790182352066, -0.18663302063941956, 0.03959773853421211, -0.06914910674095154, -0.1519233137369156, 0.13579240441322327, 0.1538269966840744, 0.2652270793914795, 0.01330124493688345, -0.08988206088542938, -0.047292713075876236, -0.02058294042944908, 0.07500875741243362, 0.25324705243110657, 0.029133597388863564, -0.23094585537910461, 0.09924322366714478, 0.09027737379074097, -0.07585971802473068, -0.272107869386673, -0.08093767613172531, 0.17221176624298096, 0.05760248377919197, -0.20450852811336517, 0.2438175529241562, -0.09215964376926422, 0.02319459803402424, 0.12597525119781494, 0.15170742571353912, 0.10259304940700531, -0.17748276889324188, -0.22088855504989624, 0.23625105619430542, -0.07137399911880493, 0.2932471036911011, 0.03170629218220711, 0.010167467407882214, 0.07227609306573868, 0.16313539445400238, -0.27211257815361023, 0.02691398561000824, 0.05143291875720024, -0.16083413362503052, -0.1583055704832077, -0.017881343141198158, 0.16412262618541718, 0.04844587296247482, -0.11562328040599823, 0.12301063537597656, 0.12819641828536987, -0.05238427594304085, -0.028747683390975, 0.22964777052402496, -0.14129438996315002, -0.17866995930671692, -0.30452960729599, -0.08972431719303131, 0.21213111281394958, 0.15093164145946503, -0.1513063758611679, 0.09898599982261658, -0.27739524841308594, 0.18275544047355652, 0.09762800484895706, 0.29112058877944946, 0.2997630536556244, -0.2343566119670868, 0.27787137031555176, 0.1675209403038025, -0.13715779781341553, 0.05122922733426094, 0.1372852474451065, 0.033499229699373245, 0.1851867437362671, -0.10382311046123505, 0.13853207230567932, -0.07245102524757385, 0.027887564152479172, -0.05115894973278046, 0.10911957174539566, -0.03404657915234566, 0.02866497077047825, -0.15658491849899292, -0.13174834847450256, 0.17042824625968933, -0.24494986236095428, -0.29975786805152893, -0.09993141889572144, -0.11427104473114014, 0.22630538046360016, 0.0840720385313034, 0.19741304218769073, -0.0778832733631134, -0.1203983947634697, -0.003783831838518381, -0.10398447513580322, 0.23292531073093414, -0.0973007008433342, 0.1500813364982605, 0.14973828196525574, -0.09475425630807877, 0.08980854600667953, 0.17294102907180786, 0.2140544354915619, 0.02268042601644993, -0.07320963591337204, 0.2385825216770172, -0.16722683608531952, -0.15274454653263092, -0.22663772106170654, 0.06799646466970444, 0.1999749094247818, 0.054867006838321686, 0.16839298605918884, 0.049915943294763565, 0.23743674159049988, 0.21946895122528076, -0.09367719292640686, -0.20258691906929016, 0.26115164160728455, 0.03499464690685272, 0.16597683727741241, 0.09742651879787445, -0.14151351153850555, -0.3085871636867523, -0.08747395873069763, 0.2890755534172058, 0.14158432185649872, -0.5059798359870911, 0.012209691107273102, -0.2476717084646225, -0.43091505765914917, 0.18608811497688293, -0.05250979959964752, -0.026058029383420944, 0.2246357500553131, -0.24733132123947144, -0.02850080095231533, 0.1778784692287445, 0.14816607534885406, 0.13365645706653595, -0.27514103055000305, 0.011144178919494152, 0.04130970314145088, -0.0943136140704155, -0.232268825173378, -0.016297386959195137, 0.23296885192394257, -0.2060835212469101, -0.13189972937107086, 0.2741953134536743, 0.29560673236846924, -0.03632931038737297, -0.2213713526725769, 0.0031359291169792414, -0.0741477757692337, 0.06484723836183548, 0.1650095134973526, 0.02759385295212269, -0.18664084374904633, 0.08728523552417755, -0.17333760857582092, 0.03045251965522766, -0.02667822316288948, -0.30520403385162354, 0.1139829084277153, 0.017985874786973, -0.06530403345823288, 0.018470751121640205, -0.03456531837582588, 0.004737011156976223, 0.38465121388435364, -0.018417298793792725, 0.14741025865077972, -0.1641470044851303, -0.19090653955936432, -0.11517278850078583, 0.020063914358615875, 0.12829197943210602, -0.07454989850521088, -0.07803397625684738, 0.1089947521686554, 0.15580539405345917, 0.05552712827920914, 0.18384897708892822, 0.056774720549583435, -0.0928397849202156, -0.13454166054725647, -0.10833429545164108, 0.1006452888250351, 0.22637848556041718, -0.30318909883499146, 0.09452695399522781, 0.1355918049812317, 0.06132615730166435, -0.061968766152858734, 0.10566817224025726, -0.03809034079313278, -0.2629118263721466, 0.016936207190155983, -0.12517842650413513, 0.10441651940345764, 0.012958678416907787, 0.046134818345308304, 0.062426041811704636, 0.018301066011190414, -0.01472290325909853, -0.09198460727930069, 0.20790590345859528, 0.26484355330467224, -0.3377301096916199, -0.06288301199674606, -0.3617769181728363, 0.24831892549991608, -0.1019524484872818, -0.5639747381210327, 0.2632944881916046, 0.0063678789883852005, -0.10233775526285172, 0.13504160940647125, -0.05180584639310837, 0.08619178086519241, -0.17686831951141357, 0.0671909749507904, 0.4785131514072418, -0.44784218072891235, 0.11790739744901657, -0.031243642792105675, 0.1652350127696991, -0.1125529408454895, -0.10966924577951431, -0.2671870291233063, -0.10987962037324905, 0.09981624782085419, -0.035638101398944855, -0.0650675892829895, -0.42260536551475525, 0.04775957390666008, 0.19283121824264526, -0.5705912709236145, 0.5731385946273804, -0.03580085188150406, -0.22082388401031494, 0.10157176107168198, -0.17122624814510345, 0.05077710747718811, 0.09536606818437576, 0.1395123451948166, -0.23432862758636475, -0.01840931549668312, -0.00708840973675251, -0.0028576503973454237, -0.17422986030578613, 0.011572576127946377, -0.0530230775475502, 0.03806905448436737, -0.052867889404296875, -0.17522595822811127, -0.24889758229255676, -0.125332772731781, 0.15622292459011078, -0.15613055229187012, -0.04366431385278702, 0.27816641330718994, -0.15626122057437897, 0.009686492383480072, 0.1912485957145691, -0.09655018895864487, -0.08453384041786194, -0.07409478724002838, 0.11881280690431595, -0.24828825891017914, -0.21757499873638153, 0.06062150001525879, -0.19043301045894623, 0.04422502592206001, 0.14196600019931793, 0.11541347205638885, 0.2303711622953415, 0.10358971357345581, 0.06940974295139313, -0.26261278986930847, -0.05172378569841385, 0.06913886219263077, 0.22405806183815002, -0.19808128476142883, -0.11917812377214432, 0.2809823751449585, 0.11168210953474045, -0.06573127210140228, -0.04970414191484451, 0.05768471211194992, 0.019983721897006035, -0.15344612300395966, -0.16858792304992676, -0.12867455184459686, 0.08452944457530975, -0.030495431274175644, -0.19234296679496765, -0.03334341570734978, -0.08353286981582642, 0.11286376416683197, -0.10684508085250854, 0.04292682185769081, 0.2327718585729599, 0.02545732446014881, 0.14797167479991913, 0.19859297573566437, -0.3348671495914459, 0.3529220223426819, 0.1226620227098465, -0.41142570972442627, 0.161797434091568, 0.10942354053258896, -0.1213705763220787, 0.07892725616693497, 0.08171939104795456, -0.014901198446750641, -0.05523529276251793, -0.09968166798353195, 0.21002072095870972, -0.03378487005829811, 0.02614886872470379, 0.05600051209330559, -0.12839820981025696, 0.26686757802963257, 0.09942679852247238, 0.12477156519889832, 0.09566015005111694, -0.1578778326511383, -0.09248994290828705, 0.19691021740436554, -0.07814475893974304, -0.028859298676252365, 0.015604093670845032, -0.02232310362160206, -0.1547391414642334, 0.23665271699428558, -0.214024156332016, 0.23879000544548035, 0.12791472673416138, -0.06727790832519531, -0.018849117681384087, 0.05947832018136978, 0.005219572223722935, 0.09024986624717712, 0.03677649796009064, 0.051614996045827866, -0.3683088421821594, -0.055265869945287704, 0.01126628927886486, 0.18731297552585602, 0.11455335468053818, 0.22300490736961365, 0.229076087474823, 0.04103928431868553, 0.08109325170516968, 0.23675549030303955, -0.15218186378479004, -0.010910548269748688, 0.4287175238132477, 0.10379171371459961, 0.08205217123031616, -0.008233648724853992, -0.306519478559494, -0.13732773065567017, -0.12076754868030548, 0.21203534305095673, -0.20295287668704987, -0.7567132711410522, -0.05925809592008591, -0.43972688913345337, -0.016644585877656937, 0.051053792238235474, -0.4048115015029907, 0.3862176835536957, -0.10409446060657501, -0.0511784628033638, 0.12026797980070114, 0.028919441625475883, 0.26373663544654846, -0.0081139812245965, 0.12084321677684784, 0.06830847263336182, 0.08576153963804245, -0.21771757304668427, -0.17603719234466553, 0.34674984216690063, -0.17431777715682983, 0.030253218486905098, 0.12877123057842255, 0.27244797348976135, 0.09528686851263046, -0.158150315284729, -0.17931044101715088, 0.04288859665393829, 0.1994912475347519, 0.16025130450725555, 0.055939722806215286, -0.05291422829031944, 0.209183931350708, 0.12240518629550934, -0.013934504240751266, 0.0703280121088028, 0.036499474197626114, 0.173872709274292, 0.297186940908432, -0.23316743969917297, 0.1147131621837616, -0.10089822858572006, 0.026723207905888557, 0.1265072524547577, 0.20257015526294708, 0.08498986810445786, -0.3312898874282837, -0.17345988750457764, 0.2323656976222992, -0.2362479418516159, 0.07705868035554886, 0.1262667328119278, 0.06723954528570175, 0.09815393388271332, 0.07464947551488876, -0.02829502336680889, 0.2615015506744385, 0.0017688991501927376, -0.0807081088423729, -0.06751590222120285, -0.1507580280303955, 0.22350692749023438, -0.059565529227256775, -0.12288212031126022, 0.11746614426374435, 0.27805444598197937, -0.19992318749427795, -0.2333543449640274, 0.14869965612888336, 0.1353866308927536, -0.29105183482170105, -0.19373197853565216, -0.17488917708396912, 0.1277381181716919, -0.06890890002250671, -0.031960077583789825, 0.09076686948537827, 0.033481791615486145, -0.20808573067188263, -0.01832624524831772, -0.24614207446575165, -0.32980862259864807, -0.16875112056732178, -0.3998721241950989, 0.05498252436518669, -0.05674010515213013, -0.07845355570316315, 0.06374910473823547, 0.010683191940188408, -0.3346936106681824, -0.1881527155637741, -0.10950052738189697, 0.13212837278842926, 0.09398870915174484, 0.11999048292636871, 0.21572604775428772, -0.22743076086044312, 0.027468573302030563, -0.09547266364097595, 0.02701677195727825, -0.24925559759140015, -0.07403784245252609, -0.14059847593307495, -0.09464890509843826, -0.06005208194255829, -0.26117637753486633, -0.20669180154800415, -0.02356250025331974, 0.027265284210443497, 0.12259360402822495, 0.0897301509976387, 0.08968861401081085, -0.04366375878453255, -0.025557365268468857, -0.17880462110042572, 0.09259557723999023, -0.017372434958815575, -0.2724078297615051, 0.05695970728993416, -0.13405300676822662, -0.034669410437345505, -0.051179930567741394, -0.07484375685453415, -0.1826033592224121, 0.25617435574531555, 0.09804731607437134, -0.025164227932691574, -0.1869109570980072, -0.10526624321937561, -0.04593043029308319, 0.15220262110233307, -0.2675253748893738, 0.46223634481430054, -0.46158555150032043, -0.10853737592697144, 0.5887742638587952, -0.29286009073257446, -0.24750182032585144, 0.1451803743839264, -0.2846216857433319, -0.06848384439945221, 0.010990235023200512, -0.02843998372554779, 0.22580108046531677, -0.4712270200252533, 0.08185344934463501, 0.31694161891937256, -0.12043474614620209, 0.28084734082221985, -0.18450097739696503, 0.18402008712291718, -0.037991348654031754, 0.0012082356261089444, 0.23709933459758759, -0.056257642805576324, -0.16951984167099, 0.2815861105918884, -0.12354318052530289, -0.43329790234565735, 0.2614571154117584, -0.5811043977737427, -0.03793711215257645, 0.333890825510025, -0.09687044471502304, 0.006959514692425728, 0.17193226516246796, -0.15832257270812988, 0.1416524052619934, 0.07000899314880371, 0.0031797222327440977, -0.13198217749595642, -0.024632634595036507, 0.1559925228357315, 0.2101525366306305, -0.05265241116285324, -0.1996309906244278, 0.011765806935727596, 0.13729727268218994, 0.06514019519090652, -0.27114030718803406, 0.04242749884724617, -0.002203121315687895, -0.07188685983419418, 0.1376667469739914, -0.09307993203401566, -0.16384857892990112, 0.014347911812365055, 0.12781737744808197, 0.1198435053229332, -0.060367241501808167, -0.193351611495018, -0.12958644330501556, 0.004995725583285093, -0.1072344109416008, 0.2893770933151245, 0.00422219792380929, 0.26332247257232666, 0.02598544955253601, -0.0023435610346496105, 0.22517915070056915, 0.14493867754936218, 0.03434773162007332, -0.18967176973819733, -0.19783936440944672, 0.05767567828297615, 0.015115863643586636, 0.012031079269945621, -0.04126492515206337, 0.07882527261972427, 0.19197268784046173, 0.12900348007678986, -0.19543632864952087, 0.09423688799142838, 0.03273729979991913, -0.12451895326375961, -0.24757416546344757, -0.07857941836118698, 0.10218936204910278, 0.2260451465845108, 0.12454142421483994, -0.09195410460233688, -0.10217529535293579, 0.003660142421722412, 0.243131622672081, -0.022705385461449623, -0.14987215399742126, -0.022706612944602966, 0.03289826586842537, -0.13953515887260437, 0.10255495458841324, -0.06507208198308945, -0.10655216127634048, 0.10903308540582657, 0.2219327837228775, -0.051822010427713394, -0.25222066044807434, -0.21856403350830078, 0.036554355174303055, 0.068092480301857, 0.13848061859607697, -0.07451561093330383, -0.11304305493831635, -0.047486428171396255, -0.03959126025438309, 0.01575854793190956, 0.003077506087720394, -0.15561650693416595, 0.0704067274928093, -0.1719357669353485, 0.07545986026525497, 0.20781902968883514, 0.05957592651247978, 0.11022134870290756, -0.21002677083015442, -0.08596041798591614, 0.03708651289343834, -0.13628913462162018, -0.19029280543327332, -0.045391425490379333, 0.25134411454200745, -0.14397987723350525, -0.09109693020582199, 0.1973777711391449, 0.17405328154563904, 0.09297280758619308, -0.23956719040870667, 0.07806563377380371, 0.08443441241979599, -0.05315566435456276, -0.04833095520734787, 0.0207581277936697, 0.2630828022956848, -0.1433069109916687, 0.2853558659553528, -0.03757459670305252, -0.13940931856632233, 0.12980635464191437, 0.0340348482131958, -0.15478897094726562, -0.06598816812038422, 0.03774863854050636, -0.024753445759415627, -0.012941744178533554, -0.37578508257865906, 0.014178956858813763, -0.038650114089250565, 0.23374217748641968, 0.10485265403985977, 0.22228872776031494, 0.08943016082048416, -0.16613145172595978, -0.17651750147342682, -0.019595541059970856, -0.25236043334007263, 0.03727482259273529, -0.07868839055299759, -0.15745693445205688, -0.1230984553694725, 0.09587450325489044, 0.006933585740625858, 0.14717240631580353, 0.08754691481590271, -0.37487900257110596, 0.07614769786596298, -0.15453743934631348, -0.200613871216774, 0.06510362029075623, 0.0007892058929428458, 0.024107206612825394, -0.07059288769960403, 0.07875994592905045, 0.05041196942329407, 0.025655921548604965, 0.06871625781059265, 0.15201421082019806, 0.036826811730861664, -0.11981725692749023, -0.12304987758398056, 0.23913565278053284, -0.049605466425418854, -0.060479871928691864, 0.0019917257595807314, 0.0723208338022232, 0.14256742596626282, 0.08508827537298203, 0.054998066276311874, -0.06177546828985214, 0.02240307815372944, 0.07782197743654251, 0.08673287183046341, -0.2729492485523224, -0.5257061123847961, 0.842589795589447, 0.3499951958656311, -0.4337129592895508, 0.3248322904109955, -0.5723515152931213, 0.24139916896820068, 0.41429415345191956, -1.191254734992981, 0.9060140252113342, 0.8527897596359253, 0.048246562480926514, -0.4216543138027191, 0.0796913355588913, -0.8747854828834534, 0.027319595217704773, -0.31195715069770813, 0.28611859679222107, -0.30776098370552063, -0.0773351639509201, 0.4242490530014038, -0.037578240036964417, 0.049274738878011703, 0.3019369840621948, 0.08677176386117935, 0.4308660328388214, 0.1258440613746643, -0.19983725249767303, 0.3091250956058502, -0.3107265830039978, -0.3168042302131653, 0.250274121761322, -0.2960268259048462, 0.026988418772816658, -0.0038085533306002617, 0.4348558783531189, 0.3591335117816925, 0.10395735502243042, -0.2374582588672638, -0.11749667674303055, 0.1874583661556244, -0.04362012445926666, -0.24449777603149414, -0.02700955420732498, 0.45736056566238403, -0.08071350306272507, -0.10245493054389954, 0.11065500229597092, -0.17507129907608032, -0.15010125935077667, -0.132364422082901, 0.4707498550415039, -0.4682914912700653, -0.36410197615623474, -0.2156691998243332, -0.10757490247488022, -0.17824053764343262, -0.5239678621292114, 0.2791808545589447, 0.18615257740020752, -0.46819350123405457, 0.412842333316803, 0.5569568276405334, -0.033061012625694275, 0.18875154852867126, 0.3242911696434021, 0.2850465178489685, -0.40388360619544983, -0.1119275763630867, 0.23572702705860138, -0.06123395636677742, 0.19395025074481964, -0.006724253762513399, 0.13080871105194092, -0.17398329079151154, -0.14802296459674835, -0.06523745507001877, 0.4663045108318329, 0.16657666862010956, -0.1366499811410904, -0.34928444027900696, 0.31891754269599915, -0.3200092911720276, -0.06505294889211655, -0.056133631616830826, 0.4507790803909302, -0.0325763076543808, 0.4444909691810608, 0.09683861583471298, -0.08498817682266235, 0.011549733579158783, -0.6000263094902039, -0.07381557673215866, 0.28888216614723206, 0.1760607212781906, -0.27125582098960876, -0.004311650991439819, 0.1313909888267517, -0.10825709998607635, -0.3842566907405853, -0.09217813611030579, 0.048317041248083115, 0.17971152067184448, -0.23310281336307526, -0.3565532863140106, 0.1726568639278412, 0.2062351107597351, 0.1272261142730713, 0.22307470440864563, 0.13841061294078827, -0.006371221039444208, 0.23679836094379425, 0.1280483901500702, -0.18168391287326813, 0.14763306081295013, 0.4147581160068512, -0.04328952729701996, 0.2662457823753357, 0.10736992210149765, -0.39557772874832153, 0.17223915457725525, -0.006837224587798119, -0.08212615549564362, -0.011034651659429073, 0.034974146634340286, 0.162628173828125, 0.06689853966236115, 0.34448879957199097, 0.058976899832487106, -0.2171359360218048, -0.04363322630524635, 0.5774059295654297, -0.2147633582353592, -0.04964696243405342, -0.07809893786907196, 0.005549071356654167, 0.11010870337486267, -0.18285790085792542, 0.0784817710518837, 0.1697188764810562, 0.11382333934307098, 0.03293812274932861, 0.033864568918943405, 0.048074088990688324, 0.06181485578417778, 0.012142793275415897, 0.1558709293603897, 0.7303743362426758, 0.24315327405929565, 0.14441940188407898, 0.07463127374649048, -0.0775490403175354, 0.11895518749952316, -0.3234677016735077, 0.03587959706783295, -0.2229272574186325, -0.12292872369289398, 0.04400559142231941, -0.20409201085567474, 0.3236311972141266, -0.06872542947530746, -0.28659239411354065, 0.3116574287414551, -0.06352637708187103, 0.22029051184654236, 0.20675212144851685, -0.20113785564899445, -0.12314711511135101, 0.1526489108800888, 0.3168213665485382, -0.18121622502803802, 0.03501362353563309, -0.08912341296672821, 0.22404268383979797, -0.10836604237556458, 0.27605706453323364, -0.4154234826564789, -0.013744672760367393, -0.2191295474767685, 0.3566760718822479, 0.15410317480564117, 0.20499621331691742, -0.01778378337621689, 0.20186883211135864, 0.0779062807559967, -0.2084009200334549, -0.12075316905975342, -0.04587294161319733, -0.036557458341121674, -0.08999853581190109, 0.049224354326725006, 0.12426106631755829, 0.22192609310150146, -0.10062532871961594, 0.27469968795776367, 0.04022294282913208, -0.005052890628576279, 0.6860234141349792, -0.10088922083377838, -0.07652392238378525, 0.008095418103039265, -0.1433863490819931, -0.16013215482234955, -0.16010013222694397, -0.37719622254371643, 0.2388274222612381, 0.25382667779922485, -0.2725715935230255, -0.09179180860519409, 0.17554739117622375, 0.15780743956565857, -0.009713385254144669, 0.2230798900127411, 0.004597468301653862, -0.1941923201084137, 0.2092650830745697, -0.24855206906795502, 0.07286757975816727, -0.3213212490081787, -0.2373429834842682, -0.12474963814020157, 0.17062436044216156, -0.688082754611969, -0.2054322212934494, -0.01660563237965107, -0.05077119544148445, -0.17466220259666443, -0.06653096526861191, 0.09292521327733994, 0.07884622365236282, -0.029510870575904846, -0.06041651591658592, 0.016061393544077873, 0.23776127398014069, -0.0689343512058258, 0.026241354644298553, 0.39527803659439087, -0.38919129967689514, -0.1720532476902008, 0.13858234882354736, 0.21043610572814941, -0.1832384467124939, 0.03764127194881439, 0.04712291806936264, 0.06921344250440598, 0.13475199043750763, -0.18798299133777618, 0.1903514266014099, 0.28998008370399475, 0.003517880104482174, 0.08563818037509918, -0.2890119254589081, 0.045691441744565964, 0.06878996640443802, -0.18711145222187042, -0.23834258317947388, -0.17587482929229736, 0.10042528063058853, -0.2984154224395752, -0.4385428726673126, 0.18272137641906738, 0.19765236973762512, -0.328603595495224, 0.08393023908138275, 0.37556591629981995, 0.5311536192893982, 0.1277794986963272, -0.17236261069774628, 0.2572805881500244, -0.44411444664001465, -0.09990658611059189, -0.04655683413147926, -0.1644967794418335, -0.02063245140016079, 0.11444219946861267, -0.011591628193855286, 0.21129152178764343, 0.031234582886099815, -0.12522980570793152, -0.2846295237541199, -0.1323147714138031, -0.0457933135330677, 0.03368665277957916, 0.3040163516998291, 0.1289839893579483, 0.03577309101819992, -0.022845717146992683, 0.058371592313051224, -0.13120058178901672, -0.05230146646499634, -0.23630423843860626, -0.055800486356019974, 0.22366963326931, 0.275720477104187, 0.15061484277248383, 0.0005625017802231014, 0.1271091103553772, 0.17915673553943634, 0.02370903454720974, 0.1669568419456482, -0.0005929630133323371, 0.020635055378079414, 0.2098645567893982, 0.0846930593252182, -0.01246598456054926, 0.027719995006918907, -0.06736700981855392, 0.014279523864388466, -0.26256030797958374, -0.237037792801857, -0.14815624058246613, 0.10419199615716934, -0.30857929587364197, -0.22805126011371613, 0.043842993676662445, 0.00010480656783329323, 0.08650656789541245, -0.207499161362648, -0.13397108018398285, 0.2765030264854431, 0.2889854311943054, -0.16044606268405914, -0.31270962953567505, -0.21444523334503174, -0.0933765321969986, -0.005241618026047945, -0.13255585730075836, 0.07253307104110718, 0.10826177150011063, -0.23950409889221191, -0.1277688443660736, 0.04605894908308983, 0.04594171419739723, -0.03413946181535721, -0.0775313526391983, 0.02399258501827717, 0.20289690792560577, -0.13743431866168976, 0.1840880811214447, -0.1738796979188919, -0.025578077882528305, -0.18585897982120514, -0.3237530589103699, 0.0913611501455307, 0.0752846822142601, 0.5406938195228577, 0.2565933167934418, 0.4214046597480774, 0.6795421242713928, 0.3588869571685791, 0.09022833406925201, -0.06383275985717773, -0.1752539575099945, -0.12441709637641907, 0.06359218060970306, 0.06408191472291946, -0.45969003438949585, -0.5029146075248718, -0.15677772462368011, -0.04356134682893753, -0.24357768893241882, -0.01703840307891369, 0.07090197503566742, 0.2027086466550827, 0.3177472949028015, 0.05219048634171486, -0.0383828729391098, 0.12073197215795517, 0.16289006173610687, 0.1628762185573578, -0.008588467724621296, -0.1553027182817459, 0.0841117799282074, -0.2042827308177948, -0.05302025005221367, 0.14089322090148926, -0.09728545695543289, 0.1753712296485901, 0.15708452463150024, 0.16295090317726135, 0.050958603620529175, 0.2720984220504761, -0.0914558470249176, -0.14213858544826508, -0.2095405012369156, 0.22986772656440735, 0.1950218826532364, 0.11122506111860275, -0.2860480546951294, -0.20799706876277924, 0.01516035571694374, -0.13216878473758698, -0.2778463661670685, 0.10613872110843658, -0.09780711680650711, 0.14381565153598785, 0.049969423562288284, -0.046808499842882156, -0.13769064843654633, -0.202177956700325, 0.17885111272335052, 0.09930720925331116, 0.1408153772354126, -0.27078670263290405, -0.014197749085724354, -0.043179161846637726, 0.02035779505968094, -0.26787233352661133, 0.07655737549066544, 0.07141149044036865, 0.12777121365070343, 0.06002047285437584, -0.08917277306318283, 0.0361442007124424, 0.15104936063289642, -0.2639516592025757, -0.20833845436573029, -0.07599110901355743, 0.026217859238386154, -0.07222289592027664, -0.004057249519973993, 0.13828767836093903, 0.02512982115149498, 0.04544362425804138, -0.14466044306755066, 0.20570185780525208, -0.04570872336626053, -0.17064820230007172, -0.09519302845001221, -0.08791956305503845, 0.20509229600429535, 0.16555927693843842, 0.31930628418922424, -0.05897116661071777, -0.12663879990577698, -0.0298770759254694, 0.15725651383399963, -0.3094334900379181, -0.5560737252235413, -0.25106993317604065, 0.5159051418304443, 0.4644778072834015, -0.4524116814136505, 0.650455117225647, 0.8435943126678467, -0.3991979658603668, 0.005252157803624868, -0.10060316324234009, -0.02812262624502182, 0.10058929026126862, -0.03848213702440262, 0.15270599722862244, -0.12586721777915955, -0.543544590473175, -0.07262329012155533, 0.3756050169467926, -0.28385961055755615, -0.18715490400791168, 0.01938427984714508, 0.050780039280653, 0.10150939971208572, -0.0713997632265091, 0.16390152275562286, 0.0225173719227314, 0.25243520736694336, 0.22677023708820343, -0.04660531133413315, 0.1891898661851883, 0.7373006343841553, 0.2131250947713852, 0.007769974414259195, 0.13180764019489288, -0.018445245921611786, -0.20043018460273743, 0.0494384691119194, -0.016555480659008026, 0.13950465619564056, 0.28518715500831604, -0.14125072956085205, 0.08074154704809189, 0.2818417549133301, -0.08385743945837021, 0.18458573520183563, -0.13170933723449707, -0.0835065022110939, -0.07143928855657578, -0.05705295503139496, 0.02383815124630928, -0.049235522747039795, -0.177268847823143, -0.0057578361593186855, 0.08942295610904694, 0.08247733861207962, 0.05376129597425461, -0.19240930676460266, 0.15702131390571594, 0.023423222824931145, 0.08856182545423508, -0.09541979432106018, 0.08232855051755905, -0.006029984448105097, 0.08803015947341919, -0.0245040375739336, -0.05737822875380516, -0.08696828782558441, -0.03720756992697716, -0.18935547769069672, -0.20147481560707092, 0.08613916486501694, 0.17358921468257904, -0.09811187535524368, -0.15484003722667694, -0.3164733946323395, -0.14987865090370178, -0.027918847277760506, -0.11007361859083176, 0.33939245343208313, -0.09630697220563889, 0.07406800240278244, -0.07187482714653015, -0.11673907190561295, 0.12819251418113708, -0.08448608219623566, 0.013089213520288467, 0.028407160192728043, 0.20715275406837463, 0.06397756189107895, -0.20951981842517853, -0.18755003809928894, 0.08208709210157394, 0.11515560746192932, 0.06899132579565048, -0.2490067183971405, 0.09835126250982285, 0.21643559634685516, 0.1790541261434555, -0.24014876782894135, 0.18211401998996735, 0.03853197395801544, 0.14559830725193024, -0.21230891346931458, -0.009837348014116287, -0.21338264644145966, -0.17953729629516602, 0.19629192352294922, 0.09173189848661423, 0.10051043331623077, -0.1510406881570816, -0.043236635625362396, 0.06565450876951218, -0.1367500275373459, -0.36071813106536865, 0.03235257789492607, -0.2028900533914566, 0.020269079133868217, 0.18392854928970337, -0.12215666472911835, 0.10144265741109848, -0.08411713689565659, -0.2815437912940979, -0.13543884456157684, 0.04120456799864769, 0.2766542434692383, -0.08619917184114456, -0.12544715404510498, -0.21882355213165283, 0.1823265254497528, -0.033393457531929016, -0.2244628220796585, 0.15907622873783112, 0.048216912895441055, -0.22449444234371185, -0.08750900626182556, 0.002528865123167634, 0.20975591242313385, 0.19395853579044342, 0.13588348031044006, -0.2677496373653412, -0.14967602491378784, -0.05813781917095184, 0.19776342809200287, 0.14712704718112946, -0.009517633356153965, 0.01629350520670414, 0.0010467026149854064, -0.2190522849559784, -0.011967585422098637, -0.07603345066308975, -0.12309353798627853, 0.21563835442066193, -0.1342601329088211, -0.15762385725975037, -0.0295181255787611, -0.23149432241916656, -0.13609501719474792, 0.04503734037280083, 0.3437870740890503, 0.062453486025333405, -0.19076982140541077, -0.03771453723311424, 0.2282768040895462, -0.080406054854393, -0.0020392704755067825, 0.0019090244313701987, 0.09088011085987091, 0.0019459528848528862, -0.002456185407936573, 0.19445866346359253, 0.06662356108427048, -0.1909262090921402, -0.18595007061958313, 0.14180569350719452, 0.12261204421520233, -0.008182608522474766, -0.25293177366256714, 0.013563910499215126, 0.054903119802474976, -0.21649512648582458, 0.06225527450442314, 0.15898171067237854, 0.10134688764810562, 0.00558925187215209, -0.25993606448173523, 0.09315905719995499, -0.013020478188991547, -0.2133689820766449, -0.09527633339166641, -0.09632723033428192, 0.3231983184814453, -0.1494126319885254, -0.11393506824970245, 0.1555148959159851, -0.1040063202381134, -0.16099154949188232, -0.004292946308851242, -0.14763955771923065, 0.14345893263816833, -0.14110980927944183, 0.024416057392954826, -0.04218253493309021, -0.31235378980636597, -0.08232676237821579, -0.21355649828910828, 0.21115419268608093, -0.021903324872255325, -0.05272112786769867, 0.10088314116001129, 0.15705369412899017, -0.18435454368591309, 0.24931545555591583, -0.0904073640704155, -0.18390218913555145, 0.20819400250911713, -0.22146229445934296, -0.1088007390499115, 0.05016690120100975, 0.11247515678405762, -0.17065827548503876, -0.02302863635122776, 0.05144033581018448, -0.02780912071466446, 0.05835748463869095, -0.08851645886898041, -0.1585354506969452, 0.10153061896562576, -0.1995735466480255, -0.15244194865226746, 0.15524227917194366, 0.0994570180773735, 0.07621680945158005, -0.15209358930587769, -0.16359451413154602, 0.30522340536117554, 0.030857332050800323, 0.2571091055870056, -0.14076371490955353, 0.11337703466415405, -0.07765187323093414, -0.20233353972434998, 0.21049562096595764, -0.14597207307815552, -0.2626934349536896, -0.004808731377124786, -0.25515347719192505, -0.3941372036933899, 0.24474307894706726, -0.05846184864640236, 0.13912679255008698, -0.16781634092330933, 0.0488893985748291, -0.13685575127601624, -0.041907183825969696, -0.2870514690876007, 0.0685296580195427, -0.108239084482193, -0.1440323144197464, -0.11958151310682297, 0.08949863165616989, 0.09677942842245102, 0.08071938902139664, -0.055568501353263855, 0.1953907459974289, -0.23522581160068512, 0.11691306531429291, -0.014028125442564487, 0.05738023295998573, -0.03828757628798485, 0.008297001011669636, 0.026202110573649406, -0.3347625434398651, 0.08659180998802185, 0.02295367419719696, -0.005880857352167368, 0.2647150158882141, 0.039421357214450836, 0.03930728882551193, 0.09901531040668488, 0.15262487530708313, 0.19196957349777222, -0.06874075531959534, -0.010246063582599163, 0.05163237825036049, 0.05992526561021805, 0.003226171713322401, -0.0749746710062027, 0.16802221536636353, 0.13517193496227264, 0.10199698805809021, 0.22020292282104492, 0.07279516011476517, 0.0395672470331192, 0.21328699588775635, 0.024738559499382973, -0.0041319201700389385, -0.040670353919267654, -0.1318039894104004, -0.04926186427474022, -0.031892817467451096, 0.00046545977238565683, 0.07287850230932236, 0.14326435327529907, 0.2512630522251129, 0.15216852724552155, 0.08413507044315338, 0.2835123538970947, 0.04076460748910904, -0.07753456383943558, 0.15814988315105438, -0.07329656183719635, -0.1752912551164627, 0.2716745138168335, -0.09270061552524567, 0.04321470856666565, -0.0946141853928566, -0.058154474943876266, 0.07188396155834198, -0.0983349084854126, -0.0379740446805954, -0.15328000485897064, 0.08984246104955673, -0.12204552441835403, 0.050770629197359085, 0.1520051658153534, -0.17645098268985748, 0.054911646991968155, -0.25803840160369873, 0.08386440575122833, 0.09351610392332077, -0.13901260495185852, -0.010919091291725636, -0.18067920207977295, -0.12933561205863953, 0.2201729267835617, 0.17080606520175934, 0.01745365932583809, 0.12123393267393112, 0.2510562837123871, 0.09184321761131287, -0.07128927856683731, -0.2017604261636734, -0.11986005306243896, -0.11510641127824783, 0.3311777114868164, 0.2574230432510376, -0.018675241619348526, -0.06661488115787506, 0.03897394239902496, 0.04614819958806038, -0.06418862193822861, -0.15700608491897583, -0.00906134583055973, 0.021931050345301628, -0.14200569689273834, -0.04934998229146004, -0.1944563388824463, -0.22148682177066803, 0.0447876863181591, -0.10899919271469116, -0.0019463105127215385, 0.15380951762199402, 0.03274538367986679, -0.16400237381458282, -0.30238425731658936, 0.2766627073287964, 0.05366186425089836, 0.3995956480503082, -0.29806602001190186, -0.08672954142093658, 0.2251930683851242, -0.24478675425052643, 0.0016930169658735394, 0.17955996096134186, -0.08572062849998474, 0.06662039458751678, -0.08301131427288055, -0.13844674825668335, 0.11196821182966232, 0.5741782784461975, 0.2002243548631668, 0.2205125093460083, -0.23363511264324188, -0.021900273859500885, 0.020472267642617226, 0.048228319734334946, -0.05166812986135483, 0.027484910562634468, -0.3059770464897156, -0.12301311641931534, -0.03914834186434746, -0.2107037603855133, -0.09450454264879227, -0.2527317702770233, -0.23232440650463104, 0.1704292595386505, 0.018765002489089966, -0.30265599489212036, -0.055813927203416824, 0.00394714530557394, 0.3000369668006897, -0.17448438704013824, -0.11493666470050812, 0.10470368713140488, -0.08938810974359512, 0.16822919249534607, 0.17673912644386292, 0.28019970655441284, 0.013895399868488312, -0.09335791319608688, -0.14443963766098022, -0.19043144583702087, 0.04646390676498413, 0.01305928360670805, -0.03471548482775688, -0.16255417466163635, 0.42959386110305786, 0.12962310016155243, -0.05562978982925415, 0.1976862996816635, 0.09933014959096909, -0.19004307687282562, 0.05139771103858948, -0.010460593737661839, 0.4463021457195282, 0.2198396921157837, -0.04778207838535309, -0.06333480775356293, -0.0298934206366539, 0.06448578834533691, -0.1824016571044922, -0.1347798854112625, 0.012428803369402885, 0.027287781238555908, -0.4086580276489258, -0.15536999702453613, -0.07946469634771347, 0.026946252211928368, 0.3475256860256195, -0.08127931505441666, 0.09178419411182404, -0.10207090526819229, 0.05664091557264328, -0.0968794971704483, 0.17828939855098724, -0.13031211495399475, 0.4343474805355072, 0.21784625947475433, -0.008916226215660572, -0.12714558839797974, 0.3693768382072449, -0.2748570442199707, -0.001981221605092287, 0.25710242986679077, 0.00013428535021375865, -0.13675449788570404, 0.15702922642230988, -0.20998986065387726, -0.42827022075653076, -0.07578161358833313, 0.07553573697805405, 0.205465629696846, 0.06473713368177414, 0.2164195030927658, 0.20967115461826324, 0.16246752440929413, 0.15312431752681732, -0.07445264607667923, 0.031839579343795776, -0.027690095826983452, 0.1457183063030243, -0.046878632158041, 0.005872217006981373, 0.23205754160881042, 0.026997815817594528, -0.054589640349149704, -0.1376185268163681, 0.08274691551923752, 0.08808699995279312, -0.13778410851955414, 0.029219886288046837, 0.19636084139347076, -0.1730417013168335, -0.05562059208750725, 0.02369474433362484, -0.04347540810704231, 0.14254015684127808, 0.10030930489301682, 0.1682930439710617, 0.12213505059480667, -0.02522842213511467, -0.22468842566013336, 0.05705413594841957, 0.26569193601608276, 0.11911851167678833, -0.030661221593618393, -0.06409065425395966, 0.036426134407520294, -0.04874635115265846, 0.0520729161798954, -0.17978547513484955, -0.2997458577156067, 0.20469938218593597, -0.09279647469520569, -0.007340763695538044, 0.22266890108585358, 0.15274962782859802, -0.14434894919395447, -0.1370355486869812, -0.00915209949016571, -0.03690182790160179, -0.08492059260606766, -0.2039904147386551, -0.041086819022893906, 0.21487826108932495, -0.2253822535276413, -0.08856736868619919, 0.22712546586990356, 0.1642879694700241, 0.16049765050411224, -0.027170618996024132, 0.011957201175391674, 0.003111141500994563, -0.07830402255058289, -0.10826300829648972, -0.061485495418310165, 0.16255460679531097, -0.016613805666565895, 0.041070856153964996, 0.11514464765787125, 0.05036306753754616, -0.0013138448121026158, 0.16126060485839844, -0.07399829477071762, -0.2197725921869278, -0.27004650235176086, 0.046194203197956085, -0.14072583615779877, -0.12318148463964462, 0.017438463866710663, -0.09853556007146835, 0.2511942386627197, 0.04896584898233414, 0.14432364702224731, -0.014195355586707592, 0.1132875457406044, 0.2245730310678482, -0.006714533548802137, -0.09650471806526184, 0.0056272163055837154, 0.030244149267673492, -0.0032219751738011837, -0.11729578673839569, 0.1547199934720993, 0.17733094096183777, -0.0476265624165535, -0.22679218649864197, -0.053950272500514984, 0.014958202838897705, -0.09802079945802689, -0.12219442427158356, 0.07672211527824402, 0.061180535703897476, -0.16262251138687134, -0.0341620109975338, 0.01080335397273302, -0.03186710923910141, 0.014172549359500408, -0.17423543334007263, 0.06538134813308716, 0.14180298149585724, -0.03741665929555893, -0.2408476173877716, 0.07456400245428085, 0.21971477568149567, -0.08462166041135788, 0.001899498631246388, -0.05796448141336441, 0.1362234205007553, 0.03947528451681137, -0.02608233503997326, -0.13256651163101196, 0.14006999135017395, 0.0732574313879013, -0.06028715521097183, -0.08467330783605576, -0.012861405499279499, -0.12415667623281479, -0.04242021217942238, 0.02966233715415001, 0.06985832005739212, 0.175165057182312, -0.14577452838420868, 0.1967180222272873, 0.12624134123325348, 0.053840093314647675, -0.1297171264886856, -0.00871930830180645, 0.1752956062555313, -0.29287078976631165, 0.1308089643716812, 0.02912577986717224, 0.18334564566612244, -0.10336419194936752, -0.27501463890075684, -0.15029582381248474, -0.14003486931324005, 0.060716092586517334, -0.30157068371772766, 0.022817062214016914, 0.2498265653848648, -0.1409718245267868, 0.043591611087322235, 0.12438394129276276, 0.10043464601039886, -0.030346937477588654, -0.06296919286251068, -0.010168653912842274, -0.047568388283252716, 0.07208507508039474, -0.09748658537864685, 0.2622445523738861, 0.027752434834837914, -0.019009152427315712, -0.1385023146867752, -0.024113468825817108, 0.22153203189373016, 0.006115053780376911, 0.2074335813522339, 0.14081940054893494, 0.3137568533420563, -0.07194231450557709, 0.0009272123570553958, 0.7466954588890076, 0.4440038800239563, 0.45247969031333923, -0.7676547169685364, -0.1313256323337555, 0.026738693937659264, 0.006867703050374985, 0.022334236651659012, 0.512270450592041, 0.07171208411455154, -0.9048173427581787, 0.5299588441848755, -0.2212865799665451, -0.6695799231529236, -0.03597118705511093, -0.35450297594070435, -0.1664530634880066, -0.17177537083625793, 0.47510769963264465, -0.1862993687391281, 0.10663344711065292, 0.2918442189693451, -0.23610125482082367, -0.3111734390258789, -0.3097352087497711, 0.09629946202039719, -0.3217090666294098, 0.17687438428401947, 0.05013432726264, -0.21355421841144562, 0.3355972468852997, -0.020955964922904968, -0.19277268648147583, -0.18769571185112, -0.15972036123275757, -0.06757397949695587, -0.0054807220585644245, 0.033431150019168854, 0.18016096949577332, -0.11311328411102295, -0.2736609876155853, 0.1316269338130951, -0.21464809775352478, -0.04460759460926056, -0.018294116482138634, 0.2526337504386902, 0.17460358142852783, 0.219716414809227, -0.13586337864398956, 0.24701884388923645, -0.31660470366477966, -0.18505467474460602, -0.13256524503231049, -0.2583162188529968, -0.2492665797472, 0.11092459410429001, 0.28705182671546936, -0.15664337575435638, -0.05998985841870308, -0.16928312182426453, -0.07453294098377228, 0.019248560070991516, -0.014577062800526619, -0.06715603172779083, -0.17808084189891815, -0.0214767437428236, 0.07738713920116425, -0.14795753359794617, 0.21650056540966034, 0.5094326734542847, 0.3439257740974426, -0.01930457539856434, 0.019884342327713966, -0.18610790371894836, 0.1335984170436859, -0.25446179509162903, 0.2563409209251404, 0.09087061882019043, 0.1356605440378189, -0.05159276723861694, 0.24591843783855438, -0.11836481094360352, -0.4143482744693756, -0.11534076184034348, 0.037153083831071854, -0.15780870616436005, 0.1641760915517807, -0.07389211654663086, 0.5170023441314697, 0.026083599776029587, 0.15518689155578613, 0.21449854969978333, -0.36626723408699036, -0.1514558494091034, 0.10143979638814926, -0.2414725124835968, -0.27052977681159973, 0.25704318284988403, 0.4127424955368042, 0.19484688341617584, 0.069429911673069, 0.24353384971618652, -0.3487740457057953, -0.2123236060142517, 0.11947005242109299, 0.04701702296733856, -0.02928191050887108, 0.3908182680606842, 0.009617889299988747, -0.06018007919192314, -0.43068310618400574, -0.050260238349437714, -0.21448802947998047, -0.21427445113658905, -0.32868537306785583, 0.1013777032494545, -0.12527403235435486, -0.3051990866661072, 0.21814192831516266, 0.15667085349559784, -0.32808199524879456, 0.02139626070857048, 0.031485822051763535, -0.18020977079868317, 0.04379486292600632, 0.11872625350952148, -0.053039826452732086, -0.09071224182844162, -0.06267344206571579, 0.2897733449935913, -0.31851035356521606, 0.2928832769393921, 0.20236730575561523, -0.5268794298171997, -0.10796885937452316, 0.4270721673965454, 0.06257854402065277, -0.022592537105083466, -0.13089248538017273, 0.12285295873880386, -0.11551869660615921, 0.01145094446837902, 0.03566262871026993, -0.12342846393585205, -0.8547477126121521, -0.17568065226078033, 0.04692750424146652, 0.43471547961235046, 0.38492774963378906, 0.15976251661777496, -0.016974663361907005, -0.30862319469451904, -0.3278854489326477, 0.380050390958786, -0.8107806444168091, -0.11714712530374527, 0.18550851941108704, 0.33746927976608276, -0.029159434139728546, -0.1773190051317215, -0.17942632734775543, 0.030744044110178947, -0.09199538081884384, -0.12884649634361267, -0.4174891710281372, 0.04737745225429535, 0.2097836583852768, 0.1082068681716919, -0.3960440158843994, -0.09076359122991562, 0.13216544687747955, -0.32653844356536865, 0.14822468161582947, -0.12073948979377747, 0.33344095945358276, 0.33455580472946167, -0.32743924856185913, 0.2502744793891907, -0.32485494017601013, -0.11028402298688889, -0.1206553503870964, 0.13342630863189697, -0.1310601383447647, -0.25798916816711426, 0.13587786257266998, 0.13926081359386444, -0.23186182975769043, -0.027298854663968086, -0.10554429888725281, 0.1894722282886505, 0.004747603088617325, -0.10051341354846954, 0.42770084738731384, -0.09785426408052444, 0.013636650517582893, -0.09914691001176834, -0.10032560676336288, -0.18779723346233368, 0.2443336546421051, 0.03283349797129631, -0.23360997438430786, 0.23124732077121735, 0.4660242199897766, 0.02699514664709568, 0.03226311132311821, 0.3394978940486908, -0.18783925473690033, 0.208798348903656, 0.04559909552335739, 0.515860915184021, 0.2897260785102844, 0.39849910140037537, -0.23224180936813354, 0.13142241537570953, -0.28596532344818115, 0.06448128074407578, 0.11837960034608841, -0.016762934625148773, -0.3705424666404724, -0.3284277617931366, -0.3001354932785034, -0.1734139621257782, -0.09525416046380997, -0.09785784035921097, -0.3518228828907013, 0.03376634046435356, 0.06082461029291153, 0.10967471450567245, 0.06251100450754166, 0.20893757045269012, -0.06550877541303635, -0.08979718387126923, -0.06382080167531967, 0.2349473387002945, -0.008936954662203789, -0.13556228578090668, -0.21581552922725677, -0.11222448199987411, -0.1544763445854187, -0.006185475271195173, 0.29525619745254517, -0.17736612260341644, -0.16275379061698914, 0.12624847888946533, -0.16935667395591736, -0.14688760042190552, 0.24197183549404144, 0.14137382805347443, -0.20200301706790924, 0.157757967710495, -0.09981460124254227, -0.3073473870754242, 0.06509138643741608, 0.14575956761837006, 0.023663826286792755, 0.35448047518730164, -0.15011858940124512, 0.10042731463909149, 0.11472080647945404, -0.29386255145072937, -0.16297326982021332, -0.19511468708515167, 0.03930726274847984, -0.15045008063316345, -0.268231064081192, -0.006674251519143581, 0.05278800427913666, 0.07044275850057602, 0.12992383539676666, -0.07840532809495926, -0.03632442280650139, -0.030191591009497643, -0.24225308001041412, -0.05365857854485512, 0.10355152189731598, -0.02608114294707775, -0.011637888848781586, 0.025893015787005424, 0.007779895793646574, 0.056632332503795624, -0.4412740468978882, 0.07187710702419281, -0.04258386790752411, 0.005422285757958889, 0.2329912930727005, -0.23112772405147552, 0.0202805045992136, -0.1667734533548355, -0.07501459121704102, -0.18275867402553558, 0.17880044877529144, 0.02555062249302864, 0.17558468878269196, -0.3395482301712036, -0.04179397225379944, 0.08882683515548706, 0.007857201620936394, -0.03992491587996483, 0.12265101820230484, 0.0846424400806427, 0.20905163884162903, -0.18411380052566528, 0.2594166100025177, 0.11411760002374649, -0.11128751188516617, 0.3547874689102173, 0.09901226311922073, 0.10229739546775818, -0.1188548281788826, -0.07737887650728226, -0.16786998510360718, -0.13655230402946472, 0.13352158665657043, -0.0012089377269148827, 0.08598504960536957, 0.18479667603969574, 0.12427908927202225, -0.18526941537857056, 0.14979031682014465, 0.12515120208263397, -0.2608513832092285, 0.013343499042093754, 0.046997345983982086, -0.2136744260787964, 0.06519071757793427, -0.05689067766070366, 0.03557144105434418, 0.07403633743524551, -0.026732848957180977, -0.16531868278980255, 0.1352548897266388, 0.05521628260612488, -0.18504822254180908, -0.10545338690280914, -0.04256606474518776, 0.0555354468524456, -0.10793602466583252, 0.6016750335693359, -0.09340137243270874, 0.14652268588542938, -0.33338961005210876, 0.07504145056009293, -0.0251179076731205, -0.3081519305706024, 0.04920102655887604, -0.2738535404205322, -0.1638411581516266, 0.12647606432437897, -0.025714127346873283, 0.2834838330745697, 0.036782462149858475, -0.043019820004701614, 0.450997531414032, 0.044310569763183594, -0.11710275709629059, -0.3463010787963867, 0.05938393250107765, -0.23918257653713226, -0.2417677640914917, 0.04118996113538742, 0.11768969148397446, 0.38702520728111267, 0.30235007405281067, 0.04575793445110321, -0.3066636323928833, 0.019687719643115997, 0.16125483810901642, -0.18291489779949188, 0.10858940333127975, -0.2682739198207855, -0.6345652937889099, -0.09849342703819275, -0.05439643934369087, -0.07392698526382446, -0.22942577302455902, 0.14059123396873474, 0.07756023108959198, 0.12396614998579025, 0.09704238921403885, -0.5346352458000183, -0.07808159291744232, 0.02602245844900608, 0.23158280551433563, -0.05494105443358421, -0.10370898991823196, 0.026348447427153587, 0.10587643831968307, 0.1389293670654297, 0.16752059757709503, 0.03089018724858761, -0.03651393949985504, -0.07446553558111191, -0.15149924159049988, -0.0928497314453125, -0.05651332437992096, -0.2705692648887634, -0.033573925495147705, 0.0019372631795704365, -0.25929710268974304, 0.03959892690181732, 0.04338105022907257, 0.11715487390756607, 0.03235034644603729, -0.06005905568599701, -0.16227641701698303, -0.0044049727730453014, 0.09972097724676132, 0.07737717032432556, 0.0996769592165947, -0.5266547799110413, 0.01786908507347107, 0.07919486612081528, -0.11595303565263748, -0.09287650138139725, 0.25131744146347046, 0.08015093952417374, -0.0713360458612442, -0.30637964606285095, -0.0847686305642128, 0.21739979088306427, 0.0685378909111023, 0.036766417324543, 0.12664887309074402, 0.20562444627285004, 0.11140044033527374, -0.032639771699905396, 0.048964712768793106, 0.10650946199893951, 0.052615758031606674, 0.054417308419942856, -0.06690097600221634, 0.04217046871781349, -0.031413398683071136, -0.10949873924255371, 0.026175593957304955, -0.12910714745521545, -0.12512484192848206, 0.024578407406806946, 0.0025765160098671913, 0.03743061423301697, 0.01664968580007553, -0.10797858983278275, -0.22615112364292145, -0.015348265878856182, -0.00386428227648139, 0.05921075865626335, 0.034719329327344894, -0.07297797501087189, 0.026011714711785316, 0.08271653950214386, 0.010000118054449558, -0.16775822639465332, 0.22220247983932495, 0.03916914016008377, 0.044776786118745804, -0.16135282814502716, -0.2285829782485962, -0.43666091561317444, 0.2810610830783844, -0.14215457439422607, -0.09646851569414139, -0.09141748398542404, -0.1083298772573471, 0.019328447058796883, 0.17343196272850037, 0.09333062916994095, 0.004354662727564573, -0.258433997631073, 0.05458814650774002, 0.11876272410154343, -0.0204828642308712, -0.19009938836097717, -0.018284110352396965, -0.032326363027095795, 0.007274501491338015, -0.1678197681903839, 0.08807365596294403, 0.23569507896900177, -0.04098401218652725, 0.010667339898645878, -0.15933826565742493, -0.0627477765083313, 0.2356874793767929, 0.10033942759037018, 0.14412079751491547, -0.16598528623580933, 0.18044550716876984, 0.05772668868303299, 0.11406894028186798, -0.13580578565597534, 0.2907677888870239, -0.012921100482344627, 0.14051707088947296, -0.07398775964975357, 0.15285570919513702, 0.09640983492136002, -0.16138678789138794, -0.07827858626842499, 0.19497890770435333, 0.042603570967912674, -0.24900753796100616, -0.03550737723708153, 0.07644248008728027, 0.0873454138636589, -0.08040238916873932, -0.10245067626237869, 0.21953043341636658, 0.0938999131321907, 0.2098361700773239, -0.023425718769431114, 0.05531519278883934, 0.07345660030841827, -0.26983487606048584, -0.02878059819340706, -0.023038221523165703, -0.053526051342487335, -0.11534428596496582, 0.17369893193244934, -0.0230459813028574, 0.15647226572036743, 0.0809672400355339, -0.19040700793266296, 0.06191946938633919, 0.11213748157024384, -0.1524575650691986, -0.09106256067752838, -0.006246515084058046, 0.33936476707458496, -0.1739705353975296, -0.0687103420495987, 0.08771921694278717, 0.06848324835300446, 0.17151539027690887, -0.19264772534370422, 0.03827812150120735, -0.03557955473661423, -0.27446532249450684, -0.0008850852609612048, 0.13054658472537994, 0.026073193177580833, 0.01291117537766695, -0.051988862454891205, 0.19032153487205505, -0.14733245968818665, -0.14811740815639496, 0.3302857577800751, 0.16138286888599396, 0.017832787707448006, -0.336927592754364, -0.26682567596435547, -0.19198189675807953, -0.1432611644268036, 0.01329211238771677, -0.019187001511454582, -0.12388358265161514, -0.05974943935871124, 0.08065961301326752, -0.24396035075187683, 0.18714837729930878, 0.1025749072432518, -0.23118706047534943, -0.13396026194095612, 0.136221781373024, 0.037856392562389374, 0.00835561566054821, -0.09970878064632416, 0.07380593568086624, 0.034495774656534195, 0.06512899696826935, -0.16450552642345428, 0.07555200159549713, 0.3350920081138611, -0.2858916223049164, 0.03953850641846657, -0.020421667024493217, 0.08065985143184662, 0.41870951652526855, -0.20057141780853271, 0.35498976707458496, -0.1326626092195511, 0.11296966671943665, 0.08107677847146988, -0.4501107633113861, -0.20704974234104156, -0.3894939124584198, 0.2071344256401062, -0.13243252038955688, -0.11305809766054153, 0.3099445104598999, 0.024306120350956917, -0.05879748985171318, 0.22214218974113464, -0.32113662362098694, -0.04550038278102875, -0.2511575222015381, 0.29732266068458557, 0.12972299754619598, -0.5626615881919861, 0.06848202645778656, -0.2491004467010498, -0.07987494021654129, -0.09678085893392563, 0.1698705106973648, -0.011536162346601486, 0.3057806193828583, 0.10385202616453171, -0.32921934127807617, 0.08514151722192764, 0.04713395982980728, 0.08509024232625961, 0.11129620671272278, -0.06185869872570038, -0.04859953001141548, -0.07868187129497528, 0.014938135631382465, -0.057475924491882324, 0.13691960275173187, 