{
    "version": "0.5.0",
    "architecture": "WaveNet",
    "config": {
        "layers": [
            {
                "input_size": 1,
                "condition_size": 1,
                "head_size": 8,
                "channels": 16,
                "kernel_size": 3,
                "dilations": [
                    1,
                    2,
                    4,
                    8,
                    16,
                    32,
                    64,
                    128,
                    256,
                    512
                ],
                "activation": "Tanh",
                "gated": false,
                "head_bias": false
            },
            {
                "input_size": 16,
                "condition_size": 1,
                "head_size": 1,
                "channels": 8,
                "kernel_size": 3,
                "dilations": [
                    1,
                    2,
                    4,
                    8,
                    16,
                    32,
                    64,
                    128,
                    256,
                    512
                ],
                "activation": "Tanh",
                "gated": false,
                "head_bias": true
            }
        ],
        "head": null,
        "head_scale": 0.02
    },
    "weights": [
        0.002140872413292527,
        0.46366918087005615,
        -0.8729598522186279,
        -0.6826818585395813,
        -0.17718467116355896,
        0.45092126727104187,
        0.0009178979089483619,
        0.8317900896072388,
        -0.020299654453992844,
        0.3372693657875061,
        -0.25764280557632446,
        -0.22234641015529633,
        -0.9814053773880005,
        -0.5777913928031921,
        -0.43573155999183655,
        -0.06524381786584854,
        -0.028140762820839882,
        0.2611289322376251,
        0.043713413178920746,
        0.05756776034832001,
        -0.13829796016216278,
        0.11402279883623123,
        -0.15850168466567993,
        0.29215207695961,
        -0.028393104672431946,
        -0.11110265552997589,
        0.317592054605484,
        -0.1332586109638214,
        -0.2151678055524826,
        0.14466331899166107,
        -0.05182768777012825,
        0.26528072357177734,
        -0.2712721824645996,
        -0.047973230481147766,
        -0.2118970900774002,
        -0.00383526342920959,
        -0.014378841035068035,
        0.2503651976585388,
        -0.12139903008937836,
        0.07297984510660172,
        -0.06600653380155563,
        0.09922201931476593,
        0.005573124624788761,
        -0.005117500200867653,
        -0.2846493721008301,
        -0.06190703064203262,
        -0.03146678954362869,
        0.26511314511299133,
        -0.07391048967838287,
        -0.13112543523311615,
        0.28535786271095276,
        0.15589800477027893,
        -0.06943362951278687,
        0.20594048500061035,
        0.09520099312067032,
        -0.20870572328567505,
        0.21477586030960083,
        -0.10765618085861206,
        -0.23068343102931976,
        0.11034813523292542,
        0.0629006028175354,
        -0.08837920427322388,
        0.04125743731856346,
        -0.03586341813206673,
        -0.02300294116139412,
        0.038104984909296036,
        -0.021253252401947975,
        0.08577793091535568,
        -0.015238994732499123,
        0.22039158642292023,
        -0.16981440782546997,
        0.04773176833987236,
        -0.0333663672208786,
        0.06303895264863968,
        0.22861604392528534,
        0.04153428599238396,
        -0.026395918801426888,
        -0.022205261513590813,
        -0.06412094831466675,
        -0.025378940626978874,
        -0.2342544049024582,
        0.2309526652097702,
        -0.0001161692343885079,
        -0.09750929474830627,
        -0.03398677706718445,
        0.031038934364914894,
        -0.1264142096042633,
        0.02269076183438301,
        0.05945626273751259,
        0.03014433942735195,
        -0.030525116249918938,
        0.1298108994960785,
        -8.225953934015706e-05,
        0.15042485296726227,
        -0.1956615298986435,
        0.0039025007281452417,
        -0.023548375815153122,
        -0.033720988780260086,
        -0.00693979486823082,
        -0.1675937920808792,
        0.07991671562194824,
        0.20008403062820435,
        -0.15063737332820892,
        -0.08915647119283676,
        -0.03364207223057747,
        -0.08510555326938629,
        -0.17052540183067322,
        -0.009761972352862358,
        -0.09829681366682053,
        -0.14313729107379913,
        -0.058960650116205215,
        -0.10963774472475052,
        -0.027911202982068062,
        0.056383512914180756,
        0.09507280588150024,
        -0.20694352686405182,
        0.009851372800767422,
        -0.07565277069807053,
        0.10571835935115814,
        -0.011308915913105011,
        0.14115308225154877,
        0.09636314958333969,
        -0.11383431404829025,
        0.15370307862758636,
        -0.051399800926446915,
        -0.1329500377178192,
        0.04227925464510918,
        -0.1588965207338333,
        -0.01163835171610117,
        -0.2151077538728714,
        0.0438818521797657,
        -0.019057489931583405,
        -0.09758985042572021,
        -0.09268271923065186,
        0.14581820368766785,
        -0.10287458449602127,
        0.06158625707030296,
        -0.03327634930610657,
        0.16814729571342468,
        0.0033210297115147114,
        0.17259128391742706,
        -0.008022942580282688,
        0.21825845539569855,
        -0.04878254979848862,
        -0.03166471794247627,
        0.026902392506599426,
        0.0513438917696476,
        0.08133209496736526,
        0.014969713985919952,
        -0.15301917493343353,
        -0.047835201025009155,
        -0.033639561384916306,
        -0.07062798738479614,
        0.16340743005275726,
        0.16757576167583466,
        -0.18422824144363403,
        0.17611320316791534,
        0.064164899289608,
        0.006428988184779882,
        0.16126765310764313,
        -0.09738872200250626,
        -0.05732564628124237,
        -0.190180242061615,
        -0.20444375276565552,
        -0.0919753685593605,
        0.11412501335144043,
        0.01891385205090046,
        0.12227153033018112,
        -0.25017282366752625,
        0.06978011131286621,
        0.19548380374908447,
        -0.17521797120571136,
        0.19825497269630432,
        0.11806577444076538,
        -0.2380015105009079,
        -0.001803470659069717,
        -0.08551473915576935,
        0.06594295054674149,
        0.130024254322052,
        -0.05790295824408531,
        -0.013449243269860744,
        -0.11514856666326523,
        0.03458356484770775,
        0.15954846143722534,
        0.16513031721115112,
        0.12321680039167404,
        -0.14328418672084808,
        -0.11526796966791153,
        -0.18191313743591309,
        0.20847588777542114,
        0.1998121440410614,
        0.16487014293670654,
        -0.22395944595336914,
        0.07690434902906418,
        -0.03585067763924599,
        -0.19185368716716766,
        -0.0010913624428212643,
        0.11793240904808044,
        -0.20439666509628296,
        0.07814990729093552,
        0.07625899463891983,
        -0.017773810774087906,
        -0.029840532690286636,
        -0.03041152097284794,
        -0.20204995572566986,
        0.17412087321281433,
        0.012273645028471947,
        -0.016136014834046364,
        0.08154334127902985,
        -0.04729308560490608,
        -0.02933216653764248,
        -0.07035379856824875,
        0.0781058743596077,
        -0.058823298662900925,
        0.04627782851457596,
        -0.03613532334566116,
        -0.08193696290254593,
        -0.03043466992676258,
        0.05808022618293762,
        -0.08866479247808456,
        0.03157449886202812,
        0.0809517502784729,
        0.07697248458862305,
        -0.04990833252668381,
        -0.07555629312992096,
        0.03544565290212631,
        -0.03321431949734688,
        -0.06148136779665947,
        0.003893159329891205,
        -0.0664762333035469,
        0.05847949907183647,
        0.08952038735151291,
        0.03158533200621605,
        0.06362272053956985,
        0.11889126896858215,
        -0.13499170541763306,
        0.12142220884561539,
        -0.1330350637435913,
        -0.014300046488642693,
        -0.009238110855221748,
        0.08263427764177322,
        0.15481571853160858,
        -0.10589412599802017,
        0.027664432302117348,
        0.11905718594789505,
        -0.19752010703086853,
        0.13304750621318817,
        -0.07612451910972595,
        -0.05663931369781494,
        0.0024652336724102497,
        -0.028066547587513924,
        -0.037882816046476364,
        0.14963535964488983,
        0.03166407346725464,
        -0.10808279365301132,
        0.027345458045601845,
        -0.06496036052703857,
        0.0572877861559391,
        0.0026651264633983374,
        -0.13146637380123138,
        -0.017493024468421936,
        0.0008321776404045522,
        0.1072896420955658,
        0.042336225509643555,
        0.13504160940647125,
        -0.012852529995143414,
        -0.1052459329366684,
        0.12633125483989716,
        0.15082494914531708,
        -0.034164030104875565,
        0.0017884128028526902,
        -0.09889592975378036,
        -0.07368429750204086,
        -0.06549385190010071,
        -0.017219016328454018,
        -0.15549308061599731,
        0.14422550797462463,
        -0.12523183226585388,
        0.049168869853019714,
        -0.044568128883838654,
        -0.0008937188540585339,
        -0.1543920487165451,
        0.005694426596164703,
        0.08222422748804092,
        0.08270152658224106,
        0.020610030740499496,
        -0.01970636658370495,
        -0.017929641529917717,
        0.06375080347061157,
        0.04051715135574341,
        -0.1491282433271408,
        0.13505388796329498,
        0.07864001393318176,
        -0.06850231438875198,
        0.05224018171429634,
        -0.052373334765434265,
        0.0366736575961113,
        -0.025116533041000366,
        0.09523008018732071,
        -0.11517269909381866,
        0.014667931012809277,
        0.15389464795589447,
        -0.04871361330151558,
        0.25366801023483276,
        0.09517676383256912,
        -0.21541212499141693,
        0.015644874423742294,
        -0.03976258635520935,
        0.17554542422294617,
        -0.10255846381187439,
        -0.018210794776678085,
        -0.14402996003627777,
        0.13493584096431732,
        0.04945256933569908,
        -0.0636526495218277,
        0.18182583153247833,
        0.013888698071241379,
        -0.12553279101848602,
        0.13141493499279022,
        -0.09788041561841965,
        0.1255607008934021,
        -0.07974167913198471,
        -0.08660673350095749,
        -0.13768696784973145,
        0.049411408603191376,
        0.02729238010942936,
        0.20096635818481445,
        -0.07020368427038193,
        0.13948148488998413,
        -0.1410767287015915,
        0.011942516081035137,
        -0.23398764431476593,
        0.25058016180992126,
        -0.010143941268324852,
        0.0021367776207625866,
        -0.050184786319732666,
        0.2083919197320938,
        0.24711009860038757,
        0.00077046052319929,
        0.19055262207984924,
        0.07026661187410355,
        -0.1672966331243515,
        0.20695866644382477,
        0.18273407220840454,
        -0.204606294631958,
        0.21363689005374908,
        0.17068372666835785,
        -0.04407990351319313,
        -0.00672859326004982,
        0.20850825309753418,
        -0.07921195030212402,
        0.31625208258628845,
        -0.04984236881136894,
        0.022492816671729088,
        -0.05698850005865097,
        0.04971691966056824,
        -0.03896437585353851,
        0.17066074907779694,
        -0.08897095918655396,
        0.022912094369530678,
        -0.20037899911403656,
        -0.13219627737998962,
        -0.12738868594169617,
        0.01119838934391737,
        0.09507753700017929,
        0.13223133981227875,
        0.021594557911157608,
        -0.13328588008880615,
        -0.08571486920118332,
        0.08764705806970596,
        -0.05680462718009949,
        0.1286378800868988,
        -0.13424193859100342,
        -0.07909484207630157,
        -0.12620629370212555,
        0.023478001356124878,
        0.14795604348182678,
        0.12622347474098206,
        0.008260530419647694,
        0.1078876331448555,
        0.1449478417634964,
        0.07539332658052444,
        0.07347968220710754,
        0.11668816208839417,
        -0.05725083127617836,
        0.15630924701690674,
        0.0688331127166748,
        -0.008272849023342133,
        -0.041999876499176025,
        0.05585038289427757,
        -0.08860012888908386,
        -0.02295786328613758,
        -0.09155424684286118,
        -0.18096652626991272,
        -0.10082434117794037,
        0.08706172555685043,
        -0.0003332011110614985,
        -0.016678206622600555,
        -0.06620694696903229,
        0.07490287721157074,
        0.16034555435180664,
        -0.08503212779760361,
        -0.1021064966917038,
        0.05288902670145035,
        0.13756704330444336,
        -0.12813018262386322,
        0.22196201980113983,
        0.03674623370170593,
        -0.025619452819228172,
        0.16433608531951904,
        -0.15640467405319214,
        0.0018406577873975039,
        0.2110535353422165,
        -0.0635308176279068,
        -0.07259148359298706,
        -0.13454464077949524,
        0.028905896469950676,
        -0.06370548903942108,
        0.09413199126720428,
        0.06405068188905716,
        -0.009257487021386623,
        -0.16967575252056122,
        0.08287100493907928,
        0.04464242607355118,
        0.10457945615053177,
        -0.22009629011154175,
        0.017092956230044365,
        -0.18832455575466156,
        0.011407462880015373,
        0.01980399340391159,
        -0.02895939163863659,
        -0.0239975918084383,
        0.14980162680149078,
        0.10206678509712219,
        -0.17143912613391876,
        -0.027887342497706413,
        0.11350084841251373,
        -0.1850193738937378,
        0.09594832360744476,
        -0.0489627905189991,
        -0.21393302083015442,
        -0.11889766901731491,
        0.059563297778367996,
        0.026330221444368362,
        -0.1057928279042244,
        0.24298237264156342,
        -0.10160165280103683,
        0.14094607532024384,
        0.0927402451634407,
        -0.11785808950662613,
        0.18170146644115448,
        0.07099570333957672,
        0.21357356011867523,
        0.00021847955940756947,
        -0.0898890569806099,
        0.05018557608127594,
        0.08264891803264618,
        0.07637487351894379,
        -0.1860555112361908,
        0.03326711431145668,
        -0.13983461260795593,
        -0.13424885272979736,
        0.09185285866260529,
        -0.12267851084470749,
        0.1098625585436821,
        -0.010602680966258049,
        0.05263448506593704,
        -0.12119358032941818,
        -0.04450290650129318,
        -0.05160664767026901,
        0.13076847791671753,
        0.06389014422893524,
        0.061881788074970245,
        -0.07240699231624603,
        0.1433733105659485,
        -0.15064464509487152,
        -0.060984764248132706,
        -0.021212304010987282,
        -0.07418952137231827,
        0.008841478265821934,
        -0.01529604010283947,
        -0.061901915818452835,
        -0.1949062943458557,
        0.14772960543632507,
        -0.006923442240804434,
        0.042735934257507324,
        0.16667263209819794,
        0.08587709069252014,
        -0.0657200887799263,
        0.02771182172000408,
        -0.025028018280863762,
        -0.05475678667426109,
        0.1454239934682846,
        0.0015987977385520935,
        0.14678464829921722,
        0.18236832320690155,
        0.05457045137882233,
        -0.08580215275287628,
        0.15516144037246704,
        0.06985023617744446,
        0.009593277238309383,
        0.09074337035417557,
        0.13462355732917786,
        -0.0615205317735672,
        0.13468387722969055,
        -0.01472472958266735,
        -0.09881184995174408,
        0.07198858261108398,
        0.017859211191534996,
        -0.09433358907699585,
        -0.03625774383544922,
        0.01731586642563343,
        0.1052737906575203,
        -0.0781724825501442,
        0.08616452664136887,
        -0.047132525593042374,
        -0.05531485378742218,
        -0.05138078331947327,
        0.22643554210662842,
        -0.031220784410834312,
        0.08833874017000198,
        -0.15285764634609222,
        0.08376114815473557,
        -0.17549359798431396,
        0.053873881697654724,
        -0.09977149963378906,
        0.19839692115783691,
        -0.17387919127941132,
        0.02406400442123413,
        -0.0016564511461183429,
        -0.0026314996648579836,
        0.1479179859161377,
        -0.04484829679131508,
        -0.26029250025749207,
        -0.09373734146356583,
        0.0593939870595932,
        -0.1816561371088028,
        -0.08451332896947861,
        0.012275113724172115,
        -0.12063225358724594,
        -0.0640045553445816,
        0.18539643287658691,
        -0.0762760266661644,
        0.04765213280916214,
        0.17280924320220947,
        0.13073308765888214,
        -0.08741407096385956,
        -0.06598814576864243,
        0.04788873717188835,
        0.12834006547927856,
        -0.0603063590824604,
        -0.23705512285232544,
        0.16048194468021393,
        -0.016771376132965088,
        -0.0749039575457573,
        0.0020708057563751936,
        0.03764597326517105,
        -0.1401357650756836,
        0.09455171227455139,
        -0.0750715509057045,
        -0.04556138440966606,
        -0.1080542802810669,
        0.06098899990320206,
        0.016916967928409576,
        -0.12267685681581497,
        0.05997469276189804,
        0.0672226995229721,
        -0.043382011353969574,
        0.14564953744411469,
        -0.026401417329907417,
        0.1308828741312027,
        0.007815084420144558,
        0.05307924374938011,
        -0.11673373728990555,
        0.06776304543018341,
        0.028495578095316887,
        -0.02503390982747078,
        -0.060971081256866455,
        -0.04820762202143669,
        0.14975552260875702,
        0.034679677337408066,
        -0.22038550674915314,
        -0.11454568058252335,
        0.108181893825531,
        -0.11400441080331802,
        -0.061246201395988464,
        0.10313725471496582,
        -0.04998182877898216,
        0.12774047255516052,
        0.14455178380012512,
        -0.1529017686843872,
        -0.12924185395240784,
        -0.13622207939624786,
        0.11808502674102783,
        0.11544546484947205,
        0.057240817695856094,
        -0.08566749095916748,
        0.0711568295955658,
        0.13990218937397003,
        0.0881519466638565,
        -0.060856617987155914,
        -0.0498809851706028,
        -0.13971883058547974,
        0.19950337707996368,
        -0.06988883763551712,
        -0.11890998482704163,
        0.12433532625436783,
        -0.07694876194000244,
        -0.037528250366449356,
        -0.08538848906755447,
        -0.044838618487119675,
        -0.1677781343460083,
        0.1420438438653946,
        -0.0717228576540947,
        0.08683183789253235,
        0.0580047070980072,
        0.07163303345441818,
        -0.005844409577548504,
        0.20878921449184418,
        0.005002634134143591,
        -0.03932955488562584,
        0.05834079906344414,
        0.044944681227207184,
        -0.17034508287906647,
        0.034185025840997696,
        -0.0981011837720871,
        0.07817203551530838,
        0.03209339454770088,
        -0.12380706518888474,
        -0.04569656774401665,
        0.15714693069458008,
        0.043548811227083206,
        0.007249064277857542,
        0.0764390230178833,
        0.05468630790710449,
        -0.08038502931594849,
        0.0019336349796503782,
        -0.05799569562077522,
        -0.0757087841629982,
        0.21044602990150452,
        -0.21171621978282928,
        -0.0037501079495996237,
        0.04518779739737511,
        0.11507017910480499,
        -0.08264488726854324,
        0.12675590813159943,
        -0.191484272480011,
        0.10203590989112854,
        -0.11198720335960388,
        -0.14145328104496002,
        0.06485176831483841,
        -0.051065828651189804,
        0.005831454414874315,
        -0.1208600401878357,
        -0.12311939895153046,
        0.03713225945830345,
        0.03556745499372482,
        0.12947484850883484,
        -0.18243521451950073,
        0.04324726760387421,
        0.01756996288895607,
        0.07075422257184982,
        0.11617179960012436,
        -0.12263549119234085,
        -0.029990265145897865,
        0.17061881721019745,
        0.0005525554297491908,
        0.2091148942708969,
        -0.03782361000776291,
        0.10510699450969696,
        -0.2332964986562729,
        -0.024422364309430122,
        -0.013296861201524734,
        -0.07337997108697891,
        0.03235882148146629,
        0.1116037592291832,
        -0.12509910762310028,
        -0.016660252586007118,
        0.1094944030046463,
        -0.14553117752075195,
        0.11394823342561722,
        -0.0844617635011673,
        -0.1274237483739853,
        -0.0268461424857378,
        0.06534536927938461,
        0.08224187046289444,
        0.03571123257279396,
        -0.07883797585964203,
        0.04278771951794624,
        0.09084996581077576,
        -0.014501136727631092,
        -0.1751423329114914,
        -0.10422278940677643,
        0.24566727876663208,
        0.09543518722057343,
        0.06289020925760269,
        -0.016343897208571434,
        -0.02322969026863575,
        0.2312033772468567,
        -0.09233735501766205,
        0.019240112975239754,
        0.24942250549793243,
        -0.22969210147857666,
        -0.04788081347942352,
        -0.2882455289363861,
        0.11979825794696808,
        0.025268662720918655,
        0.21771004796028137,
        -0.11360672861337662,
        0.00922023132443428,
        -0.21362075209617615,
        0.05122494325041771,
        -0.023017363622784615,
        0.014797627925872803,
        -0.016373230144381523,
        -0.11647811532020569,
        -0.18213696777820587,
        0.1710672825574875,
        0.1759614199399948,
        0.30308619141578674,
        -0.01526026800274849,
        -0.022037437185645103,
        0.18187226355075836,
        -0.1906827688217163,
        0.0014067506417632103,
        0.23110505938529968,
        0.018162507563829422,
        -0.031030382961034775,
        0.28418418765068054,
        -0.18548794090747833,
        0.05667818710207939,
        0.31601133942604065,
        -0.1466551125049591,
        0.033739231526851654,
        0.02293608896434307,
        -0.051680997014045715,
        0.1286742240190506,
        -0.11823756247758865,
        0.12590155005455017,
        -0.19762803614139557,
        0.005093734711408615,
        -0.016155174002051353,
        0.21130891144275665,
        -0.15899088978767395,
        0.10012543201446533,
        0.2210526019334793,
        -0.021404094994068146,
        -0.04673701897263527,
        0.08391664922237396,
        -0.1568664014339447,
        -0.08603499829769135,
        -0.09879504889249802,
        0.22430072724819183,
        0.08075306564569473,
        0.10718079656362534,
        -0.041629359126091,
        -0.07109429687261581,
        0.015912819653749466,
        0.06125841289758682,
        -0.12763503193855286,
        0.05971141904592514,
        -0.056250810623168945,
        -0.12109094858169556,
        0.03851413354277611,
        0.17169184982776642,
        -0.13363930583000183,
        0.05283793434500694,
        -0.0008387926500290632,
        -0.08612042665481567,
        0.06802792847156525,
        -0.06029829755425453,
        -0.0914754867553711,
        0.17366348206996918,
        -0.04527606815099716,
        0.11667781323194504,
        0.0031207064166665077,
        0.023977288976311684,
        -0.06163982301950455,
        0.24660624563694,
        -0.25102150440216064,
        -0.09284878522157669,
        0.1823393702507019,
        -0.07091791182756424,
        0.09203494340181351,
        0.016657063737511635,
        -0.11002980917692184,
        -0.15704870223999023,
        -0.08707258850336075,
        0.013105707243084908,
        0.05596381798386574,
        -0.10647682100534439,
        -0.003836353775113821,
        0.03801293671131134,
        0.11555256694555283,
        -0.08702793717384338,
        0.04054287075996399,
        -0.029078125953674316,
        0.01651475392282009,
        0.0006659654900431633,
        -0.014576985500752926,
        0.44757118821144104,
        -0.34034493565559387,
        0.7140515446662903,
        -0.5846720933914185,
        -0.025735290721058846,
        0.8194728493690491,
        0.9100643992424011,
        -0.475130170583725,
        0.15311333537101746,
        0.044195353984832764,
        -0.48122844099998474,
        -0.3613477647304535,
        0.20812170207500458,
        -0.7032407522201538,
        0.2787581980228424,
        0.4033834934234619,
        -0.444067120552063,
        0.149222731590271,
        0.040474794805049896,
        0.10746047645807266,
        0.2439323365688324,
        0.04507012292742729,
        0.10271844267845154,
        -0.10573382675647736,
        0.20744365453720093,
        -0.0160366278141737,
        -0.0773119181394577,
        -0.1801706850528717,
        0.017020851373672485,
        -0.33323127031326294,
        0.3252423107624054,
        0.22352969646453857,
        0.20643934607505798,
        -0.07770461589097977,
        -0.3265119791030884,
        0.172223299741745,
        0.012745891697704792,
        -0.18322844803333282,
        -0.18796564638614655,
        0.129537433385849,
        -0.04572003334760666,
        0.02930237539112568,
        -0.3479836881160736,
        -0.09880392998456955,
        0.028174273669719696,
        -0.08985638618469238,
        0.24827907979488373,
        0.15072235465049744,
        -0.04428742453455925,
        -0.0038612557109445333,
        0.05166257545351982,
        0.20721523463726044,
        0.07445532828569412,
        -0.12959684431552887,
        0.005351095926016569,
        -0.10663579404354095,
        0.10045994073152542,
        -0.19551876187324524,
        0.10090991109609604,
        -0.18208636343479156,
        0.06797380745410919,
        0.11474575847387314,
        0.2778773307800293,
        0.05452289432287216,
        0.0990367904305458,
        -0.16209806501865387,
        0.07112046331167221,
        -0.39879435300827026,
        -0.07154368609189987,
        0.2012784630060196,
        0.19235165417194366,
        0.034877147525548935,
        -0.20385408401489258,
        0.2275170087814331,
        0.18719446659088135,
        0.23624563217163086,
        0.23931193351745605,
        0.2815881073474884,
        -0.34122684597969055,
        -0.07613860815763474,
        -0.16013360023498535,
        -0.21950869262218475,
        -0.1348666548728943,
        0.07286174595355988,
        0.030593056231737137,
        0.12463989853858948,
        0.16810250282287598,
        0.029573380947113037,
        0.15628626942634583,
        0.1765870749950409,
        -0.11944758147001266,
        0.23438352346420288,
        -0.07998461276292801,
        0.08075554668903351,
        -0.20671357214450836,
        0.10985572636127472,
        -0.2576022148132324,
        0.023131318390369415,
        0.08474716544151306,
        0.1655070185661316,
        0.20327644050121307,
        0.2949841618537903,
        0.2480880320072174,
        -0.00945970881730318,
        0.18699228763580322,
        -0.11415807157754898,
        -0.20863904058933258,
        -0.1461751013994217,
        -0.03807368129491806,
        -0.23986762762069702,
        0.14288954436779022,
        0.22272111475467682,
        -0.10225603729486465,
        0.031242383643984795,
        0.23181234300136566,
        0.09022679179906845,
        -0.04071631282567978,
        -0.23610885441303253,
        0.1467006653547287,
        -0.003731086850166321,
        0.0895940363407135,
        -0.202959343791008,
        -0.09795773774385452,
        0.21242927014827728,
        0.24517427384853363,
        -0.10930309444665909,
        -0.011937463656067848,
        -0.1614718735218048,
        0.129054993391037,
        0.019322983920574188,
        0.21562550961971283,
        -0.16626235842704773,
        -0.10104186832904816,
        0.06740806251764297,
        0.2356567084789276,
        0.1112699955701828,
        0.10177631676197052,
        -0.22551357746124268,
        0.2263011485338211,
        -0.13864122331142426,
        0.1257498860359192,
        -0.051876701414585114,
        -0.24311837553977966,
        0.0437600277364254,
        -0.27462416887283325,
        -0.04543650522828102,
        -0.15456829965114594,
        -0.260779470205307,
        0.01296230684965849,
        -0.07868777215480804,
        -0.09253913164138794,
        -0.031182266771793365,
        -0.14075668156147003,
        -0.11829431354999542,
        0.24633215367794037,
        0.0833602249622345,
        0.10110747069120407,
        -0.1283101886510849,
        0.0003950578684452921,
        0.008283349685370922,
        -0.23416359722614288,
        0.001313169952481985,
        0.30896642804145813,
        -0.23915554583072662,
        -0.10715582221746445,
        0.1069510206580162,
        0.25222012400627136,
        -0.09615767002105713,
        0.13836410641670227,
        0.19591200351715088,
        0.14380280673503876,
        0.11240222305059433,
        0.21604132652282715,
        0.054419320076704025,
        -0.2805064916610718,
        0.18454302847385406,
        0.11156715452671051,
        0.13181866705417633,
        -0.12834811210632324,
        0.061817146837711334,
        -0.007925371639430523,
        -0.1065419614315033,
        0.13693055510520935,
        -0.06298163533210754,
        0.09981121122837067,
        -0.07692570984363556,
        -0.1611550748348236,
        -0.09004027396440506,
        -0.01529808808118105,
        0.09208166599273682,
        0.043763794004917145,
        0.20967508852481842,
        0.1823754459619522,
        0.02535662241280079,
        0.1266724318265915,
        -0.04345293343067169,
        -0.17655770480632782,
        -0.05264738202095032,
        -0.04182663932442665,
        0.012477573938667774,
        -0.03694208338856697,
        -0.21205465495586395,
        0.015073311515152454,
        -0.1814282089471817,
        -0.1304699182510376,
        0.05881381034851074,
        -0.03073052689433098,
        -0.17399516701698303,
        -0.02290116250514984,
        0.04445642605423927,
        0.07956298440694809,
        0.0547168031334877,
        -0.002511786762624979,
        -0.07683325558900833,
        -0.024546710774302483,
        0.056164566427469254,
        0.21006663143634796,
        -0.04604152590036392,
        -0.06152397021651268,
        -0.03714834526181221,
        0.12448287755250931,
        -0.2735658288002014,
        0.0639014020562172,
        0.16263437271118164,
        -0.46369606256484985,
        -0.2805621027946472,
        0.07704081386327744,
        -0.026202457025647163,
        0.054996732622385025,
        0.354698121547699,
        0.319623738527298,
        0.024855317547917366,
        0.19915346801280975,
        0.04131126403808594,
        0.18295946717262268,
        0.07045440375804901,
        -0.13441774249076843,
        -0.24278028309345245,
        -0.24320344626903534,
        0.2916412949562073,
        -0.12283328920602798,
        0.22032643854618073,
        -0.08516781777143478,
        -0.2472488433122635,
        0.08449999988079071,
        -0.030980892479419708,
        0.1502193957567215,
        0.18762867152690887,
        -0.2525821328163147,
        0.15063676238059998,
        0.008246727287769318,
        0.06438048183917999,
        0.13108377158641815,
        0.27940282225608826,
        -0.2460770308971405,
        -0.14388835430145264,
        0.2585528492927551,
        0.031045088544487953,
        0.08729778230190277,
        -0.08450865000486374,
        -0.056687530130147934,
        0.1552734524011612,
        -0.013508995063602924,
        0.12268690764904022,
        -0.15802675485610962,
        -0.17069466412067413,
        -0.07540629059076309,
        -0.21141982078552246,
        0.027552776038646698,
        0.15141327679157257,
        0.15294715762138367,
        -0.09246240556240082,
        0.1515979766845703,
        -0.10051529109477997,
        0.1999940723180771,
        -0.1229412704706192,
        -0.10530155897140503,
        -0.03159712255001068,
        0.07284051924943924,
        -0.00848001055419445,
        0.003581574885174632,
        -0.1984490156173706,
        0.04478303715586662,
        0.014546439982950687,
        0.05629042536020279,
        0.1058671697974205,
        0.09881648421287537,
        -0.02078639715909958,
        -0.16120490431785583,
        0.1347065418958664,
        0.07733604311943054,
        0.03371225297451019,
        0.028903411701321602,
        0.05919839069247246,
        -0.1955568939447403,
        -0.12065694481134415,
        0.13619281351566315,
        -0.14756616950035095,
        -0.18138033151626587,
        -0.01511343102902174,
        0.049836017191410065,
        -0.10279525071382523,
        -0.006791486404836178,
        0.2480291873216629,
        0.1095438078045845,
        -0.029890581965446472,
        -0.10935334116220474,
        -0.08877363801002502,
        0.1361733227968216,
        0.191271111369133,
        0.06254900991916656,
        -0.2671804428100586,
        0.001823138794861734,
        0.03242025524377823,
        0.045799337327480316,
        -0.015978999435901642,
        0.0948091447353363,
        -0.22652341425418854,
        -0.24247370660305023,
        -0.1316571831703186,
        0.1521429568529129,
        -0.22482436895370483,
        -0.21734169125556946,
        0.10544124245643616,
        -0.2768115699291229,
        -0.05742054432630539,
        0.0947609543800354,
        -0.17627309262752533,
        0.12430758774280548,
        0.03589446097612381,
        -0.1542193442583084,
        -0.08020040392875671,
        0.09458962082862854,
        0.0039200009778141975,
        -0.191139817237854,
        -0.0027660424821078777,
        0.16067038476467133,
        0.04574165120720863,
        0.18813954293727875,
        0.0810461938381195,
        -0.1341853141784668,
        0.06546813249588013,
        -0.0902879536151886,
        -0.11258571594953537,
        0.2102014571428299,
        -0.31142428517341614,
        0.02345750480890274,
        -0.11007043719291687,
        -0.08578851819038391,
        0.00209799874573946,
        0.013195962645113468,
        -0.03663488104939461,
        -0.03996532782912254,
        -0.09474463015794754,
        0.3006238043308258,
        -0.09293562173843384,
        -0.012197372503578663,
        0.17615710198879242,
        0.02439434640109539,
        -0.07893388718366623,
        -0.1837821900844574,
        0.014986416324973106,
        0.08336878567934036,
        0.05573258921504021,
        0.12764038145542145,
        -0.21669957041740417,
        0.10199325531721115,
        -0.02131904661655426,
        0.11570095270872116,
        -0.040069494396448135,
        -0.10341651737689972,
        0.19800695776939392,
        -0.13200728595256805,
        -0.08729130029678345,
        0.14968934655189514,
        -0.06883255392313004,
        0.16945424675941467,
        0.12256111204624176,
        -0.17661696672439575,
        -0.0823216661810875,
        0.049923259764909744,
        0.09199508279561996,
        -0.0151670565828681,
        -0.06092926859855652,
        -0.27616462111473083,
        -0.05758034065365791,
        0.048740413039922714,
        0.18417835235595703,
        0.33256614208221436,
        -0.03890524059534073,
        -0.1517258584499359,
        0.047115374356508255,
        0.1726759374141693,
        0.14368341863155365,
        -0.10504844784736633,
        -0.09098849445581436,
        0.0590120330452919,
        -0.15038776397705078,
        0.012757928110659122,
        0.02775307558476925,
        0.13552020490169525,
        0.03434636816382408,
        0.12284732609987259,
        -0.05014757812023163,
        0.0140812573954463,
        0.06752608716487885,
        -0.0698835700750351,
        0.012937454506754875,
        -0.027508338913321495,
        -0.17897403240203857,
        0.10641737282276154,
        0.005962271708995104,
        0.06618285179138184,
        -0.238974466919899,
        -0.2286916822195053,
        -0.1358543038368225,
        0.2226627916097641,
        0.11780121177434921,
        -0.06290914118289948,
        0.16488231718540192,
        -0.051172368228435516,
        -0.006823879200965166,
        0.08963162451982498,
        -0.29113608598709106,
        -0.15185561776161194,
        0.07409804314374924,
        -0.09467650949954987,
        -0.04671252891421318,
        0.10864734649658203,
        -0.020276689901947975,
        0.19506652653217316,
        0.27430835366249084,
        -0.08018312603235245,
        -0.11525331437587738,
        -0.13742129504680634,
        -0.3082906901836395,
        0.10636300593614578,
        0.008819883689284325,
        0.1934366226196289,
        -0.08104157447814941,
        -0.2721734941005707,
        0.190759539604187,
        0.10064341127872467,
        -0.11291749030351639,
        0.08770594000816345,
        -0.2102872133255005,
        -0.02391638420522213,
        -0.18402867019176483,
        0.005945309996604919,
        0.05684243515133858,
        -0.05936996638774872,
        0.1169271320104599,
        0.023496389389038086,
        -0.28209441900253296,
        -0.005929399281740189,
        0.18575049936771393,
        0.1535148173570633,
        -0.21428896486759186,
        -0.16176684200763702,
        0.0668729916214943,
        -0.2211233228445053,
        0.14487794041633606,
        0.16843248903751373,
        -0.04517040401697159,
        -0.12428849935531616,
        0.06644105911254883,
        0.09165095537900925,
        0.05701418220996857,
        0.2629895806312561,
        0.13201859593391418,
        -0.2170584797859192,
        0.331350713968277,
        -0.2845253050327301,
        -0.31177857518196106,
        0.08059914410114288,
        -0.027343973517417908,
        0.0526510551571846,
        -0.008415374904870987,
        0.2256854921579361,
        0.03268274664878845,
        -0.17249101400375366,
        -0.04027852788567543,
        0.04100007563829422,
        -0.02626223862171173,
        0.269683837890625,
        0.05289451777935028,
        -0.021967580541968346,
        0.17496149241924286,
        -0.04960446432232857,
        -0.018114514648914337,
        0.09662069380283356,
        0.0436549186706543,
        0.07807323336601257,
        -0.07760734111070633,
        -0.11964033544063568,
        -0.16219530999660492,
        -0.039985541254282,
        -0.06473183631896973,
        0.08217823505401611,
        -0.04543987289071083,
        0.0340459942817688,
        -0.0145339947193861,
        0.03166894242167473,
        0.13697268068790436,
        0.13959600031375885,
        0.04297157749533653,
        0.0068023428320884705,
        -0.09521869570016861,
        -0.19842930138111115,
        0.034265175461769104,
        0.12523256242275238,
        0.03423478454351425,
        0.016264650970697403,
        -0.04532641917467117,
        0.17087331414222717,
        0.10776032507419586,
        -0.15220807492733002,
        -0.12827196717262268,
        0.04988811910152435,
        0.060805581510066986,
        -0.15824857354164124,
        0.0037823631428182125,
        0.10089029371738434,
        -0.026833726093173027,
        -0.12976069748401642,
        0.10528877377510071,
        0.1969517320394516,
        -0.011463423259556293,
        -0.13065113127231598,
        -0.10319773107767105,
        -0.0221074391156435,
        -0.1863117814064026,
        0.10525810718536377,
        0.15193946659564972,
        -0.25824543833732605,
        -0.054842568933963776,
        0.06064559891819954,
        -0.029978783801198006,
        0.03440496325492859,
        0.06699417531490326,
        0.12542197108268738,
        0.06191183999180794,
        -0.010803951881825924,
        0.2996988594532013,
        0.0009430972277186811,
        0.015532388351857662,
        -0.015328492969274521,
        -0.18177248537540436,
        -0.05862865224480629,
        0.27127957344055176,
        -0.09819599241018295,
        0.08740579336881638,
        0.02468547411262989,
        -0.045600779354572296,
        -0.20716005563735962,
        0.30137571692466736,
        -0.042491115629673004,
        -0.12248282134532928,
        -0.06918755173683167,
        0.041636548936367035,
        0.1447824388742447,
        -0.05409805104136467,
        -0.06663662940263748,
        0.07840096950531006,
        -0.0680345892906189,
        0.12837156653404236,
        0.11488781869411469,
        -0.04308634623885155,
        -0.1903487592935562,
        0.06075644493103027,
        -0.2869543135166168,
        -0.011688550934195518,
        -0.29517802596092224,
        -0.2532251179218292,
        0.019505105912685394,
        0.08583372086286545,
        -0.08763806521892548,
        0.2460954189300537,
        0.0717802420258522,
        0.2129097580909729,
        0.26309213042259216,
        -0.08211570233106613,
        -0.0916295126080513,
        -0.1956547200679779,
        0.18827375769615173,
        0.0793607085943222,
        -0.1878611296415329,
        -0.03245270997285843,
        -0.28401708602905273,
        0.07772891968488693,
        -0.06429003179073334,
        0.1778620481491089,
        0.2866922914981842,
        0.08009878545999527,
        0.19066262245178223,
        -0.16148877143859863,
        0.11228901892900467,
        0.01146619115024805,
        0.1699933260679245,
        -0.11002877354621887,
        -0.009420840069651604,
        -0.15311190485954285,
        -0.03689641132950783,
        0.057809703052043915,
        0.1257050484418869,
        -0.04820233955979347,
        0.04593474045395851,
        -0.17382827401161194,
        0.11709710210561752,
        0.009742812253534794,
        -0.059876058250665665,
        0.0676095262169838,
        0.00558512844145298,
        0.06773857027292252,
        0.2369740754365921,
        -0.3064594864845276,
        0.15132854878902435,
        -0.05488025024533272,
        -0.1108635663986206,
        -0.23019897937774658,
        0.01725764013826847,
        0.03263763710856438,
        -0.18306365609169006,
        -0.03139800205826759,
        -0.24081958830356598,
        0.17944906651973724,
        0.22900739312171936,
        0.1394159346818924,
        0.11679154634475708,
        -0.04013250768184662,
        -0.2494884878396988,
        -0.03426027297973633,
        0.18234355747699738,
        -0.09701142460107803,
        -0.21564221382141113,
        -0.11706026643514633,
        -0.05999422073364258,
        -0.21228578686714172,
        -0.26503345370292664,
        0.23404793441295624,
        0.021273378282785416,
        -0.07869701832532883,
        -0.01679381914436817,
        -0.022591551765799522,
        0.06630560010671616,
        0.1726483404636383,
        -0.03130212053656578,
        -0.10670053958892822,
        -0.014434613287448883,
        -0.1449524164199829,
        0.2250141203403473,
        0.21356835961341858,
        0.10768143087625504,
        -0.1350933015346527,
        -0.0070945871993899345,
        -0.13006259500980377,
        0.08673933893442154,
        -0.06110005080699921,
        -0.08267103135585785,
        0.13971127569675446,
        -0.21457897126674652,
        -0.03643990308046341,
        0.07392217963933945,
        -0.31105953454971313,
        -0.0009376952075399458,
        -0.033597107976675034,
        0.008438454009592533,
        -0.07837478071451187,
        0.12431898713111877,
        -0.007121196016669273,
        0.037560611963272095,
        0.15213535726070404,
        -0.08307427912950516,
        0.20979677140712738,
        -0.024851813912391663,
        -0.37903091311454773,
        -0.05351492017507553,
        -0.1921272724866867,
        0.10144175589084625,
        0.001597552909515798,
        0.15102098882198334,
        0.31778666377067566,
        -0.09761801362037659,
        -0.018825341016054153,
        0.16323606669902802,
        -0.05276712775230408,
        0.07103322446346283,
        -0.28150394558906555,
        0.1535434126853943,
        -0.09154724329710007,
        -0.09613146632909775,
        -0.10490687191486359,
        0.069413922727108,
        -0.17001742124557495,
        -0.07543621957302094,
        0.0523657463490963,
        0.08028749376535416,
        -0.11306478828191757,
        0.17380449175834656,
        0.03801872953772545,
        0.054298728704452515,
        -0.1577673852443695,
        -0.012786547653377056,
        -0.05079113692045212,
        -0.042567797005176544,
        0.04356086626648903,
        -0.06236658990383148,
        0.1823103427886963,
        0.025320643559098244,
        0.11488072574138641,
        0.03229568526148796,
        -0.0873275101184845,
        -0.05452137067914009,
        -0.007494929246604443,
        0.21881087124347687,
        -0.2376423478126526,
        0.05444790795445442,
        -0.11458326876163483,
        -0.0830221101641655,
        -0.16782213747501373,
        0.2511095404624939,
        0.3756510317325592,
        -0.4711800813674927,
        0.0846409723162651,
        0.5844686627388,
        -0.36880427598953247,
        0.04747730866074562,
        -0.1464589685201645,
        -0.1673627346754074,
        -0.14029954373836517,
        -0.21571753919124603,
        0.3229379653930664,
        -0.06752824038267136,
        -0.3373788595199585,
        0.4021335542201996,
        -0.20661909878253937,
        0.17862167954444885,
        -0.05715011805295944,
        0.2329733669757843,
        -0.05997971445322037,
        -0.0114120589569211,
        -0.25536099076271057,
        0.19362279772758484,
        0.3148770332336426,
        -0.07244418561458588,
        -0.05873967334628105,
        0.21558786928653717,
        -0.2880074083805084,
        -0.06026080623269081,
        0.27273234724998474,
        0.07641544193029404,
        -0.06416312605142593,
        -0.11117798089981079,
        0.1713895946741104,
        -0.1451193243265152,
        0.03858613595366478,
        0.07006345689296722,
        -0.26607468724250793,
        -0.3363054692745209,
        -0.06432237476110458,
        -0.05366958677768707,
        -0.1390751451253891,
        -0.07739431411027908,
        -0.46464619040489197,
        0.46132344007492065,
        0.07907941192388535,
        0.018153289332985878,
        -0.26662254333496094,
        0.17464642226696014,
        -0.15322339534759521,
        -0.23113469779491425,
        0.15976697206497192,
        -0.26537489891052246,
        -0.1994510293006897,
        0.07303600013256073,
        0.07474668323993683,
        0.03760046511888504,
        -0.29305386543273926,
        0.15127062797546387,
        0.03245644271373749,
        -0.25949835777282715,
        0.180698424577713,
        -0.0970301553606987,
        0.04071155562996864,
        -0.1172933503985405,
        0.061146970838308334,
        -0.028337018564343452,
        0.13605612516403198,
        0.04103473201394081,
        -0.07798192650079727,
        0.039948832243680954,
        0.17753833532333374,
        -0.13819709420204163,
        0.14378157258033752,
        0.06714988499879837,
        -0.17023620009422302,
        -0.14325866103172302,
        0.015139521099627018,
        0.1915300339460373,
        -0.002939341589808464,
        -0.1656779944896698,
        0.042278893291950226,
        0.05069849640130997,
        -0.1650843471288681,
        0.11937764286994934,
        0.06585691124200821,
        -0.01698514260351658,
        0.045659687370061874,
        -0.0018905200995504856,
        -0.045645635575056076,
        -0.05874089524149895,
        0.31661155819892883,
        0.026426704600453377,
        0.14046496152877808,
        -0.2312692403793335,
        -0.05043737590312958,
        -0.19187021255493164,
        0.2606217563152313,
        0.057323746383190155,
        -0.031158030033111572,
        0.13129013776779175,
        -0.2397194355726242,
        -0.26781395077705383,
        -0.026075230911374092,
        0.21037517488002777,
        0.06348464637994766,
        -0.14569348096847534,
        0.02437327802181244,
        0.01636498048901558,
        -0.078881174325943,
        -0.07141593843698502,
        0.07574639469385147,
        0.3303356170654297,
        -0.05470630154013634,
        -0.05752197280526161,
        -0.12249525636434555,
        0.1466822475194931,
        0.27871885895729065,
        0.24862083792686462,
        -0.07616480439901352,
        0.15699175000190735,
        -0.16203665733337402,
        0.08232639729976654,
        -0.01530530210584402,
        0.2300305962562561,
        -0.08874593675136566,
        -0.19102224707603455,
        -0.07400690019130707,
        0.044059887528419495,
        -0.1348107010126114,
        -0.08357842266559601,
        0.11309917271137238,
        -0.271554559469223,
        -0.18381749093532562,
        0.21892797946929932,
        -0.09163329750299454,
        0.06480512768030167,
        0.16712310910224915,
        0.040145475417375565,
        -0.18619348108768463,
        -0.059042688459157944,
        -0.10957007110118866,
        -0.10214708745479584,
        0.10539300739765167,
        0.07038844376802444,
        -0.05153513699769974,
        -0.2127418965101242,
        0.01867075078189373,
        -0.18885548412799835,
        -0.10193353146314621,
        0.2338031828403473,
        0.13258841633796692,
        -0.10654587298631668,
        0.0030294759199023247,
        0.14691007137298584,
        -0.03349694237112999,
        0.1338161677122116,
        0.06028895080089569,
        -0.07213322818279266,
        -0.15830159187316895,
        -0.2191157341003418,
        0.14021971821784973,
        -0.017111506313085556,
        -0.17623117566108704,
        -0.03933689743280411,
        -0.20128479599952698,
        -0.10385379940271378,
        0.14779861271381378,
        -0.043386202305555344,
        0.13394518196582794,
        0.027026869356632233,
        -0.1492089182138443,
        0.021468231454491615,
        -0.05325637385249138,
        0.20081175863742828,
        0.13624700903892517,
        -0.04502338171005249,
        0.1135607436299324,
        -0.1566317230463028,
        -0.10771572589874268,
        0.18510526418685913,
        -0.07349296659231186,
        -0.004678651224821806,
        0.19585098326206207,
        0.06608101725578308,
        -0.1778184175491333,
        0.17296037077903748,
        0.09558054059743881,
        0.0479767881333828,
        0.03504522517323494,
        0.026194998994469643,
        -0.046312116086483,
        -0.23272231221199036,
        0.07795196771621704,
        0.14065106213092804,
        -0.2202572226524353,
        0.21259039640426636,
        0.07999724894762039,
        0.10602442175149918,
        -0.23025895655155182,
        0.012212725356221199,
        0.1476975381374359,
        -0.19981421530246735,
        -0.05223967880010605,
        0.06411322951316833,
        -0.1041484996676445,
        0.06827469170093536,
        -0.2490217536687851,
        0.17671649158000946,
        -0.022089626640081406,
        -0.10198014974594116,
        -0.04883640259504318,
        0.05341925844550133,
        0.03397546336054802,
        0.0787176638841629,
        0.03327155485749245,
        0.19652150571346283,
        -0.12468139082193375,
        -0.034461598843336105,
        0.05914716050028801,
        -0.12274914234876633,
        0.1397617608308792,
        0.04170040786266327,
        -0.004815285559743643,
        -0.10813826322555542,
        0.02208169363439083,
        -0.043688658624887466,
        -0.07024729996919632,
        -0.0633697584271431,
        -0.06171054393053055,
        -0.0846702829003334,
        0.13204693794250488,
        0.15450431406497955,
        -0.05520453304052353,
        0.17245127260684967,
        -0.3035561740398407,
        -0.21115966141223907,
        -0.07362182438373566,
        -0.15188544988632202,
        -0.02094486728310585,
        0.10181248933076859,
        0.021373512223362923,
        -0.2610248625278473,
        0.29268205165863037,
        -0.3158007860183716,
        -0.007250991649925709,
        0.08128363639116287,
        -0.04298197478055954,
        0.024265293031930923,
        -0.25542670488357544,
        0.22036036849021912,
        0.05666463449597359,
        -0.23935748636722565,
        0.5973655581474304,
        -0.1464785784482956,
        0.14567019045352936,
        0.10163947939872742,
        -0.15573446452617645,
        0.22615541517734528,
        -0.20486219227313995,
        0.28580331802368164,
        -0.08418044447898865,
        0.12436047196388245,
        -0.09224855154752731,
        -0.14632055163383484,
        0.10326645523309708,
        -0.06711184978485107,
        -0.23206005990505219,
        0.19462040066719055,
        0.11777538806200027,
        0.10846457630395889,
        -0.1829639971256256,
        0.09091974794864655,
        0.2852868437767029,
        -0.1030694767832756,
        0.09286551922559738,
        0.1345047652721405,
        -0.01511317864060402,
        0.014228694140911102,
        -0.16581681370735168,
        0.3161787688732147,
        -0.22133442759513855,
        -0.42547690868377686,
        0.027277512475848198,
        -0.10706991702318192,
        0.44506901502609253,
        -0.4262908399105072,
        0.19687335193157196,
        -0.06026465818285942,
        0.1805875450372696,
        -0.16830135881900787,
        -0.08831596374511719,
        0.059928856790065765,
        0.02632223814725876,
        0.16962581872940063,
        -0.0049829380586743355,
        -0.0614379346370697,
        0.20098480582237244,
        -0.015678176656365395,
        -0.13183820247650146,
        0.08746416866779327,
        -0.015212750062346458,
        0.13055585324764252,
        -0.16067738831043243,
        -0.03136808052659035,
        0.10353410243988037,
        0.01042557880282402,
        -0.049154896289110184,
        -0.18669329583644867,
        -0.10140018910169601,
        -0.08271484822034836,
        0.020807139575481415,
        -0.04760751873254776,
        -0.2303370088338852,
        -0.26113513112068176,
        -0.14027056097984314,
        0.19323305785655975,
        0.30901217460632324,
        0.04590954631567001,
        0.014520508237183094,
        -0.2635602056980133,
        -0.012925592251121998,
        -0.07269246876239777,
        -0.08757028728723526,
        0.130008727312088,
        -0.15464003384113312,
        -0.1357361078262329,
        0.28836432099342346,
        0.14048878848552704,
        -0.20552261173725128,
        0.15477648377418518,
        -0.1860700398683548,
        -0.05259084701538086,
        -0.03626581281423569,
        0.06938884407281876,
        -0.03886787220835686,
        0.15537527203559875,
        0.08181891590356827,
        -0.02469933032989502,
        0.13095222413539886,
        -0.10228405147790909,
        0.07126506417989731,
        0.1449555903673172,
        0.15967999398708344,
        -0.02184661664068699,
        -0.061460211873054504,
        0.12395399808883667,
        0.11232950538396835,
        0.19093476235866547,
        0.1013188362121582,
        -0.031282730400562286,
        -0.11361660808324814,
        -0.45531710982322693,
        0.15236961841583252,
        0.2280627340078354,
        -0.490420937538147,
        0.21473824977874756,
        -0.813048243522644,
        -0.3459625542163849,
        -0.45293116569519043,
        0.8666539788246155,
        -0.7501075863838196,
        -0.5158182978630066,
        -1.0356566905975342,
        0.2617277503013611,
        -0.6932374238967896,
        0.27568647265434265,
        -0.5847999453544617,
        -0.13368993997573853,
        -0.023761771619319916,
        0.166078120470047,
        0.23052774369716644,
        0.272743284702301,
        -0.026812804862856865,
        -0.07382594048976898,
        -0.04214094206690788,
        -0.24549895524978638,
        0.00564799178391695,
        0.14129692316055298,
        -0.07335992902517319,
        0.17016997933387756,
        0.02530716545879841,
        -0.08990702778100967,
        -0.03115127980709076,
        0.11756756156682968,
        -0.034132134169340134,
        0.09839219599962234,
        0.047980014234781265,
        -0.0044990903697907925,
        0.13059614598751068,
        0.09860322624444962,
        -0.1758784055709839,
        0.207605242729187,
        -0.12809869647026062,
        0.04678655043244362,
        0.2111993432044983,
        0.03366020694375038,
        0.12842592597007751,
        0.27340856194496155,
        0.1829439252614975,
        -0.23276974260807037,
        -0.33477073907852173,
        -0.10787844657897949,
        0.40051642060279846,
        0.09159334748983383,
        0.14322246611118317,
        -0.11573827266693115,
        -0.10245130956172943,
        0.18957263231277466,
        0.07252408564090729,
        -0.12891103327274323,
        -0.25711366534233093,
        0.15852290391921997,
        0.154159277677536,
        0.07018974423408508,
        0.20004180073738098,
        0.3143749237060547,
        0.1709345132112503,
        -0.3310546576976776,
        -0.271989643573761,
        -0.2687729597091675,
        -0.017309824004769325,
        -0.030781198292970657,
        -0.027150603011250496,
        -0.13699764013290405,
        0.0013891177950426936,
        0.08143988251686096,
        0.41268426179885864,
        0.03712131828069687,
        -0.11375153809785843,
        0.1493411809206009,
        0.054858628660440445,
        0.30642712116241455,
        -0.024731682613492012,
        -0.21190884709358215,
        -0.19961388409137726,
        0.10800240933895111,
        -0.09591660648584366,
        -0.1816157102584839,
        0.24332530796527863,
        0.09375205636024475,
        -0.11298583447933197,
        -0.15371698141098022,
        0.26206570863723755,
        -0.13830290734767914,
        -0.13042302429676056,
        -0.07179897278547287,
        -0.16636726260185242,
        -0.4437173306941986,
        -0.13398756086826324,
        -0.2669934928417206,
        -0.05185576155781746,
        -0.021658435463905334,
        -0.17104987800121307,
        -0.20523640513420105,
        -0.28368034958839417,
        0.2463422417640686,
        0.33746835589408875,
        -0.017012692987918854,
        -0.4547741115093231,
        0.032851606607437134,
        -0.08007916063070297,
        0.0754917785525322,
        0.10142312943935394,
        0.07561110705137253,
        -0.20487579703330994,
        0.08963741362094879,
        -0.12295324355363846,
        0.11176840960979462,
        0.4580405354499817,
        -0.5554313659667969,
        -0.10624081641435623,
        0.2618041932582855,
        -0.22166262567043304,
        -0.15917828679084778,
        0.43073388934135437,
        -0.074544757604599,
        0.056066788733005524,
        -0.8793177604675293,
        0.18822219967842102,
        -0.03326498344540596,
        -0.05133131518959999,
        -0.16763931512832642,
        0.10511674731969833,
        -0.015069722197949886,
        -0.1493510901927948,
        -0.24258863925933838,
        -0.03206426277756691,
        0.007479365449398756,
        0.3843410313129425,
        -0.19453908503055573,
        0.05950981006026268,
        -0.01988999918103218,
        0.23256045579910278,
        0.0671074241399765,
        0.15843015909194946,
        -0.215895414352417,
        0.013795686885714531,
        -0.20725595951080322,
        0.06388889253139496,
        -0.20189106464385986,
        -0.19076983630657196,
        0.027939332649111748,
        -0.30978232622146606,
        0.13480404019355774,
        0.1134515106678009,
        0.3535171449184418,
        -0.15415234863758087,
        0.03768830746412277,
        0.16782434284687042,
        -0.07871736586093903,
        0.4069880247116089,
        -0.11214388906955719,
        0.05636574700474739,
        0.012601013295352459,
        -0.025057833641767502,
        0.07611986249685287,
        -0.24704609811306,
        0.07737410068511963,
        -0.044117677956819534,
        0.027897456660866737,
        0.18684664368629456,
        -0.052622582763433456,
        0.1682702749967575,
        0.18887723982334137,
        0.06397145241498947,
        0.13303740322589874,
        -0.14086203277111053,
        -0.22534427046775818,
        -0.19659386575222015,
        -0.1398741751909256,
        0.23872365057468414,
        0.214595764875412,
        -0.3000611960887909,
        0.05538247525691986,
        -0.09966372698545456,
        0.26820534467697144,
        0.23479972779750824,
        -0.19223473966121674,
        0.18760286271572113,
        0.10861214995384216,
        0.019883448258042336,
        -0.028157168999314308,
        0.09183801710605621,
        0.31059321761131287,
        0.26577624678611755,
        -0.17123980820178986,
        -0.09939226508140564,
        -0.07987197488546371,
        0.049946051090955734,
        0.10709663480520248,
        0.33297207951545715,
        -0.48405542969703674,
        -0.010682438500225544,
        0.2631739675998688,
        -0.03007439710199833,
        -0.1432996243238449,
        -0.2370137870311737,
        0.06042396277189255,
        -0.15381693840026855,
        -0.22438105940818787,
        -0.20162051916122437,
        -0.17712445557117462,
        0.2568952441215515,
        -0.0014719967730343342,
        0.1076013594865799,
        -0.2001839280128479,
        0.0935303196310997,
        -0.1635887622833252,
        -0.08883783966302872,
        -0.11721428483724594,
        -0.33573684096336365,
        0.2418316751718521,
        -0.15055008232593536,
        -0.08858008682727814,
        -0.012954811565577984,
        -0.039982348680496216,
        0.13810259103775024,
        -0.20846155285835266,
        0.2810131907463074,
        -0.24717772006988525,
        -0.06989191472530365,
        0.20987005531787872,
        -0.23414424061775208,
        0.1851831078529358,
        0.28246986865997314,
        0.11336667090654373,
        -0.1203010231256485,
        0.30740225315093994,
        0.20567965507507324,
        0.15526460111141205,
        0.02333385869860649,
        0.08561939746141434,
        0.1807955950498581,
        -0.077429860830307,
        -0.008519653230905533,
        -0.18908809125423431,
        -0.2809544503688812,
        0.28550416231155396,
        -0.0012411606730893254,
        -0.02081223949790001,
        0.009773436933755875,
        -0.12595722079277039,
        0.1334095448255539,
        -0.11663614958524704,
        0.09433991461992264,
        0.3252902030944824,
        0.20779293775558472,
        0.20613320171833038,
        -0.33706820011138916,
        -0.09234051406383514,
        0.1909000128507614,
        -0.16702480614185333,
        0.1820746660232544,
        -0.1047118529677391,
        0.157088041305542,
        0.1933944821357727,
        -0.19588954746723175,
        0.238322913646698,
        0.20680727064609528,
        -0.2502439618110657,
        0.35880565643310547,
        -0.5556460022926331,
        -0.0727435052394867,
        -0.07163394242525101,
        0.04553772136569023,
        -0.09372026473283768,
        -0.024666637182235718,
        -0.12578468024730682,
        0.008278298191726208,
        0.11342434585094452,
        0.138877734541893,
        0.05803219601511955,
        0.058208007365465164,
        -0.0021593542769551277,
        -0.16660811007022858,
        0.07157716155052185,
        -0.2203328013420105,
        -0.10967884212732315,
        -0.12354111671447754,
        0.14376986026763916,
        0.08891895413398743,
        -0.14848388731479645,
        0.08747231215238571,
        0.062390487641096115,
        -0.09809836000204086,
        0.15021440386772156,
        0.012629984878003597,
        -0.06207283213734627,
        0.08413712680339813,
        -0.40224936604499817,
        -0.06927195191383362,
        0.06496196240186691,
        -0.06617632508277893,
        0.015243441797792912,
        0.08069682121276855,
        0.48335862159729004,
        -0.02452416531741619,
        -0.14865276217460632,
        -0.07693774253129959,
        -0.03343336656689644,
        -0.08708380907773972,
        0.19643758237361908,
        -0.0519581064581871,
        0.03950973227620125,
        0.11439067870378494,
        0.0387897752225399,
        -0.01723160594701767,
        0.20417511463165283,
        0.08883171528577805,
        -0.022733034566044807,
        0.0019258828833699226,
        -0.12627823650836945,
        -0.10636844485998154,
        -0.24859419465065002,
        0.044114675372838974,
        0.0682087317109108,
        -0.10478924214839935,
        -0.07094894349575043,
        0.02660345658659935,
        0.10008743405342102,
        -0.11594678461551666,
        0.05858877673745155,
        -0.3176972270011902,
        -0.10818260163068771,
        0.16860996186733246,
        -0.17538109421730042,
        -0.018716009333729744,
        -0.23704354465007782,
        0.03813277930021286,
        0.08162293583154678,
        -0.15398509800434113,
        0.28693532943725586,
        -0.09270268678665161,
        0.05036941543221474,
        0.1864335983991623,
        0.11815892904996872,
        0.28391167521476746,
        -0.15960173308849335,
        -0.16602522134780884,
        0.3155338764190674,
        -0.10795046389102936,
        0.034718289971351624,
        -0.3278132379055023,
        0.06183300167322159,
        -0.06522978842258453,
        0.29833894968032837,
        0.04978674277663231,
        0.05456846207380295,
        -0.13171425461769104,
        -0.14941270649433136,
        -0.00939478725194931,
        -0.06960192322731018,
        0.03100116364657879,
        -0.23483721911907196,
        0.08515311032533646,
        0.10253254324197769,
        0.15796445310115814,
        0.00653924560174346,
        0.175016850233078,
        -0.01237101387232542,
        0.11192184686660767,
        -0.30582618713378906,
        -0.16881735622882843,
        -0.053146734833717346,
        0.1803467869758606,
        -0.06913571059703827,
        -0.14238616824150085,
        0.07901033014059067,
        -0.16349710524082184,
        0.050803907215595245,
        -0.04780779406428337,
        -0.087004154920578,
        0.2587793171405792,
        0.19859151542186737,
        -0.005204005166888237,
        0.09300161898136139,
        0.028171349316835403,
        -0.17592240869998932,
        0.16574113070964813,
        0.09489325433969498,
        -0.09476505219936371,
        0.2502923309803009,
        0.08459384739398956,
        0.07932626456022263,
        -0.10206806659698486,
        -0.30364271998405457,
        0.13693557679653168,
        -0.07439026981592178,
        -0.18792644143104553,
        0.14427120983600616,
        0.01712711527943611,
        0.4672824740409851,
        -0.09263493120670319,
        0.009748327545821667,
        0.10522345453500748,
        0.012650267221033573,
        -0.15670642256736755,
        0.14198485016822815,
        0.04615231230854988,
        0.11603789031505585,
        -0.0286230631172657,
        -0.030731545761227608,
        -0.05987919867038727,
        0.16313396394252777,
        -0.07986235618591309,
        -0.09922590106725693,
        0.02724388614296913,
        -0.1437428891658783,
        0.056975509971380234,
        -0.1685633659362793,
        0.16924817860126495,
        0.1417001336812973,
        0.0017775635933503509,
        -0.02808867022395134,
        0.013470582664012909,
        0.0037216003984212875,
        -0.04166562482714653,
        0.19830524921417236,
        -0.5493072867393494,
        0.047630056738853455,
        -0.04619726911187172,
        -0.10025729238986969,
        0.12006944417953491,
        0.07524093985557556,
        -0.16857074201107025,
        -0.10930420458316803,
        -0.20760609209537506,
        0.1322576254606247,
        -0.0005463530542328954,
        0.18870627880096436,
        0.1389569640159607,
        -0.1884697824716568,
        0.18043406307697296,
        0.15208964049816132,
        -0.024944080039858818,
        -0.018050413578748703,
        -0.035025037825107574,
        0.06152611970901489,
        -0.007019749376922846,
        -0.031204188242554665,
        -0.004836763720959425,
        0.08740445226430893,
        0.10993922501802444,
        0.14186204969882965,
        -0.16913250088691711,
        0.005869758315384388,
        0.1446928232908249,
        0.11839108914136887,
        0.06604614853858948,
        -0.11060567200183868,
        -0.19292162358760834,
        -0.08177333325147629,
        -0.08612736314535141,
        -0.07533405721187592,
        -0.07064974308013916,
        -0.17993758618831635,
        0.24807168543338776,
        -0.03583751246333122,
        0.03131542727351189,
        0.19212490320205688,
        -0.05954429879784584,
        -0.12774766981601715,
        0.22257694602012634,
        -0.05347010865807533,
        -0.10667777806520462,
        -0.09447265416383743,
        0.04000003635883331,
        0.20832937955856323,
        -0.002430099295452237,
        0.043319836258888245,
        0.04289503023028374,
        -0.019479308277368546,
        -0.10216790437698364,
        -0.04955330491065979,
        0.3307516276836395,
        0.2330903559923172,
        -0.040290217846632004,
        0.015360749326646328,
        0.02759508043527603,
        -0.11333377659320831,
        0.19461503624916077,
        0.17572234570980072,
        -0.24395179748535156,
        -0.0807747170329094,
        0.032021354883909225,
        -0.029515566304326057,
        -0.06226467341184616,
        -0.03552175685763359,
        -0.030893905088305473,
        -0.007153227925300598,
        -0.41212067008018494,
        0.09759936481714249,
        -0.09771566838026047,
        -0.14530408382415771,
        0.15913406014442444,
        0.040933746844530106,
        -0.14984428882598877,
        -0.06342855840921402,
        -0.01038871705532074,
        0.05031881481409073,
        0.07199368625879288,
        -0.1568884700536728,
        -0.041763436049222946,
        0.146317258477211,
        -0.14202401041984558,
        0.24248792231082916,
        -0.016713427379727364,
        -0.0698058232665062,
        0.0523323230445385,
        -0.11013996601104736,
        -0.03097124584019184,
        -0.12544173002243042,
        -0.04318203777074814,
        0.14184723794460297,
        0.04397473856806755,
        0.14204534888267517,
        0.15662117302417755,
        -0.10465448349714279,
        -0.06413158774375916,
        0.22713235020637512,
        0.026637287810444832,
        -0.23071105778217316,
        0.13098379969596863,
        0.01820117048919201,
        6.578192551387474e-05,
        0.09890073537826538,
        -0.05929035320878029,
        -0.11338010430335999,
        -0.058806758373975754,
        -0.32427000999450684,
        0.07149220257997513,
        -0.0852750614285469,
        -0.11236714571714401,
        0.09660220891237259,
        -0.20430803298950195,
        0.06267375499010086,
        0.10228583216667175,
        -0.24020124971866608,
        0.13244764506816864,
        0.08312033116817474,
        -0.2292739897966385,
        -0.10565926879644394,
        0.16829444468021393,
        0.14986814558506012,
        -0.06869881600141525,
        -0.17270337045192719,
        -0.21472568809986115,
        0.026835976168513298,
        0.10422152280807495,
        0.1447126865386963,
        -0.02160375937819481,
        -0.08319350332021713,
        0.15192891657352448,
        0.12715047597885132,
        -0.0417005680501461,
        0.2476590871810913,
        -0.04595133289694786,
        -0.15595486760139465,
        0.07287696748971939,
        -0.005672791972756386,
        -0.043066442012786865,
        0.1070718914270401,
        -0.3287395238876343,
        0.09788896143436432,
        0.22847099602222443,
        -0.029096966609358788,
        -0.06640000641345978,
        -0.1614585518836975,
        -0.09737882763147354,
        0.0993465855717659,
        0.28261756896972656,
        -0.04780535772442818,
        0.07955116778612137,
        0.1312406212091446,
        -0.07228169590234756,
        -0.037406206130981445,
        -0.12383810430765152,
        -0.04787168651819229,
        -0.01877095364034176,
        -0.04453166946768761,
        -0.09002514183521271,
        -0.035541847348213196,
        -0.13685697317123413,
        0.18145321309566498,
        -0.004096314311027527,
        0.09306877851486206,
        0.06493665277957916,
        -0.17023766040802002,
        0.15431344509124756,
        0.18960511684417725,
        -0.18006470799446106,
        -0.13227911293506622,
        -0.06999965757131577,
        0.2612004280090332,
        -0.09683322161436081,
        0.17777687311172485,
        -0.14384165406227112,
        -0.036907728761434555,
        0.17969459295272827,
        0.055693790316581726,
        -0.14189280569553375,
        -0.1488763839006424,
        -0.06822264194488525,
        -0.1551869511604309,
        -0.1776738166809082,
        0.1633361130952835,
        -0.03803900629281998,
        -0.14069652557373047,
        0.1020028218626976,
        -0.2004283219575882,
        -0.0027281614020466805,
        0.15141768753528595,
        0.16146457195281982,
        -0.10920149832963943,
        0.06564664095640182,
        0.11036448925733566,
        0.08582284301519394,
        -0.28055909276008606,
        0.012902241200208664,
        0.07142774015665054,
        0.018791211768984795,
        0.07846751809120178,
        0.16049423813819885,
        -0.07373885810375214,
        -0.08801738917827606,
        -0.18645741045475006,
        0.024324262514710426,
        -0.18536192178726196,
        -0.01044147927314043,
        -0.01635901816189289,
        -0.10607165098190308,
        0.11839935183525085,
        0.02564062364399433,
        -0.006001411937177181,
        0.18478678166866302,
        0.0705517828464508,
        -0.20038484036922455,
        0.09444457292556763,
        0.06242059916257858,
        0.11875563859939575,
        0.058805495500564575,
        -0.11825572699308395,
        -0.25409871339797974,
        0.04036307707428932,
        -0.07869210839271545,
        0.2069910764694214,
        -0.14478011429309845,
        -0.058070261031389236,
        0.003853149013593793,
        0.002394099486991763,
        -0.17178359627723694,
        0.16714246571063995,
        0.08246846497058868,
        0.05163462832570076,
        0.027370668947696686,
        -0.10644614696502686,
        -0.04028544947504997,
        0.02171729877591133,
        -0.21403686702251434,
        0.016614342108368874,
        -0.0896957591176033,
        -0.1557919979095459,
        -0.19605162739753723,
        -0.0904402956366539,
        -0.07180530577898026,
        -0.09037086367607117,
        0.17037084698677063,
        -0.0736837163567543,
        0.07869254797697067,
        0.17728441953659058,
        0.1559864580631256,
        -0.09545283019542694,
        0.21700362861156464,
        0.20405781269073486,
        0.09928236901760101,
        -0.07151149958372116,
        0.0030386094003915787,
        0.11014582961797714,
        -0.13331732153892517,
        0.04618801176548004,
        -0.11260208487510681,
        0.19673345983028412,
        -0.017105018720030785,
        0.12954498827457428,
        -0.06933361291885376,
        -0.08943462371826172,
        0.029305800795555115,
        0.1753435581922531,
        -0.06009713560342789,
        -0.08138171583414078,
        -0.10513630509376526,
        0.09370908886194229,
        0.1401960700750351,
        0.24459308385849,
        -0.007208153139799833,
        -0.22093871235847473,
        0.04055808112025261,
        0.0853123590350151,
        0.03209736943244934,
        -0.06209082156419754,
        0.166268453001976,
        -0.09678788483142853,
        0.21507678925991058,
        0.07716888189315796,
        -0.037976980209350586,
        0.485664039850235,
        0.06811721622943878,
        0.014074624516069889,
        0.13224244117736816,
        -0.009359781630337238,
        -0.021071435883641243,
        -0.3063219487667084,
        -0.15627872943878174,
        0.02279069647192955,
        -0.01168537512421608,
        0.19566987454891205,
        0.10246409475803375,
        -0.2020193487405777,
        0.00828980840742588,
        0.17084430158138275,
        0.07355593144893646,
        0.22433829307556152,
        -0.1006823405623436,
        0.2077239453792572,
        0.1191757544875145,
        -0.059256069362163544,
        -0.147775337100029,
        -0.674930989742279,
        0.05379507690668106,
        0.1668514758348465,
        0.28518053889274597,
        -0.4708218574523926,
        0.2112426608800888,
        -0.3396938741207123,
        -0.16071279346942902,
        -0.27442798018455505,
        -0.23936671018600464,
        0.17944477498531342,
        0.3184744417667389,
        -0.3388272523880005,
        0.030735885724425316,
        -0.11931410431861877,
        0.06964210420846939,
        0.11404545605182648,
        -0.060596734285354614,
        0.5760754942893982,
        -0.11431065201759338,
        -0.23750796914100647,
        0.04273821786046028,
        0.05481072515249252,
        -0.3014671802520752,
        -0.2595701813697815,
        0.159305140376091,
        0.001843926147557795,
        0.20124249160289764,
        -0.011547120288014412,
        -0.022208333015441895,
        0.19752421975135803,
        -0.1720481663942337,
        0.13780073821544647,
        0.06367884576320648,
        0.010096154175698757,
        0.1218198761343956,
        0.22708870470523834,
        0.09825766831636429,
        0.24670277535915375,
        0.16456614434719086,
        0.08065803349018097,
        -0.11542654782533646,
        -0.15435554087162018,
        -0.2806470990180969,
        -0.009476837702095509,
        -0.23046693205833435,
        0.020112397149205208,
        -0.06396109610795975,
        0.11796379089355469,
        0.7128527760505676,
        -0.1898472160100937,
        0.08800578117370605,
        -0.32280826568603516,
        -0.0889427661895752,
        0.055970970541238785,
        0.21783824265003204,
        0.07922520488500595,
        0.08789559453725815,
        0.0401872880756855,
        -0.20848232507705688,
        -0.04961903765797615,
        0.2520515024662018,
        0.21398544311523438,
        0.03831561654806137,
        0.15011939406394958,
        0.16983962059020996,
        0.04921705648303032,
        -0.6823930740356445,
        0.21063220500946045,
        0.039752423763275146,
        -0.12779724597930908,
        0.18289637565612793,
        -0.16309425234794617,
        -0.0311314407736063,
        0.12944409251213074,
        -0.003650509985163808,
        -0.14139531552791595,
        0.17563535273075104,
        -0.0507187582552433,
        -0.10499052703380585,
        -0.19958563148975372,
        -0.044593695551157,
        0.3097732663154602,
        -0.09475415199995041,
        -0.03637080267071724,
        0.1474732607603073,
        -0.11358248442411423,
        0.025569425895810127,
        0.2514592111110687,
        -0.12808123230934143,
        -0.08922086656093597,
        0.0696042999625206,
        0.14251400530338287,
        -0.08738857507705688,
        -0.1514091044664383,
        -0.0878428965806961,
        -0.061186857521533966,
        -0.06838027387857437,
        0.03825508430600166,
        0.12398252636194229,
        -0.050324004143476486,
        0.27481603622436523,
        -0.007234794087707996,
        -0.21619568765163422,
        -0.2926098704338074,
        0.0736265480518341,
        0.1141643226146698,
        0.018357837572693825,
        -0.023286787793040276,
        -0.22166042029857635,
        -0.2513646185398102,
        0.05192408338189125,
        0.05156546086072922,
        0.1772129088640213,
        -0.1803712397813797,
        0.08589933812618256,
        -0.1486714482307434,
        -0.016273511573672295,
        0.13548310101032257,
        -0.3040167987346649,
        -0.10003494471311569,
        0.31688371300697327,
        -0.15477584302425385,
        -0.17284037172794342,
        0.1342340111732483,
        -0.10253309458494186,
        -0.07893040031194687,
        -0.057777177542448044,
        -0.015587990172207355,
        -0.2400132417678833,
        0.08510725200176239,
        0.16912099719047546,
        0.01715835928916931,
        -0.027844557538628578,
        0.060578688979148865,
        -0.2117643505334854,
        0.009938044473528862,
        -0.2533071041107178,
        -0.031501151621341705,
        0.05725353583693504,
        -0.07661262154579163,
        0.13303804397583008,
        0.018973153084516525,
        0.3062228262424469,
        -0.06285012513399124,
        -0.014301308430731297,
        -0.051348913460969925,
        0.2462403029203415,
        -0.01901349611580372,
        0.2462971955537796,
        0.004895941819995642,
        0.038105133920907974,
        0.22392039000988007,
        -0.18541067838668823,
        0.16892790794372559,
        -0.006381811108440161,
        0.0391673780977726,
        -0.047966357320547104,
        0.3320842981338501,
        0.1477765589952469,
        0.12362568825483322,
        -0.3527553975582123,
        -0.010781310498714447,
        0.1459018737077713,
        -0.06903435289859772,
        -0.07563098520040512,
        -0.12322979420423508,
        0.3100229501724243,
        0.0007463737856596708,
        0.1730664074420929,
        0.24562568962574005,
        0.23581963777542114,
        0.18414796888828278,
        0.1954513043165207,
        -0.01908848062157631,
        0.08037097752094269,
        0.11050083488225937,
        -0.035660114139318466,
        -0.1571635901927948,
        0.1346469223499298,
        0.01085363607853651,
        -0.035842061042785645,
        0.24323634803295135,
        0.08357138931751251,
        -0.11841259151697159,
        -0.0453973263502121,
        0.02249228209257126,
        0.15060770511627197,
        -0.14697523415088654,
        0.05782271549105644,
        0.1714603304862976,
        -0.19137856364250183,
        0.025413891300559044,
        -0.12008633464574814,
        -0.0878419503569603,
        0.024619178846478462,
        0.1451929211616516,
        -0.11557088047266006,
        0.04076506197452545,
        -0.005089404992759228,
        0.10877690464258194,
        0.026565387845039368,
        -0.04787566140294075,
        -0.12032680213451385,
        -0.042842574417591095,
        0.1891956478357315,
        0.057748209685087204,
        -0.017816103994846344,
        -0.1406267136335373,
        0.028780685737729073,
        0.10209671407938004,
        -0.06014595180749893,
        0.04354530945420265,
        0.08404215425252914,
        -0.10018136352300644,
        0.12371664494276047,
        0.12111508101224899,
        -0.1607389599084854,
        0.0657966211438179,
        0.05517541617155075,
        0.18344777822494507,
        0.07370094954967499,
        -0.026277557015419006,
        0.02276439219713211,
        0.08271680027246475,
        0.08678723126649857,
        0.1514061987400055,
        -0.057211846113204956,
        0.0016558404313400388,
        0.16112785041332245,
        0.06458142399787903,
        -0.05227713659405708,
        0.1270681917667389,
        -0.217182457447052,
        -0.1450926661491394,
        -0.0362871028482914,
        -0.09772751480340958,
        -0.013238499872386456,
        -0.21835778653621674,
        0.14689229428768158,
        0.03858543932437897,
        -0.11982852965593338,
        0.14033465087413788,
        0.20163527131080627,
        -0.08398052304983139,
        0.08170017600059509,
        0.009081463329494,
        0.009955551475286484,
        0.10169456899166107,
        -0.19322049617767334,
        0.15647074580192566,
        0.08499724417924881,
        0.012019691988825798,
        -0.009227540343999863,
        0.03159220516681671,
        -0.04290167987346649,
        0.14935991168022156,
        -0.17012172937393188,
        0.07698336988687515,
        -0.09757658839225769,
        -0.029202699661254883,
        -0.13666842877864838,
        -0.016771819442510605,
        -0.0467432364821434,
        -0.24268946051597595,
        0.09681288152933121,
        -0.18428801000118256,
        -0.1769351363182068,
        0.0941893681883812,
        0.19966943562030792,
        0.1431836634874344,
        0.013951941393315792,
        -0.13541530072689056,
        -0.07059264183044434,
        0.2381940633058548,
        -0.10511916875839233,
        0.003078402718529105,
        0.10602179914712906,
        -0.25422051548957825,
        0.032863013446331024,
        0.14570839703083038,
        -0.01979217492043972,
        0.46932515501976013,
        -0.020437974482774734,
        0.08298617601394653,
        0.18593181669712067,
        -0.10300476104021072,
        0.1623278558254242,
        -0.622847855091095,
        -0.017297325655817986,
        0.1179712638258934,
        0.12878091633319855,
        0.04971697926521301,
        0.15774038434028625,
        -0.015984341502189636,
        0.03592750057578087,
        -0.02409946545958519,
        0.012617002241313457,
        0.08225226402282715,
        0.02537684701383114,
        -0.12678471207618713,
        -0.12622497975826263,
        -0.11898015439510345,
        -0.09772024303674698,
        0.15838906168937683,
        -0.13882030546665192,
        0.24536801874637604,
        -0.04120757058262825,
        -0.25015369057655334,
        0.13582661747932434,
        0.023338977247476578,
        -0.08116541802883148,
        0.08137471973896027,
        0.07587278634309769,
        0.14302659034729004,
        0.5555592775344849,
        -0.32661861181259155,
        -0.2531157433986664,
        -0.012671707198023796,
        0.0885595977306366,
        0.07933405041694641,
        0.04326822981238365,
        1.1032579095626716e-05,
        -0.05087855085730553,
        0.07979957014322281,
        -0.048352766782045364,
        -0.0012515297858044505,
        0.04734195023775101,
        0.02566060982644558,
        0.04466812312602997,
        0.0061620245687663555,
        0.07144909352064133,
        -0.117743119597435,
        0.022940387949347496,
        -0.00476907379925251,
        0.18761557340621948,
        -0.14632974565029144,
        -0.5303511023521423,
        0.8365217447280884,
        0.38010427355766296,
        -0.3814496099948883,
        0.2104925662279129,
        -0.21090099215507507,
        0.00044836403685621917,
        0.5273712873458862,
        -0.8213590383529663,
        1.0907918214797974,
        0.5796817541122437,
        0.06520380824804306,
        -0.3803079426288605,
        0.15732111036777496,
        -0.7099767327308655,
        0.0052151852287352085,
        -0.09538484364748001,
        -0.03309338167309761,
        -0.1290811449289322,
        0.26135948300361633,
        0.20962433516979218,
        0.260464608669281,
        0.009919285774230957,
        0.33328330516815186,
        -0.036834511905908585,
        0.2906021475791931,
        0.03136365860700607,
        -0.17109589278697968,
        0.0718223825097084,
        0.03947212174534798,
        -0.0956389382481575,
        0.15165691077709198,
        -0.06740632653236389,
        -0.07266714423894882,
        -0.028682872653007507,
        0.3141728341579437,
        0.10613146424293518,
        -0.004972734022885561,
        -0.2284172773361206,
        -0.3491534888744354,
        0.18923906981945038,
        -0.11784588545560837,
        -0.17222966253757477,
        0.14570531249046326,
        0.1426854431629181,
        0.22287246584892273,
        -0.02702787145972252,
        -0.02423202618956566,
        -0.23219092190265656,
        0.017719058319926262,
        -0.17349593341350555,
        0.00251493277028203,
        -0.2623516321182251,
        -0.11159776896238327,
        -0.27589893341064453,
        -0.1457584947347641,
        0.37703269720077515,
        -0.2643156945705414,
        0.296965092420578,
        0.17550817131996155,
        -0.3620700538158417,
        -0.036697112023830414,
        0.21406231820583344,
        0.2358855903148651,
        -0.03836142271757126,
        0.1691495180130005,
        -0.002696831012144685,
        -0.062455568462610245,
        0.10782278329133987,
        -0.27531155943870544,
        0.09703204780817032,
        0.24046385288238525,
        -0.23624834418296814,
        0.08807370066642761,
        0.11721786111593246,
        0.12735064327716827,
        0.1400136798620224,
        0.07038294523954391,
        -0.1709824502468109,
        0.17903687059879303,
        -0.17261475324630737,
        0.26120808720588684,
        -0.22300009429454803,
        0.16734756529331207,
        -0.2161455899477005,
        0.019639210775494576,
        -0.13797985017299652,
        0.022168923169374466,
        -0.12084305286407471,
        -0.2045423984527588,
        0.27544716000556946,
        -0.06142706796526909,
        -0.38158324360847473,
        0.09452664107084274,
        -0.12655244767665863,
        -0.07603573799133301,
        -0.06978364288806915,
        0.002439351985231042,
        -0.042831748723983765,
        -0.2589246928691864,
        -0.17057190835475922,
        0.1859716922044754,
        0.13875503838062286,
        -0.10035808384418488,
        -0.20141929388046265,
        -0.03590906783938408,
        0.29021716117858887,
        -0.0255268681794405,
        0.00961590651422739,
        0.11887361109256744,
        0.13574479520320892,
        0.17419344186782837,
        0.22890454530715942,
        -0.13155797123908997,
        0.29605019092559814,
        0.21128123998641968,
        -0.046234164386987686,
        0.17240232229232788,
        -0.08848001062870026,
        0.03268294036388397,
        0.31879305839538574,
        0.1762923300266266,
        -0.32149171829223633,
        0.0695905089378357,
        0.16757796704769135,
        0.14371338486671448,
        0.09295898675918579,
        0.2905008792877197,
        0.28921589255332947,
        -0.26314836740493774,
        -0.22695718705654144,
        0.22350628674030304,
        -0.1532725989818573,
        0.15671667456626892,
        -0.014902359806001186,
        0.12813328206539154,
        0.07577334344387054,
        -0.1737600713968277,
        0.1516745239496231,
        -0.09400109946727753,
        0.07761680334806442,
        -0.2268095165491104,
        0.08846504241228104,
        -0.20697417855262756,
        0.327741801738739,
        -0.1416504830121994,
        0.2564634680747986,
        0.10267889499664307,
        -0.06204318255186081,
        -0.23987659811973572,
        0.03841909393668175,
        -0.12004654109477997,
        0.2743292450904846,
        -0.1438494771718979,
        0.12495901435613632,
        -0.31858503818511963,
        -0.04291893169283867,
        0.07567530125379562,
        0.09040743857622147,
        0.034191250801086426,
        -0.39225661754608154,
        -0.20331396162509918,
        0.1622685194015503,
        0.010096250101923943,
        0.13708865642547607,
        -0.2362988442182541,
        -0.20314154028892517,
        -0.053153231739997864,
        -0.09338695555925369,
        0.2191491425037384,
        0.06046384945511818,
        0.15701210498809814,
        -0.18962009251117706,
        0.17593899369239807,
        -0.08133209496736526,
        0.24251526594161987,
        -0.11140868812799454,
        -0.04017213359475136,
        -0.09608293324708939,
        -0.07712557166814804,
        -0.2981160879135132,
        0.05143857002258301,
        -0.1438109576702118,
        0.26757749915122986,
        0.4516330361366272,
        -0.3159996569156647,
        0.014034693129360676,
        -0.03308375924825668,
        -0.299612820148468,
        0.07844327390193939,
        0.3479922413825989,
        0.06753350049257278,
        0.12915833294391632,
        -0.1741911917924881,
        0.013361340388655663,
        0.039077430963516235,
        0.22023051977157593,
        0.23916468024253845,
        0.09890874475240707,
        -0.28466981649398804,
        -0.5340825319290161,
        -0.0901053175330162,
        0.16862593591213226,
        -0.21972176432609558,
        -0.20244041085243225,
        -0.09137890487909317,
        -0.018980447202920914,
        -0.1477752923965454,
        -0.16094860434532166,
        0.07391910254955292,
        0.07534746080636978,
        0.017095321789383888,
        0.2352963536977768,
        -0.571851372718811,
        -0.03808407112956047,
        -0.03537004441022873,
        -0.05737922340631485,
        -0.02872410975396633,
        -0.12532933056354523,
        -0.12726329267024994,
        0.18939687311649323,
        0.1124228686094284,
        -0.24557046592235565,
        -0.22818583250045776,
        0.25845101475715637,
        -0.14051564037799835,
        0.16778887808322906,
        -0.24690714478492737,
        -0.08055081963539124,
        0.13555654883384705,
        -0.06671307235956192,
        0.3298286199569702,
        0.07109954208135605,
        0.145603209733963,
        -0.4246148467063904,
        -0.1053062304854393,
        0.29826804995536804,
        -0.16905125975608826,
        -0.03531359136104584,
        0.18264400959014893,
        0.30725592374801636,
        0.012158566154539585,
        -0.24793240427970886,
        -0.25032839179039,
        -0.005002050194889307,
        0.2581934332847595,
        -0.27154460549354553,
        -0.21259957551956177,
        0.26200544834136963,
        -0.05038115754723549,
        0.31050312519073486,
        -0.07263415306806564,
        -0.03537457063794136,
        0.28830429911613464,
        -0.2506343126296997,
        -0.09940155595541,
        -0.050424396991729736,
        -0.0963299572467804,
        -0.1323145627975464,
        -0.11024361848831177,
        -0.1107684075832367,
        -0.028630154207348824,
        -0.22301357984542847,
        -0.008252577856183052,
        0.3765268325805664,
        0.18182386457920074,
        0.2713094651699066,
        -0.18848498165607452,
        -0.085725799202919,
        -0.12019425630569458,
        0.13276009261608124,
        0.06649132072925568,
        0.07734444737434387,
        0.052181974053382874,
        0.13623161613941193,
        -0.047623857855796814,
        0.13964611291885376,
        0.10366909950971603,
        0.017991596832871437,
        -0.22679637372493744,
        -0.08307015895843506,
        -0.025569608435034752,
        0.07064787298440933,
        0.1436307281255722,
        0.1101737692952156,
        0.05158662050962448,
        -0.03636327385902405,
        0.2847409248352051,
        -0.09904204308986664,
        0.09313651919364929,
        -0.08100227266550064,
        -0.08867083489894867,
        0.10421109944581985,
        0.07965649664402008,
        -0.24220862984657288,
        0.08647339046001434,
        0.00653022900223732,
        0.2532973885536194,
        0.12408603727817535,
        -0.12488824129104614,
        -0.12679250538349152,
        -0.15594390034675598,
        -0.08910054713487625,
        0.006222280208021402,
        -0.12980206310749054,
        0.19475233554840088,
        -0.19548442959785461,
        0.0634823739528656,
        -0.2864789664745331,
        0.10576201230287552,
        0.04983294755220413,
        0.06551093608140945,
        -0.24403323233127594,
        -0.056496188044548035,
        -0.15593266487121582,
        0.1598106175661087,
        -0.09838302433490753,
        -0.16011439263820648,
        -0.29267778992652893,
        0.18212227523326874,
        0.13884390890598297,
        0.09746787697076797,
        -0.14987944066524506,
        0.014418676495552063,
        -0.017472993582487106,
        -0.042477719485759735,
        0.15222668647766113,
        -0.07123669981956482,
        -0.0905074030160904,
        -0.07872339338064194,
        -0.09875200688838959,
        -0.01549461204558611,
        0.04004381224513054,
        -0.32547155022621155,
        0.0907757356762886,
        0.26809120178222656,
        0.5373045802116394,
        -0.2528814375400543,
        0.10661370307207108,
        -0.6565497517585754,
        0.07092377543449402,
        0.054311636835336685,
        -0.4256189465522766,
        0.16815511882305145,
        -0.060695089399814606,
        -0.14572788774967194,
        0.2148451805114746,
        -0.24403171241283417,
        -0.18956828117370605,
        0.1882660686969757,
        -0.33594608306884766,
        0.9858853220939636,
        -0.3621831238269806,
        0.059000175446271896,
        0.03131219372153282,
        0.18619899451732635,
        -0.30962198972702026,
        0.12235619127750397,
        -0.30708029866218567,
        0.11797407269477844,
        0.2708001434803009,
        -0.28888219594955444,
        -0.209036722779274,
        0.6255316734313965,
        0.23038187623023987,
        -0.1158895418047905,
        -0.1047808974981308,
        0.08736671507358551,
        0.1384340077638626,
        -0.6826234459877014,
        -0.4688924252986908,
        0.17468568682670593,
        0.07683569937944412,
        0.07256162911653519,
        0.009720626287162304,
        0.26215553283691406,
        -0.3584774136543274,
        -0.02772652730345726,
        -0.13892896473407745,
        -0.20648863911628723,
        0.013170142658054829,
        -0.3694196045398712,
        -0.0498838908970356,
        0.2185826599597931,
        -0.12437190860509872,
        -0.0028621950186789036,
        -0.008858438581228256,
        0.3515288531780243,
        -0.2169179618358612,
        -0.20941676199436188,
        0.02896985039114952,
        0.10063942521810532,
        -0.16364388167858124,
        0.018356816843152046,
        -0.029754312708973885,
        -0.0025604309048503637,
        -0.05987178534269333,
        -0.030479876324534416,
        0.17877274751663208,
        -0.1321834921836853,
        -0.07153438776731491,
        -0.008752034045755863,
        0.08015831559896469,
